{"dist_entropy":0.5044733908958733,"gradients/graph_1base.mlp.fc1.0.weight":{"bins":[-0.00027240131748840213,-0.00026446106494404376,-0.0002565208123996854,-0.000248580559855327,-0.00024064030731096864,-0.00023270005476661026,-0.0002247598022222519,-0.00021681954967789352,-0.00020887929713353515,-0.00020093904458917677,-0.0001929987920448184,-0.00018505853950046003,-0.00017711828695610166,-0.00016917803441174328,-0.0001612377818673849,-0.00015329752932302654,-0.00014535727677866817,-0.0001374170242343098,-0.00012947677168995142,-0.00012153651914559305,-0.00011359626660123467,-0.0001056560140568763,-9.771576151251793e-05,-8.977550896815956e-05,-8.183525642380118e-05,-7.389500387944281e-05,-6.595475133508444e-05,-5.8014498790726066e-05,-5.007424624636769e-05,-4.213399370200932e-05,-3.419374115765095e-05,-2.6253488613292575e-05,-1.8313206965103745e-05,-1.0372954420745373e-05,-2.432701876387e-06,5.507550667971373e-06,1.3447803212329745e-05,2.1388055756688118e-05,2.932830830104649e-05,3.726856084540486e-05,4.5208813389763236e-05,5.314906593412161e-05,6.108931847847998e-05,6.902957102283835e-05,7.696982356719673e-05,8.49100761115551e-05,9.285032865591347e-05,0.00010079058120027184,0.00010873083374463022,0.00011667108628898859,0.00012461133883334696,0.00013255159137770534,0.0001404918439220637,0.00014843209646642208,0.00015637234901078045,0.00016431260155513883,0.0001722528540994972,0.00018019310664385557,0.00018813335918821394,0.00019607361173257232,0.0002040138642769307,0.00021195411682128906,0.00021989436936564744,0.0002278346219100058,0.00023577487445436418],"_type":"histogram","values":[1,0,0,1,0,0,2,0,0,0,0,0,0,0,1,1,0,0,0,2,1,0,0,0,0,0,1,3,3,12,22,17,36,70,475,22,20,26,18,15,6,4,0,0,1,2,0,0,1,1,0,0,0,0,0,0,0,0,2,1,0,0,0,1]},"gradients/base.mlp.fc2.0.0.bias":{"_type":"histogram","values":[1,0,0,0,0,0,0,1,0,0,0,0,0,0,0,0,0,0,1,0,0,0,1,1,0,2,2,2,2,2,0,1,2,2,2,3,0,0,3,1,0,3,4,0,2,0,1,0,1,1,1,4,2,2,1,1,1,0,1,0,3,4,0,3],"bins":[-0.008054416626691818,-0.007867207750678062,-0.007679998409003019,-0.007492789067327976,-0.00730558019131422,-0.007118370849639177,-0.006931161507964134,-0.006743952631950378,-0.006556743290275335,-0.006369533948600292,-0.006182325072586536,-0.005995115730911493,-0.00580790638923645,-0.005620697513222694,-0.005433488171547651,-0.0052462792955338955,-0.005059069953858852,-0.004871860612183809,-0.0046846517361700535,-0.00449744239449501,-0.004310233518481255,-0.0041230241768062115,-0.003935814835131168,-0.003748605726286769,-0.0035613966174423695,-0.00337418750859797,-0.0031869783997535706,-0.0029997690580785275,-0.002812559949234128,-0.0026253508403897285,-0.0024381414987146854,-0.002250932389870286,-0.0020637228153645992,-0.0018765137065201998,-0.0016893044812604785,-0.0015020952560007572,-0.0013148861471563578,-0.0011276770383119583,-0.000940467813052237,-0.0007532586460001767,-0.0005660494789481163,-0.00037884031189605594,-0.00019163114484399557,-4.4219777919352055e-06,0.00018278718926012516,0.0003699963563121855,0.0005572055233642459,0.0007444146904163063,0.0009316238574683666,0.001118832966312766,0.0013060421915724874,0.0014932514168322086,0.001680460525676608,0.0018676696345210075,0.0020548789761960506,0.00224208808504045,0.0024292971938848495,0.002616506302729249,0.0028037154115736485,0.0029909247532486916,0.003178133862093091,0.0033653429709374905,0.0035525523126125336,0.003739761421456933,0.0039269705303013325]},"gradients/graph_1base.mlp.fc2.0.0.weight":{"bins":[-0.00017704711353871971,-0.00017259812739212066,-0.0001681491412455216,-0.00016370015509892255,-0.00015925118350423872,-0.00015480219735763967,-0.00015035321121104062,-0.00014590422506444156,-0.0001414552389178425,-0.00013700625277124345,-0.0001325572666246444,-0.00012810828047804534,-0.0001236592943314463,-0.00011921031546080485,-0.00011476133659016341,-0.00011031235044356436,-0.0001058633642969653,-0.00010141437815036625,-9.696539200376719e-05,-9.251641313312575e-05,-8.80674269865267e-05,-8.361844083992764e-05,-7.91694619692862e-05,-7.472047582268715e-05,-7.02714896760881e-05,-6.582250352948904e-05,-6.137351738288999e-05,-5.6924538512248546e-05,-5.247555236564949e-05,-4.802656621905044e-05,-4.357758371043019e-05,-3.912860120180994e-05,-3.467962960712612e-05,-3.0230645279516466e-05,-2.5781660951906815e-05,-2.1332676624297164e-05,-1.6883692296687514e-05,-1.2434707969077863e-05,-7.985723641468212e-06,-3.5367393138585612e-06,9.122450137510896e-07,5.36122934136074e-06,9.810213668970391e-06,1.4259197996580042e-05,1.8708182324189693e-05,2.3157166651799344e-05,2.7606150979408994e-05,3.205513348802924e-05,3.6504119634628296e-05,4.095310578122735e-05,4.54020882898476e-05,4.9851070798467845e-05,5.43000569450669e-05,5.8749043091665953e-05,6.31980219623074e-05,6.764700810890645e-05,7.20959942555055e-05,7.654498040210456e-05,8.099396654870361e-05,8.544294541934505e-05,8.98919315659441e-05,9.434091771254316e-05,9.87898965831846e-05,0.00010323888272978365,0.00010768786887638271],"_type":"histogram","values":[1,0,1,0,0,1,0,0,0,0,1,1,0,0,0,0,0,0,0,0,1,0,2,3,5,4,2,4,6,0,0,4,10,6,17,64,134,134,374,2599,244,81,190,44,22,24,40,23,13,5,7,3,2,5,3,3,2,4,2,1,2,0,1,1]},"avg_se_mean":5.100102373585243,"cm0_ratio":0.2702015873015796,"n_drop_mean":0.0013095238095238095,"_timestamp":1.7450529967552783e+09,"gradients/act.action_outs.3.linear.bias":{"_type":"histogram","values":[1,0,0,0,0,0,0,0,0,0,0,0,0,0,0,0,0,0,0,0,0,0,0,0,0,1,0,0,0,0,0,0,0,0,0,0,0,0,0,0,0,0,0,0,0,0,0,0,0,0,0,0,0,0,0,0,0,0,0,0,0,0,0,1],"bins":[-0.001027952879667282,-0.000993531895801425,-0.000959110795520246,-0.0009246898116543889,-0.0008902687695808709,-0.0008558477275073528,-0.0008214267436414957,-0.0007870057015679777,-0.0007525846594944596,-0.0007181636174209416,-0.0006837425753474236,-0.0006493215914815664,-0.0006149005494080484,-0.0005804795073345304,-0.0005460585234686732,-0.0005116374813951552,-0.00047721643932163715,-0.0004427953972481191,-0.00040837438427843153,-0.00037395337130874395,-0.0003395323292352259,-0.0003051112871617079,-0.0002706902741920203,-0.0002362692466704175,-0.00020184821914881468,-0.00016742719162721187,-0.00013300616410560906,-9.858513658400625e-05,-6.416410906240344e-05,-2.974308154080063e-05,4.677945980802178e-06,3.909897350240499e-05,7.351988460868597e-05,0.00010794091213028878,0.0001423619396518916,0.0001767829671734944,0.0002112039946950972,0.00024562503676861525,0.0002800460497383028,0.0003144670627079904,0.00034888810478150845,0.0003833091468550265,0.00041773015982471406,0.00045215117279440165,0.0004865722148679197,0.0005209932569414377,0.0005554142408072948,0.0005898352828808129,0.0006242563249543309,0.000658677367027849,0.000693098409101367,0.0007275193929672241,0.0007619404350407422,0.0007963614771142602,0.0008307824609801173,0.0008652035030536354,0.0008996245451271534,0.0009340455872006714,0.0009684666292741895,0.0010028876131400466,0.0010373087134212255,0.0010717296972870827,0.0011061506811529398,0.0011405717814341187,0.0011749927652999759]},"gradients/graph_1base.mlp.fc2.0.2.weight":{"bins":[-6.912618118803948e-05,-6.63408063701354e-05,-6.355543882818893e-05,-6.077006401028484e-05,-5.798469283035956e-05,-5.5199321650434285e-05,-5.24139468325302e-05,-4.962857565260492e-05,-4.6843204472679645e-05,-4.405783329275437e-05,-4.127246211282909e-05,-3.8487087294925004e-05,-3.5701716114999726e-05,-3.291634493507445e-05,-3.0130971936159767e-05,-2.7345598937245086e-05,-2.4560227757319808e-05,-2.177485657739453e-05,-1.898948357847985e-05,-1.6204110579565167e-05,-1.341873939963989e-05,-1.063336731021991e-05,-7.84799522079993e-06,-5.062623131379951e-06,-2.277251041959971e-06,5.081210474600084e-07,3.293493136879988e-06,6.078865226299968e-06,8.864237315719947e-06,1.1649609405139927e-05,1.4434981494559906e-05,1.7220354493474588e-05,2.0005725673399866e-05,2.2791096853325143e-05,2.5576469852239825e-05,2.8361842851154506e-05,3.1147214031079784e-05,3.393258521100506e-05,3.671796002890915e-05,3.9503331208834425e-05,4.22887023887597e-05,4.507407356868498e-05,4.785944474861026e-05,5.064481956651434e-05,5.343019074643962e-05,5.62155619263649e-05,5.9000936744268984e-05,6.178630428621545e-05,6.457167910411954e-05,6.735705392202362e-05,7.01424214639701e-05,7.292779628187418e-05,7.571316382382065e-05,7.849853864172474e-05,8.128391345962882e-05,8.406928100157529e-05,8.685465581947938e-05,8.964003063738346e-05,9.242539817932993e-05,9.521077299723402e-05,9.79961478151381e-05,0.00010078151535708457,0.00010356689017498866,0.00010635225771693513,0.00010913763253483921],"_type":"histogram","values":[1,0,0,0,0,0,2,0,0,0,2,0,0,1,2,0,0,4,3,1,2,3,1,5,6,4,0,3,3,2,1,1,2,2,0,5,2,3,0,0,2,0,0,0,0,0,0,0,0,0,0,0,0,0,0,0,0,0,0,0,0,0,0,1]},"gradients/act.action_outs.0.linear.bias":{"_type":"histogram","values":[1,0,0,0,0,0,0,0,0,0,1,0,0,0,0,0,0,0,0,0,0,0,0,0,0,0,0,0,0,0,0,0,0,0,0,0,0,0,0,0,0,0,0,0,0,0,0,0,0,0,0,0,0,0,0,0,0,0,0,0,0,0,0,1],"bins":[-0.0023421081714332104,-0.002247848780825734,-0.0021535896230489016,-0.0020593302324414253,-0.001965070841833949,-0.0018708115676417947,-0.0017765521770343184,-0.001682292902842164,-0.0015880335122346878,-0.0014937742380425334,-0.001399514963850379,-0.0013052555732429028,-0.0012109962990507483,-0.0011167369084432721,-0.0010224776342511177,-0.0009282183018513024,-0.0008339589694514871,-0.0007396996370516717,-0.0006454403046518564,-0.0005511809722520411,-0.00045692166895605624,-0.0003626623365562409,-0.00026840303326025605,-0.00017414370086044073,-7.988436846062541e-05,1.4374956663232297e-05,0.00010863428178709,0.0002028935996349901,0.0002971529320348054,0.00039141226443462074,0.0004856715677306056,0.0005799309001304209,0.0006741902325302362,0.0007684495649300516,0.0008627088973298669,0.0009569682297296822,0.0010512275621294975,0.001145486836321652,0.0012397462269291282,0.0013340055011212826,0.0014282648917287588,0.0015225241659209132,0.0016167834401130676,0.0017110428307205439,0.0018053021049126983,0.0018995614955201745,0.001993820769712329,0.002088080160319805,0.0021823393180966377,0.002276598708704114,0.00237085809931159,0.0024651174899190664,0.002559376647695899,0.0026536360383033752,0.0027478954289108515,0.0028421548195183277,0.0029364139772951603,0.0030306733679026365,0.0031249327585101128,0.0032191919162869453,0.0033134513068944216,0.003407710697501898,0.003501970088109374,0.0035962292458862066,0.003690488636493683]},"reward_mean":-0.11139884953312014,"gradients/act.action_outs.1.linear.bias":{"bins":[-0.0026233582757413387,-0.00252218684181571,-0.0024210154078900814,-0.0023198439739644527,-0.0022186723072081804,-0.0021175008732825518,-0.002016329439356923,-0.0019151580054312944,-0.0018139865715056658,-0.0017128150211647153,-0.0016116435872390866,-0.001510472153313458,-0.0014093006029725075,-0.0013081291690468788,-0.0012069577351212502,-0.0011057861847802997,-0.001004614750854671,-0.0009034432587213814,-0.0008022718247957528,-0.0007011003326624632,-0.0005999288987368345,-0.000498757406603545,-0.0003975859144702554,-0.00029641445144079626,-0.00019524298841133714,-9.40715181059204e-05,7.099952199496329e-06,0.00010827142250491306,0.0002094428928103298,0.0003106143558397889,0.0004117858479730785,0.0005129572818987072,0.0006141287740319967,0.0007153002661652863,0.000816471700090915,0.0009176431922242045,0.0010188146261498332,0.0011199861764907837,0.0012211576104164124,0.001322329044342041,0.0014235004782676697,0.0015246720286086202,0.0016258434625342488,0.0017270148964598775,0.001828186446800828,0.0019293578807264566,0.0020305293146520853,0.002131700748577714,0.0022328724153339863,0.002334043849259615,0.0024352152831852436,0.0025363867171108723,0.002637558151036501,0.0027387295849621296,0.0028399010188877583,0.0029410726856440306,0.0030422441195696592,0.003143415553495288,0.0032445869874209166,0.0033457584213465452,0.003446929855272174,0.003548101522028446,0.003649272955954075,0.0037504443898797035,0.003851615823805332],"_type":"histogram","values":[1,0,0,0,0,0,0,0,0,0,0,0,0,0,0,0,0,0,0,1,1,0,0,0,0,0,0,0,0,0,0,0,0,0,0,0,0,0,0,0,0,0,0,0,0,0,0,0,0,0,0,0,0,0,0,0,0,0,0,0,0,0,0,1]},"actor_grad_norm":0.35593295097351074,"critic_grad_norm":0.007600441109389067,"gradients/graph_1base.mlp.fc2.0.2.bias":{"_type":"histogram","values":[1,0,0,0,0,0,0,0,1,0,0,0,2,1,2,2,0,0,1,1,3,1,2,0,1,1,0,3,3,1,1,0,0,3,3,1,0,1,1,4,2,3,0,2,2,2,0,2,2,0,2,2,1,0,0,0,2,0,0,0,0,0,1,1],"bins":[-0.00014470703899860382,-0.0001403758069500327,-0.0001360445749014616,-0.00013171335740480572,-0.0001273821253562346,-0.0001230508933076635,-0.00011871966853505,-0.00011438844376243651,-0.0001100572117138654,-0.00010572597966529429,-0.0001013947548926808,-9.70635301200673e-05,-9.273229807149619e-05,-8.840106602292508e-05,-8.406984125031158e-05,-7.973861647769809e-05,-7.540738442912698e-05,-7.107615238055587e-05,-6.674492760794237e-05,-6.241370283532888e-05,-5.808247078675777e-05,-5.3751242376165465e-05,-4.942001396557316e-05,-4.508878555498086e-05,-4.0757557144388556e-05,-3.6426328733796254e-05,-3.209510032320395e-05,-2.776387191261165e-05,-2.3432643502019346e-05,-1.9101415091427043e-05,-1.477018668083474e-05,-1.0438958270242438e-05,-6.107715307734907e-06,-1.776486897142604e-06,2.5547415134496987e-06,6.885969924042001e-06,1.1217198334634304e-05,1.5548426745226607e-05,1.987965515581891e-05,2.4210883566411212e-05,2.8542111977003515e-05,3.287334038759582e-05,3.720456879818812e-05,4.153579720878042e-05,4.5867025619372725e-05,5.019825402996503e-05,5.452948244055733e-05,5.8860710851149634e-05,6.319193926174194e-05,6.752317131031305e-05,7.185439608292654e-05,7.618562085554004e-05,8.051685290411115e-05,8.484808495268226e-05,8.917930972529575e-05,9.351053449790925e-05,9.784176654648036e-05,0.00010217299859505147,0.00010650422336766496,0.00011083544814027846,0.00011516668018884957,0.00011949791223742068,0.0001238291442859918,0.00012816036178264767,0.00013249159383121878]},"gradients/base.mlp.fc2.0.0.weight":{"_type":"histogram","values":[1,0,1,1,0,0,0,1,1,0,2,0,1,2,1,3,3,3,4,9,10,6,19,17,24,35,46,65,82,120,154,177,228,266,299,366,377,338,293,271,224,147,138,93,59,38,34,28,24,14,14,11,9,11,8,5,6,4,1,0,1,0,0,1],"bins":[-0.014318142086267471,-0.013922585174441338,-0.013527028262615204,-0.01313147135078907,-0.012735914438962936,-0.012340356595814228,-0.011944799683988094,-0.01154924277216196,-0.011153685860335827,-0.010758128948509693,-0.01036257203668356,-0.009967015124857426,-0.009571457281708717,-0.009175900369882584,-0.00878034345805645,-0.008384786546230316,-0.007989229634404182,-0.007593672722578049,-0.007198115810751915,-0.006802558433264494,-0.00640700152143836,-0.0060114446096122265,-0.0056158872321248055,-0.005220330320298672,-0.004824773408472538,-0.004429216496646404,-0.0040336595848202705,-0.0036381022073328495,-0.0032425452955067158,-0.002846988383680582,-0.0024514312390238047,-0.0020558740943670273,-0.0016603171825408936,-0.001264760154299438,-0.0008692031260579824,-0.0004736460978165269,-7.808906957507133e-05,0.0003174679586663842,0.0007130249869078398,0.0011085820151492953,0.0015041390433907509,0.0018996960716322064,0.002295253099873662,0.0026908102445304394,0.003086367156356573,0.003481924068182707,0.003877481212839484,0.004273038357496262,0.004668595269322395,0.005064152181148529,0.005459709092974663,0.005855266470462084,0.0062508233822882175,0.006646380294114351,0.007041937671601772,0.007437494583427906,0.00783305149525404,0.008228608407080173,0.008624165318906307,0.009019722230732441,0.00941528007388115,0.009810836985707283,0.010206393897533417,0.01060195080935955,0.010997507721185684]},"_runtime":24373.376044955,"gradients/act.action_outs.1.linear.weight":{"_type":"histogram","values":[1,0,0,0,0,0,1,1,1,0,0,0,3,2,1,4,6,7,3,9,13,9,15,11,5,25,19,14,16,17,6,16,17,9,10,0,2,3,2,2,0,0,1,0,0,0,0,1,1,0,0,2,0,0,0,0,0,0,0,0,0,0,0,1],"bins":[-0.009911106899380684,-0.009538711048662663,-0.009166314266622066,-0.008793918415904045,-0.008421522565186024,-0.008049125783145428,-0.007676729932427406,-0.007304334081709385,-0.006931937765330076,-0.0065595414489507675,-0.006187145598232746,-0.005814749281853437,-0.005442352965474129,-0.005069957114756107,-0.004697560798376799,-0.004325164947658777,-0.0039527686312794685,-0.0035803725477308035,-0.0032079764641821384,-0.0028355801478028297,-0.0024631840642541647,-0.0020907879807054996,-0.0017183917807415128,-0.001345995580777526,-0.0009735994972288609,-0.0006012033554725349,-0.00022880721371620893,0.00014358892804011703,0.000515985069796443,0.0008883812115527689,0.001260777353309095,0.0016331735532730818,0.002005569636821747,0.002377965720370412,0.002750361803919077,0.0031227581202983856,0.0034951542038470507,0.0038675502873957157,0.004239946603775024,0.004612342454493046,0.0049847387708723545,0.005357135087251663,0.005729530937969685,0.006101927254348993,0.006474323570728302,0.006846719421446323,0.007219115737825632,0.0075915115885436535,0.007963907904922962,0.008336303755640984,0.00870870053768158,0.009081096388399601,0.009453492239117622,0.009825889021158218,0.01019828487187624,0.010570680722594261,0.010943077504634857,0.011315473355352879,0.0116878692060709,0.012060265056788921,0.012432661838829517,0.012805057689547539,0.01317745354026556,0.013549850322306156,0.013922246173024178]},"gradients/graph_1v_out.weight":{"bins":[-0.0002395209448877722,-0.00018007859762292355,-0.00012063624308211729,-6.119388854131103e-05,-1.7515412764623761e-06,5.769080962636508e-05,0.00011713316052919254,0.0001765755150699988,0.00023601786233484745,0.00029546022415161133,0.00035490255686454475,0.00041434491868130863,0.00047378725139424205,0.0005332296132110059,0.0005926719750277698,0.0006521143368445337,0.0007115566404536366,0.0007709990022704005,0.0008304413640871644,0.0008898837259039283,0.0009493260877206922,0.001008768449537456,0.00106821081135422,0.0011276531731709838,0.0011870954185724258,0.0012465377803891897,0.0013059801422059536,0.0013654225040227175,0.0014248648658394814,0.0014843072276562452,0.0015437495894730091,0.001603191951289773,0.001662634196691215,0.001722076558507979,0.0017815189203247428,0.0018409612821415067,0.0019004036439582705,0.0019598458893597126,0.0020192882511764765,0.0020787306129932404,0.0021381729748100042,0.002197615336626768,0.002257057698443532,0.002316500060260296,0.0023759424220770597,0.0024353847838938236,0.0024948271457105875,0.0025542695075273514,0.0026137118693441153,0.002673154231160879,0.002732596592977643,0.002792038954794407,0.0028514813166111708,0.0029109236784279346,0.002970365807414055,0.0030298081692308187,0.0030892505310475826,0.0031486928928643465,0.0032081352546811104,0.0032675776164978743,0.003327019978314638,0.003386462340131402,0.003445904701948166,0.0035053470637649298,0.0035647894255816936],"_type":"histogram","values":[34,5,2,6,3,4,1,1,1,1,1,0,2,0,0,0,0,1,0,0,1,0,0,0,0,0,0,0,0,0,0,0,0,0,0,0,0,0,0,0,0,0,0,0,0,0,0,0,0,0,0,0,0,0,0,0,0,0,0,0,0,0,0,1]},"delay_ratio_mean":0.10481806658708398,"gradients/act.action_outs.0.linear.weight":{"_type":"histogram","values":[1,0,0,0,2,0,1,0,1,0,1,0,2,1,0,0,3,3,3,2,1,8,7,3,9,3,6,3,6,12,8,4,7,7,6,6,4,10,7,8,5,5,2,6,1,3,4,2,6,0,1,1,2,0,1,3,0,2,0,2,0,0,0,1],"bins":[-0.008785057812929153,-0.008519248105585575,-0.008253437466919422,-0.007987627759575844,-0.0077218180522322655,-0.0074560078792274,-0.007190197706222534,-0.006924387998878956,-0.00665857782587409,-0.0063927676528692245,-0.006126957945525646,-0.0058611477725207806,-0.005595337599515915,-0.005329527892172337,-0.005063717719167471,-0.004797908011823893,-0.004532097838819027,-0.004266287665814161,-0.004000477958470583,-0.0037346677854657173,-0.0034688578452914953,-0.0032030479051172733,-0.0029372377321124077,-0.0026714277919381857,-0.0024056178517639637,-0.0021398079115897417,-0.0018739978550001979,-0.001608187798410654,-0.001342377858236432,-0.00107656791806221,-0.0008107578614726663,-0.0005449478630907834,-0.00027913693338632584,-1.332693500444293e-05,0.00025248306337744,0.0005182930617593229,0.0007841030601412058,0.0010499130003154278,0.0013157230569049716,0.0015815331134945154,0.0018473430536687374,0.0021131529938429594,0.0023789629340171814,0.002644773107022047,0.002910583047196269,0.003176392987370491,0.0034422031603753567,0.0037080131005495787,0.003973823040723801,0.004239633213728666,0.004505442921072245,0.00477125309407711,0.005037062801420689,0.005302872974425554,0.00556868314743042,0.005834492854773998,0.006100303027778864,0.0063661132007837296,0.006631922908127308,0.0068977330811321735,0.007163543254137039,0.0074293529614806175,0.007695163134485483,0.007960973307490349,0.008226783014833927]},"gradients/act.action_outs.2.linear.weight":{"bins":[-0.014119061641395092,-0.013678520917892456,-0.01323798019438982,-0.012797440402209759,-0.012356899678707123,-0.011916358955204487,-0.011475818231701851,-0.01103527843952179,-0.010594737716019154,-0.010154196992516518,-0.009713656269013882,-0.009273115545511246,-0.008832575753331184,-0.008392035029828548,-0.007951494306325912,-0.007510954048484564,-0.007070413324981928,-0.006629872601479292,-0.006189332343637943,-0.005748791620135307,-0.005308251362293959,-0.004867710638791323,-0.004427170380949974,-0.003986629657447338,-0.003546089166775346,-0.0031055486761033535,-0.002665008185431361,-0.002224467694759369,-0.0017839270876720548,-0.0013433865970000625,-0.0009028460481204093,-0.0004623055283445865,-2.1765008568763733e-05,0.000418775511207059,0.0008593160309828818,0.001299856579862535,0.0017403970705345273,0.0021809376776218414,0.0026214781682938337,0.003062018658965826,0.0035025591496378183,0.003943099640309811,0.004383640363812447,0.004824180621653795,0.005264721345156431,0.00570526160299778,0.006145802326500416,0.0065863425843417645,0.0070268833078444,0.007467424031347036,0.007907964289188385,0.008348505012691021,0.008789045736193657,0.009229585528373718,0.009670126251876354,0.01011066697537899,0.010551207698881626,0.010991748422384262,0.011432288214564323,0.01187282893806696,0.012313369661569595,0.012753910385072231,0.013194450177252293,0.013634990900754929,0.014075531624257565],"_type":"histogram","values":[1,0,0,0,0,0,0,0,1,0,1,0,1,0,1,0,1,0,4,0,1,5,5,4,7,7,5,8,12,12,4,12,13,12,9,10,7,10,9,8,6,2,3,2,2,1,0,0,3,0,0,0,0,0,1,0,1,0,0,0,0,0,0,1]},"gradients/graph_1base.feature_norm.bias":{"values":[1,0,0,0,0,0,0,0,0,0,0,0,0,0,0,0,0,0,0,0,0,0,0,0,0,0,0,0,0,0,0,0,1,0,0,0,0,0,1,4,0,2,0,0,0,1,0,0,0,0,0,0,0,0,0,0,0,0,0,1,0,0,0,1],"bins":[-8.658769365865737e-05,-8.374654862564057e-05,-8.090539631666616e-05,-7.806425128364936e-05,-7.522309897467494e-05,-7.238195394165814e-05,-6.954080890864134e-05,-6.669965659966692e-05,-6.385851156665012e-05,-6.1017362895654514e-05,-5.8176214224658906e-05,-5.5335069191642106e-05,-5.24939205206465e-05,-4.965277184965089e-05,-4.681162681663409e-05,-4.397047814563848e-05,-4.112932947464287e-05,-3.8288180803647265e-05,-3.544703213265166e-05,-3.2605887099634856e-05,-2.9764738428639248e-05,-2.692358975764364e-05,-2.4082442905637436e-05,-2.124129605363123e-05,-1.8400147382635623e-05,-1.5558998711640015e-05,-1.271785185963381e-05,-9.876704098132905e-06,-7.035556336631998e-06,-4.194408575131092e-06,-1.353260813630186e-06,1.4878869478707202e-06,4.329034709371626e-06,7.1701824708725326e-06,1.0011330232373439e-05,1.2852477993874345e-05,1.569362575537525e-05,1.853477442637086e-05,2.1375921278377064e-05,2.4217068130383268e-05,2.7058216801378876e-05,2.9899365472374484e-05,3.274051414337009e-05,3.558165917638689e-05,3.84228078473825e-05,4.126395651837811e-05,4.410510155139491e-05,4.694625022239052e-05,4.9787398893386126e-05,5.2628547564381734e-05,5.546969623537734e-05,5.831084126839414e-05,6.115199357736856e-05,6.399313861038536e-05,6.683428364340216e-05,6.967543595237657e-05,7.251658098539338e-05,7.535772601841018e-05,7.819887832738459e-05,8.104002336040139e-05,8.388116839341819e-05,8.672232070239261e-05,8.956346573540941e-05,9.240461804438382e-05,9.524576307740062e-05],"_type":"histogram"},"cluster_size_mean":13.072777777777778,"pc_kw_mean":0.6447106612747064,"gradients/base.mlp.fc2.0.2.bias":{"_type":"histogram","values":[1,0,0,1,0,0,1,1,1,1,1,1,1,0,1,0,1,1,2,0,2,1,0,3,4,2,3,3,2,2,1,3,0,1,0,1,0,2,2,1,2,4,1,0,0,1,2,0,1,1,0,1,1,2,0,0,0,0,0,0,0,0,0,1],"bins":[-0.004739738535135984,-0.004581715911626816,-0.004423693288117647,-0.0042656706646084785,-0.00410764804109931,-0.003949625417590141,-0.003791602561250329,-0.0036335799377411604,-0.003475557081401348,-0.0033175344578921795,-0.003159511834383011,-0.0030014892108738422,-0.0028434665873646736,-0.002685443963855505,-0.0025274211075156927,-0.002369398484006524,-0.0022113758604973555,-0.002053353236988187,-0.0018953304970636964,-0.0017373078735545278,-0.0015792851336300373,-0.0014212625101208687,-0.0012632398866117,-0.0011052171466872096,-0.000947194523178041,-0.0007891718414612114,-0.0006311491597443819,-0.0004731265362352133,-0.00031510385451838374,-0.00015708118735346943,9.414798114448786e-07,0.0001589641469763592,0.0003169868141412735,0.00047500949585810304,0.0006330321775749326,0.0007910548010841012,0.0009490774828009307,0.0011071001645177603,0.001265122788026929,0.0014231455279514194,0.001581168151460588,0.0017391907749697566,0.001897213514894247,0.0020552361384034157,0.0022132587619125843,0.002371281385421753,0.002529304241761565,0.002687326865270734,0.0028453494887799025,0.003003372112289071,0.0031613947357982397,0.003319417592138052,0.0034774402156472206,0.0036354628391563892,0.003793485462665558,0.0039515080861747265,0.004109530709683895,0.004267553333193064,0.004425575956702232,0.004583599045872688,0.004741621669381857,0.0048996442928910255,0.005057666916400194,0.005215689539909363,0.005373712163418531]},"gradients/base.feature_norm.bias":{"values":[1,0,0,0,0,0,0,0,0,1,0,2,0,0,1,0,0,0,2,1,1,2,2,1,3,2,6,3,1,3,5,1,3,4,4,6,4,4,4,6,3,5,8,2,4,4,1,1,3,0,1,3,0,0,0,0,0,0,1,0,0,1,0,2],"bins":[-0.017744019627571106,-0.017251698300242424,-0.016759375110268593,-0.01626705378293991,-0.01577473245561123,-0.015282410196959972,-0.01479008886963129,-0.014297766610980034,-0.013805445283651352,-0.013313123025000095,-0.012820800766348839,-0.012328479439020157,-0.0118361571803689,-0.011343835853040218,-0.010851513594388962,-0.01035919226706028,-0.009866870008409023,-0.009374547749757767,-0.008882226422429085,-0.008389904163777828,-0.007897582836449146,-0.00740526057779789,-0.0069129387848079205,-0.006420616991817951,-0.005928295198827982,-0.005435973405838013,-0.0049436516128480434,-0.004451329819858074,-0.003959007561206818,-0.003466686001047492,-0.002974363975226879,-0.00248204218223691,-0.001989719457924366,-0.0014973976649343967,-0.0010050757555291057,-0.0005127539043314755,-2.043205313384533e-05,0.00047188979806378484,0.000964211649261415,0.001456533558666706,0.0019488553516566753,0.0024411771446466446,0.002933498937636614,0.0034258209634572268,0.00391814298927784,0.004410464782267809,0.004902786575257778,0.005395108368247747,0.005887430161237717,0.006379751954227686,0.006872073747217655,0.0073643955402076244,0.007856717333197594,0.00834903959184885,0.008841360919177532,0.009333683177828789,0.00982600450515747,0.010318326763808727,0.010810649022459984,0.011302970349788666,0.011795292608439922,0.012287613935768604,0.01277993619441986,0.013272257521748543,0.0137645797803998],"_type":"histogram"},"gradients/base.mlp.fc1.2.weight":{"bins":[-0.011382856406271458,-0.011065572500228882,-0.010748288594186306,-0.01043100468814373,-0.010113721713423729,-0.009796437807381153,-0.009479153901338577,-0.009161869995296001,-0.008844586089253426,-0.00852730218321085,-0.008210018277168274,-0.007892734371125698,-0.0075754509307444096,-0.007258167024701834,-0.006940883584320545,-0.006623599678277969,-0.0063063157722353935,-0.005989031866192818,-0.005671747960150242,-0.005354464519768953,-0.0050371806137263775,-0.004719896707683802,-0.004402613267302513,-0.004085329361259937,-0.0037680454552173615,-0.0034507615491747856,-0.0031334778759628534,-0.0028161942027509212,-0.0024989102967083454,-0.0021816263906657696,-0.0018643427174538374,-0.0015470589278265834,-0.001229776069521904,-0.00091249227989465,-0.000595208490267396,-0.00027792470064014196,3.9359088987112045e-05,0.00035664287861436605,0.0006739266682416201,0.000991210457868874,0.001308494247496128,0.001625778037123382,0.001943061826750636,0.0022603454999625683,0.002577629406005144,0.00289491331204772,0.003212196985259652,0.0035294806584715843,0.00384676456451416,0.004164048470556736,0.004481332376599312,0.0047986158169806,0.005115899723023176,0.005433183629065752,0.0057504670694470406,0.006067750975489616,0.006385034881532192,0.006702318787574768,0.007019602693617344,0.007336886133998632,0.007654170040041208,0.007971453480422497,0.008288737386465073,0.008606021292507648,0.008923305198550224],"_type":"histogram","values":[1,0,0,0,0,0,0,0,0,0,1,0,0,0,0,0,0,3,0,0,0,0,0,2,2,1,0,2,2,5,3,3,3,1,5,3,0,3,0,1,5,1,2,3,0,1,1,2,0,0,0,2,0,1,0,1,0,0,2,0,1,0,0,1]},"qos_reward_mean":0.0036621353744190612,"gradients/graph_1v_out.bias":{"_type":"histogram","values":[1],"bins":[0.0005247730878181756,0.0005247730878181756]},"value_loss":0.00011356973111560364,"cm1_ratio":0.5271777777778006,"gradients/graph_1base.feature_norm.weight":{"_type":"histogram","values":[1,0,1,0,0,0,0,0,0,0,0,0,0,1,0,0,0,1,2,0,0,0,1,2,0,0,0,0,0,0,0,1,0,0,0,0,0,0,0,0,1,0,0,0,0,0,0,0,0,0,0,0,0,0,0,0,0,0,0,0,0,0,0,1],"bins":[-4.777529829880223e-05,-4.568985605146736e-05,-4.36044174421113e-05,-4.151897519477643e-05,-3.943353658542037e-05,-3.73480943380855e-05,-3.5262652090750635e-05,-3.3177213481394574e-05,-3.1091771234059706e-05,-2.9006330805714242e-05,-2.6920890377368778e-05,-2.483544813003391e-05,-2.2750007701688446e-05,-2.0664567273342982e-05,-1.8579125026008114e-05,-1.649368459766265e-05,-1.4408244169317186e-05,-1.2322803740971722e-05,-1.0237362403131556e-05,-8.15192106529139e-06,-6.066480636945926e-06,-3.981039753853111e-06,-1.8955988707602955e-06,1.8984201233251952e-07,2.2752828954253346e-06,4.36072377851815e-06,6.446164661610965e-06,8.53160599945113e-06,1.0617046427796595e-05,1.2702486856142059e-05,1.4787928193982225e-05,1.687336953182239e-05,1.895881723612547e-05,2.1044257664470933e-05,2.3129698092816398e-05,2.5215140340151265e-05,2.730058076849673e-05,2.9386021196842194e-05,3.147146344417706e-05,3.355690205353312e-05,3.564234430086799e-05,3.772778654820286e-05,3.981322515755892e-05,4.1898667404893786e-05,4.3984109652228653e-05,4.6069548261584714e-05,4.815499050891958e-05,5.024042911827564e-05,5.232587136561051e-05,5.441131361294538e-05,5.649675222230144e-05,5.8582194469636306e-05,6.066763307899237e-05,6.275307532632723e-05,6.48385175736621e-05,6.692395982099697e-05,6.900940206833184e-05,7.109483703970909e-05,7.318027928704396e-05,7.526572153437883e-05,7.73511637817137e-05,7.943660602904856e-05,8.152204100042582e-05,8.360748324776068e-05,8.569292549509555e-05]},"gradients/graph_1base.mlp.fc1.2.weight":{"_type":"histogram","values":[1,0,0,0,0,0,0,0,0,0,1,0,0,0,0,0,0,0,0,0,0,0,0,0,0,0,0,3,1,1,1,1,0,0,4,1,5,2,6,4,3,2,3,5,4,3,1,3,3,1,0,2,1,0,0,0,1,0,0,0,0,0,0,1],"bins":[-7.652415661141276e-05,-7.461062341462821e-05,-7.269709021784365e-05,-7.078356429701671e-05,-6.887003110023215e-05,-6.69564979034476e-05,-6.504297198262066e-05,-6.31294387858361e-05,-6.121590558905154e-05,-5.930237239226699e-05,-5.738884283346124e-05,-5.547531327465549e-05,-5.3561780077870935e-05,-5.164824688108638e-05,-4.973471732228063e-05,-4.782118776347488e-05,-4.5907654566690326e-05,-4.399412136990577e-05,-4.208059181110002e-05,-4.016706225229427e-05,-3.8253529055509716e-05,-3.633999585872516e-05,-3.442646629991941e-05,-3.251293674111366e-05,-3.059940354432911e-05,-2.8685872166533954e-05,-2.6772340788738802e-05,-2.485880941094365e-05,-2.2945278033148497e-05,-2.1031746655353345e-05,-1.9118215277558193e-05,-1.720468389976304e-05,-1.5291152521967888e-05,-1.3377621144172736e-05,-1.1464089766377583e-05,-9.55055838858243e-06,-7.637027010787278e-06,-5.723495632992126e-06,-3.8099642551969737e-06,-1.8964328774018213e-06,1.709850039333105e-08,1.9306298781884834e-06,3.844161255983636e-06,5.757692633778788e-06,7.67122401157394e-06,9.584755389369093e-06,1.1498286767164245e-05,1.3411818144959398e-05,1.532534952275455e-05,1.7238880900549702e-05,1.9152412278344855e-05,2.1065943656140007e-05,2.297947503393516e-05,2.4893006411730312e-05,2.6806537789525464e-05,2.8720069167320617e-05,3.063360054511577e-05,3.2547133741900325e-05,3.4460663300706074e-05,3.637419285951182e-05,3.828772605629638e-05,4.0201259253080934e-05,4.211478881188668e-05,4.402831837069243e-05,4.594185156747699e-05]},"drop_ratio_mean":0.00021078847978525002,"gradients/act.action_outs.2.linear.bias":{"values":[1,0,0,0,0,0,0,0,0,0,0,0,0,0,0,0,0,0,0,0,0,0,0,0,0,0,0,0,1,0,0,0,0,0,0,0,0,0,0,0,0,0,0,0,0,0,0,0,0,0,0,0,0,0,0,0,0,0,0,0,0,0,0,1],"bins":[-0.004163656383752823,-0.004028902854770422,-0.0038941488601267338,-0.0037593950983136892,-0.0036246413365006447,-0.0034898875746876,-0.0033551338128745556,-0.003220380051061511,-0.0030856262892484665,-0.0029508727602660656,-0.002816118998453021,-0.0026813652366399765,-0.002546611474826932,-0.0024118577130138874,-0.002277103951200843,-0.0021423501893877983,-0.0020075964275747538,-0.0018728426657617092,-0.0017380889039486647,-0.0016033351421356201,-0.0014685813803225756,-0.0013338277349248528,-0.0011990739731118083,-0.0010643202112987638,-0.0009295664494857192,-0.0007948126876726747,-0.0006600589258596301,-0.0005253052222542465,-0.0003905514604412019,-0.0002557976986281574,-0.00012104396591894329,1.3709781342186034e-05,0.00014846352860331535,0.0002832172904163599,0.000417971023125574,0.0005527247558347881,0.0006874785176478326,0.0008222322794608772,0.0009569859830662608,0.0010917397448793054,0.00122649350669235,0.0013612472685053945,0.001496001030318439,0.0016307547921314836,0.0017655084375292063,0.0019002621993422508,0.0020350159611552954,0.00216976972296834,0.0023045234847813845,0.002439277246594429,0.0025740310084074736,0.002708784770220518,0.0028435385320335627,0.002978292293846607,0.0031130460556596518,0.0032477998174726963,0.003382553346455097,0.0035173071082681417,0.0036520608700811863,0.003786814631894231,0.003921568393707275,0.004056322388350964,0.0041910759173333645,0.004325829911977053,0.004460583440959454],"_type":"histogram"},"policy_loss":-0.0029224262250863832,"gradients/base.mlp.fc1.0.bias":{"bins":[-0.012564277276396751,-0.012203777208924294,-0.011843277141451836,-0.011482777073979378,-0.01112227700650692,-0.010761776939034462,-0.010401276871562004,-0.010040776804089546,-0.009680276736617088,-0.00931977666914463,-0.008959276601672173,-0.008598776534199715,-0.008238276466727257,-0.007877776399254799,-0.007517275866121054,-0.007156775798648596,-0.006796275731176138,-0.00643577566370368,-0.006075275596231222,-0.005714775528758764,-0.005354275461286306,-0.0049937753938138485,-0.004633275326341391,-0.004272775258868933,-0.0039122747257351875,-0.0035517748910933733,-0.0031912748236209154,-0.0028307747561484575,-0.002470274455845356,-0.002109774388372898,-0.0017492743209004402,-0.0013887742534279823,-0.0010282741859555244,-0.0006677741184830666,-0.00030727399280294776,5.322610377334058e-05,0.0004137262003496289,0.0007742262678220868,0.0011347264517098665,0.0014952265191823244,0.0018557265866547823,0.00221622665412724,0.002576726721599698,0.002937226789072156,0.0032977270893752575,0.0036582271568477154,0.004018727224320173,0.004379227291792631,0.004739727359265089,0.005100227426737547,0.005460727494210005,0.005821227561682463,0.006181727629154921,0.0065422276966273785,0.006902727764099836,0.007263227831572294,0.007623728364706039,0.007984228432178497,0.008344728499650955,0.008705228567123413,0.009065728634595871,0.009426228702068329,0.009786728769540787,0.010147228837013245,0.010507728904485703],"_type":"histogram","values":[1,0,0,0,0,0,0,0,0,0,0,0,0,0,1,0,1,0,0,2,0,1,0,0,4,0,5,1,0,2,1,1,3,5,1,4,3,7,4,1,1,2,1,1,2,1,1,0,0,2,1,0,0,1,0,1,0,0,1,0,0,0,0,1]},"gradients/act.action_outs.3.linear.weight":{"values":[1,0,0,0,0,0,0,0,0,0,1,0,0,0,0,0,0,0,2,0,0,3,1,0,0,0,0,1,3,9,7,3,9,10,12,6,15,14,10,10,10,11,7,8,4,4,7,2,4,4,4,4,2,0,1,1,0,0,1,0,0,0,0,1],"bins":[-0.014946612529456615,-0.014556425623595715,-0.014166238717734814,-0.013776050880551338,-0.013385863974690437,-0.012995677068829536,-0.012605490162968636,-0.012215303257107735,-0.011825116351246834,-0.011434928514063358,-0.011044741608202457,-0.010654554702341557,-0.010264367796480656,-0.009874180890619755,-0.00948399305343628,-0.009093806147575378,-0.008703619241714478,-0.008313432335853577,-0.007923245429992676,-0.007533058058470488,-0.007142870686948299,-0.0067526837810873985,-0.006362496875226498,-0.0059723095037043095,-0.005582122597843409,-0.005191935691982508,-0.0048017483204603195,-0.004411561414599419,-0.004021374508738518,-0.0036311871372163296,-0.0032410002313554287,-0.002850813092663884,-0.0024606259539723396,-0.002070438815280795,-0.0016802517930045724,-0.0012900647707283497,-0.0008998776320368052,-0.0005096905515529215,-0.00011950347106903791,0.0002706836094148457,0.0006608706898987293,0.0010510578285902739,0.0014412448508664966,0.0018314318731427193,0.002221619011834264,0.0026118061505258083,0.003001993056386709,0.0033921801950782537,0.0037823673337697983,0.004172554239630699,0.004562741611152887,0.004952928517013788,0.005343115888535976,0.005733302794396877,0.006123489700257778,0.006513677071779966,0.006903863977640867,0.007294050883501768,0.007684238255023956,0.008074425160884857,0.008464612066745758,0.008854798972606659,0.009244986809790134,0.009635173715651035,0.010025360621511936],"_type":"histogram"},"gradients/base.mlp.fc1.0.weight":{"bins":[-0.055785324424505234,-0.05420873686671257,-0.05263214930891991,-0.05105556175112724,-0.04947897419333458,-0.047902386635541916,-0.04632579907774925,-0.04474921151995659,-0.043172627687454224,-0.04159604012966156,-0.040019452571868896,-0.03844286501407623,-0.03686627745628357,-0.035289689898490906,-0.03371310234069824,-0.03213651478290558,-0.030559927225112915,-0.02898333966732025,-0.027406752109527588,-0.025830164551734924,-0.02425357699394226,-0.022676991298794746,-0.021100403741002083,-0.01952381618320942,-0.017947228625416756,-0.016370641067624092,-0.014794053509831429,-0.01321746688336134,-0.011640879325568676,-0.010064291767776012,-0.008487705141305923,-0.00691111758351326,-0.005334533751010895,-0.003757946426048875,-0.002181359101086855,-0.000604771776124835,0.0009718155488371849,0.002548402873799205,0.004124990198761225,0.005701577290892601,0.007278164848685265,0.008854752406477928,0.010431339964270592,0.01200792659074068,0.013584514148533344,0.015161101706326008,0.016737688332796097,0.01831427589058876,0.019890863448381424,0.021467451006174088,0.02304403856396675,0.024620626121759415,0.026197213679552078,0.027773799374699593,0.029350386932492256,0.03092697449028492,0.032503560185432434,0.0340801477432251,0.03565673530101776,0.037233322858810425,0.03880991041660309,0.04038649797439575,0.041963085532188416,0.04353967308998108,0.04511626064777374],"_type":"histogram","values":[1,1,0,0,0,0,1,0,0,0,0,0,0,1,1,1,1,1,1,1,2,3,4,1,7,11,9,11,18,29,30,38,70,144,623,5366,450,145,53,36,19,11,12,12,12,8,3,6,0,2,2,5,4,4,1,1,1,1,0,2,0,0,1,1]},"ue_drop_ratio_mean":0.00020019522621735858,"gradients/graph_1base.mlp.fc2.0.0.bias":{"_type":"histogram","values":[1,0,0,0,0,0,0,0,0,0,0,0,0,0,0,0,0,0,0,0,0,0,0,3,1,0,0,0,0,0,0,0,0,1,1,0,1,1,2,34,2,0,1,1,0,3,2,1,1,1,0,1,0,0,1,1,0,0,2,0,1,0,0,1],"bins":[-5.59373693249654e-05,-5.453169433167204e-05,-5.312601933837868e-05,-5.172034434508532e-05,-5.031466935179196e-05,-4.89089943584986e-05,-4.750331936520524e-05,-4.609764437191188e-05,-4.469197301659733e-05,-4.328629802330397e-05,-4.188062303001061e-05,-4.047494803671725e-05,-3.906927304342389e-05,-3.766359805013053e-05,-3.625792305683717e-05,-3.485224806354381e-05,-3.344657307025045e-05,-3.204089807695709e-05,-3.063522308366373e-05,-2.9229548090370372e-05,-2.7823873097077012e-05,-2.6418199922773056e-05,-2.5012524929479696e-05,-2.3606849936186336e-05,-2.2201174942892976e-05,-2.0795499949599616e-05,-1.9389824956306256e-05,-1.7984149963012896e-05,-1.657847678870894e-05,-1.5172800885920878e-05,-1.376712680212222e-05,-1.236145180882886e-05,-1.0955773177556694e-05,-9.550098184263334e-06,-8.144423190969974e-06,-6.738749107171316e-06,-5.333074113877956e-06,-3.927399120584596e-06,-2.521724582038587e-06,-1.1160498161189025e-06,2.896249498007819e-07,1.6952997157204663e-06,3.1009744816401508e-06,4.50664902018616e-06,5.91232401347952e-06,7.3179990067728795e-06,8.723673090571538e-06,1.0129348083864897e-05,1.1535023077158257e-05,1.2940698070451617e-05,1.4346373063744977e-05,1.5752048057038337e-05,1.7157723050331697e-05,1.8563396224635653e-05,1.9969071217929013e-05,2.1374746211222373e-05,2.2780421204515733e-05,2.4186096197809093e-05,2.5591771191102453e-05,2.6997446184395812e-05,2.840311935869977e-05,2.980879435199313e-05,3.121446934528649e-05,3.262014433857985e-05,3.402581933187321e-05]},"_step":3780000,"gradients/graph_1base.mlp.fc1.0.bias":{"_type":"histogram","values":[1,0,0,2,0,1,0,0,0,0,0,0,1,0,1,0,1,1,0,0,1,0,0,0,0,1,0,0,0,0,3,1,8,20,2,6,2,1,0,1,1,0,1,0,0,1,1,2,0,0,0,0,0,0,0,1,0,0,1,0,1,0,0,1],"bins":[-9.568695531925187e-05,-9.279245568905026e-05,-8.989795605884865e-05,-8.700345642864704e-05,-8.410895679844543e-05,-8.121445716824383e-05,-7.831995753804222e-05,-7.542545790784061e-05,-7.253095100168139e-05,-6.963645137147978e-05,-6.674195174127817e-05,-6.384745211107656e-05,-6.0952952480874956e-05,-5.805845285067335e-05,-5.516395322047174e-05,-5.226945359027013e-05,-4.9374953960068524e-05,-4.6480454329866916e-05,-4.358595469966531e-05,-4.06914550694637e-05,-3.779695543926209e-05,-3.490245217108168e-05,-3.200795254088007e-05,-2.911345291067846e-05,-2.6218953280476853e-05,-2.3324453650275245e-05,-2.0429954020073637e-05,-1.7535452570882626e-05,-1.4640952940681018e-05,-1.174645331047941e-05,-8.8519527707831e-06,-5.9574526858341414e-06,-3.0629526008851826e-06,-1.684525159362238e-07,2.726047569012735e-06,5.620547653961694e-06,8.515047738910653e-06,1.140954736911226e-05,1.430404790880857e-05,1.719854844850488e-05,2.0093048078706488e-05,2.2987547708908096e-05,2.5882047339109704e-05,2.8776548788300715e-05,3.167105023749173e-05,3.4565549867693335e-05,3.746004949789494e-05,4.035454912809655e-05,4.324904875829816e-05,4.6143548388499767e-05,4.9038048018701375e-05,5.193254764890298e-05,5.482704727910459e-05,5.7721550547285005e-05,6.0616050177486613e-05,6.351054616970941e-05,6.640504579991102e-05,6.929955270607024e-05,7.219405233627185e-05,7.508855196647346e-05,7.798305159667507e-05,8.087755122687668e-05,8.377205085707828e-05,8.666655048727989e-05,8.95610501174815e-05]},"ratio":1.0000145435333252,"sm3_ratio_mean":0.4089970634920705,"gradients/base.mlp.fc2.0.2.weight":{"_type":"histogram","values":[1,0,0,0,1,0,0,0,0,0,0,0,2,0,1,1,0,1,2,4,0,2,2,1,0,0,1,3,3,1,2,1,0,1,3,3,3,0,2,4,1,1,0,1,1,0,2,1,1,0,1,1,3,0,0,1,0,1,1,0,2,0,0,1],"bins":[-0.0033029704354703426,-0.003206576919183135,-0.0031101834028959274,-0.0030137901194393635,-0.002917396603152156,-0.0028210030868649483,-0.0027246095705777407,-0.0026282162871211767,-0.002531822770833969,-0.0024354292545467615,-0.002339035738259554,-0.0022426422219723463,-0.0021462489385157824,-0.0020498554222285748,-0.001953461905941367,-0.0018570685060694814,-0.0017606749897822738,-0.0016642814734950662,-0.0015678880736231804,-0.0014714945573359728,-0.001375101157464087,-0.0012787076411768794,-0.0011823142413049936,-0.001085920725017786,-0.0009895272087305784,-0.0008931338088586926,-0.000796740350779146,-0.0007003468926995993,-0.0006039533764123917,-0.000507559918332845,-0.0004111664602532983,-0.0003147730021737516,-0.0002183795440942049,-0.0001219860787387006,-2.5592613383196294e-05,7.080085197230801e-05,0.00016719431732781231,0.000263587775407359,0.00035998126259073615,0.00045637472067028284,0.0005527681787498295,0.0006491616368293762,0.0007455550949089229,0.0008419485529884696,0.0009383420692756772,0.001034735469147563,0.0011311289854347706,0.0012275223853066564,0.001323915901593864,0.0014203094178810716,0.0015167028177529573,0.001613096334040165,0.0017094897339120507,0.0018058832501992583,0.001902276650071144,0.0019986701663583517,0.0020950636826455593,0.002191457198932767,0.002287850482389331,0.0023842439986765385,0.002480637514963746,0.0025770310312509537,0.0026734243147075176,0.0027698178309947252,0.002866211347281933]},"gradients/base.mlp.fc1.2.bias":{"values":[1,0,0,0,0,0,0,2,2,0,1,1,1,1,0,1,4,0,0,1,1,2,0,0,1,1,2,2,1,2,1,1,5,1,0,0,1,3,1,0,2,6,2,1,2,1,2,1,0,0,1,0,0,1,0,1,0,1,0,1,0,0,1,1],"bins":[-0.010256107896566391,-0.009958498179912567,-0.009660888463258743,-0.00936327874660492,-0.009065669029951096,-0.008768059313297272,-0.008470448665320873,-0.00817283894866705,-0.007875229232013226,-0.007577619515359402,-0.007280009798705578,-0.006982400082051754,-0.00668479036539793,-0.006387180648744106,-0.006089570466428995,-0.005791960749775171,-0.005494351033121347,-0.005196741316467524,-0.0048991315998137,-0.0046015214174985886,-0.004303911700844765,-0.004006301984190941,-0.003708692267537117,-0.0034110823180526495,-0.0031134726013988256,-0.002815862884745002,-0.0025182529352605343,-0.0022206432186067104,-0.0019230333855375648,-0.001625423552468419,-0.0013278138358145952,-0.0010302040027454495,-0.0007325941696763039,-0.00043498436571098864,-0.00013737456174567342,0.0001602352422196418,0.00045784504618495703,0.0007554548792541027,0.0010530645959079266,0.0013506744289770722,0.001648284262046218,0.0019458940951153636,0.0022435039281845093,0.002541113644838333,0.002838723361492157,0.0031363333109766245,0.0034339430276304483,0.003731552977114916,0.00402916269376874,0.0043267724104225636,0.004624382127076387,0.0049219923093914986,0.005219602026045322,0.005517211742699146,0.00581482145935297,0.006112431176006794,0.006410040892660618,0.006707651074975729,0.007005260791629553,0.007302870508283377,0.0076004802249372005,0.007898090407252312,0.008195700123906136,0.00849330984055996,0.008790919557213783],"_type":"histogram"},"gradients/graph_1base.mlp.fc1.2.bias":{"values":[1,0,1,0,1,0,1,0,0,1,0,0,2,1,1,0,2,1,2,1,1,2,0,1,1,1,2,2,0,0,0,1,0,1,2,5,1,2,3,1,2,2,4,1,2,1,1,1,1,0,1,2,0,0,0,0,2,0,0,0,1,0,0,2],"bins":[-4.405953222885728e-05,-4.270550198270939e-05,-4.1351475374540314e-05,-3.999744512839243e-05,-3.864341852022335e-05,-3.7289388274075463e-05,-3.5935361665906385e-05,-3.45813314197585e-05,-3.322730481158942e-05,-3.1873274565441534e-05,-3.051924431929365e-05,-2.916521771112457e-05,-2.7811187464976683e-05,-2.64571590378182e-05,-2.510313061065972e-05,-2.3749102183501236e-05,-2.2395073756342754e-05,-2.104104532918427e-05,-1.968701690202579e-05,-1.8332988474867307e-05,-1.6978960047708824e-05,-1.562492980156094e-05,-1.4270901374402456e-05,-1.2916872947243974e-05,-1.1562844520085491e-05,-1.0208816092927009e-05,-8.854787665768526e-06,-7.500758329115342e-06,-6.14672990195686e-06,-4.792701474798378e-06,-3.4386725928925443e-06,-2.0846439383603865e-06,-7.306152838282287e-07,6.234133707039291e-07,1.977442025236087e-06,3.3314706797682447e-06,4.6854993343004026e-06,6.039527761458885e-06,7.393556643364718e-06,8.747585525270551e-06,1.0101613952429034e-05,1.1455642379587516e-05,1.2809670806745999e-05,1.4163700143399183e-05,1.5517729480052367e-05,1.687175790721085e-05,1.822578633436933e-05,1.9579814761527814e-05,2.0933843188686296e-05,2.228787161584478e-05,2.364190004300326e-05,2.4995928470161743e-05,2.6349956897320226e-05,2.7703987143468112e-05,2.9058015570626594e-05,3.0412043997785076e-05,3.176607424393296e-05,3.312010085210204e-05,3.447413109824993e-05,3.5828157706419006e-05,3.718218795256689e-05,3.853621456073597e-05,3.989024480688386e-05,4.1244271415052935e-05,4.259830166120082e-05],"_type":"histogram"},"gradients/base.feature_norm.weight":{"values":[1,0,1,0,0,0,0,0,0,1,0,0,0,0,0,0,0,0,0,0,0,0,2,1,1,0,10,15,19,12,19,14,5,7,0,0,0,0,0,2,1,0,0,0,0,0,0,0,0,0,0,0,0,0,0,0,0,0,0,0,0,0,0,1],"bins":[-0.021639853715896606,-0.020898684859275818,-0.02015751600265503,-0.01941634900867939,-0.0186751801520586,-0.017934011295437813,-0.017192844301462173,-0.016451675444841385,-0.015710506588220596,-0.014969337731599808,-0.014228169806301594,-0.01348700188100338,-0.012745833024382591,-0.012004664167761803,-0.011263496242463589,-0.010522328317165375,-0.009781159460544586,-0.009039990603923798,-0.008298822678625584,-0.007557654287666082,-0.006816485896706581,-0.00607531750574708,-0.005334149114787579,-0.004592980723828077,-0.003851812332868576,-0.003110643941909075,-0.0023694755509495735,-0.0016283071599900723,-0.000887138769030571,-0.00014597037807106972,0.0005951980128884315,0.0013363664038479328,0.0020775366574525833,0.0028187050484120846,0.003559873439371586,0.004301041830331087,0.005042210221290588,0.00578337861225009,0.006524547003209591,0.007265715394169092,0.008006883785128593,0.008748052641749382,0.009489220567047596,0.01023038849234581,0.010971557348966599,0.011712726205587387,0.012453894130885601,0.013195062056183815,0.013936230912804604,0.014677399769425392,0.015418567694723606,0.01615973562002182,0.01690090447664261,0.017642073333263397,0.018383242189884186,0.019124409183859825,0.019865578040480614,0.020606746897101402,0.02134791389107704,0.02208908274769783,0.02283025160431862,0.023571420460939407,0.024312589317560196,0.025053756311535835,0.025794925168156624],"_type":"histogram"},"_wandb":{"runtime":24373}}