{"gradients/act.action_outs.3.linear.weight":{"_type":"histogram","values":[1,0,0,0,1,0,2,1,2,0,0,1,0,3,0,1,5,1,2,6,6,3,1,8,4,9,3,3,3,7,8,5,5,7,8,9,8,6,8,3,8,3,7,4,6,4,0,1,4,1,0,3,2,3,2,1,1,0,0,0,0,0,0,2],"bins":[-0.007040481083095074,-0.006826498545706272,-0.006612515542656183,-0.006398533005267382,-0.00618455046787858,-0.005970567464828491,-0.00575658492743969,-0.005542602390050888,-0.0053286198526620865,-0.005114636849611998,-0.004900654312223196,-0.0046866717748343945,-0.004472688771784306,-0.004258706234395504,-0.004044723697006702,-0.003830740926787257,-0.003616758156567812,-0.0034027753863483667,-0.003188792848959565,-0.00297481007874012,-0.0027608275413513184,-0.002546844771131873,-0.002332862000912428,-0.0021188794635236263,-0.001904896693304181,-0.0016909140395000577,-0.0014769313856959343,-0.001262948615476489,-0.0010489659616723657,-0.0008349833078682423,-0.000621000595856458,-0.0004070179129485041,-0.00019303523004055023,2.0947452867403626e-05,0.00023493013577535748,0.00044891281868331134,0.0006628955015912652,0.0008768781553953886,0.0010908609256148338,0.0013048435794189572,0.0015188262332230806,0.001732808887027204,0.0019467915408313274,0.0021607743110507727,0.002374757081270218,0.0025887396186590195,0.0028027223888784647,0.0030167049262672663,0.0032306876964867115,0.0034446704667061567,0.0036586530040949583,0.0038726357743144035,0.004086618311703205,0.004300601314753294,0.0045145838521420956,0.004728566389530897,0.004942549392580986,0.005156531929969788,0.005370514467358589,0.005584497004747391,0.00579848000779748,0.006012462545186281,0.006226445082575083,0.006440428085625172,0.006654410623013973]},"gradients/act.action_outs.2.linear.bias":{"values":[1,0,0,0,0,0,0,0,0,0,0,0,0,0,0,0,0,0,0,1,0,0,0,0,0,0,0,0,0,0,0,0,0,0,0,0,0,0,0,0,0,0,0,0,0,0,0,0,0,0,0,0,0,0,0,0,0,0,0,0,0,0,0,1],"bins":[-0.0015644239028915763,-0.0015079176519066095,-0.0014514115173369646,-0.0013949052663519979,-0.001338399015367031,-0.0012818928807973862,-0.0012253866298124194,-0.0011688803788274527,-0.0011123742442578077,-0.001055867993272841,-0.0009993617422878742,-0.0009428555495105684,-0.0008863493567332625,-0.0008298431057482958,-0.0007733369129709899,-0.0007168306619860232,-0.0006603244692087173,-0.0006038182764314115,-0.0005473120254464447,-0.0004908058326691389,-0.0004342996107880026,-0.0003777933889068663,-0.00032128719612956047,-0.00026478097424842417,-0.00020827475236728787,-0.00015176853048615158,-9.52623231569305e-05,-3.875610855175182e-05,1.7750106053426862e-05,7.425632065860555e-05,0.00013076253526378423,0.0001872687425930053,0.00024377484805881977,0.00030028106993995607,0.00035678729182109237,0.0004132934845983982,0.0004697997064795345,0.0005263059283606708,0.0005828121211379766,0.0006393183721229434,0.0006958245649002492,0.0007523307576775551,0.0008088370086625218,0.0008653432014398277,0.0009218493942171335,0.0009783556452021003,0.001034861896187067,0.001091368030756712,0.0011478742817416787,0.0012043805327266455,0.0012608866672962904,0.0013173929182812572,0.001373899169266224,0.0014304053038358688,0.0014869115548208356,0.0015434178058058023,0.0015999239403754473,0.001656430191360414,0.0017129364423453808,0.0017694426933303475,0.0018259488278999925,0.0018824550788849592,0.001938961329869926,0.0019954675808548927,0.0020519737154245377],"_type":"histogram"},"gradients/graph_1base.feature_norm.bias":{"values":[1,0,0,0,0,0,0,0,0,0,0,0,0,0,0,0,0,0,0,0,0,0,0,0,0,0,0,0,0,0,0,0,0,1,0,1,1,1,1,3,1,0,0,0,0,0,0,0,0,0,1,0,0,0,0,0,0,0,0,0,0,0,0,1],"bins":[-0.0003003366873599589,-0.00029128885944373906,-0.0002822410315275192,-0.0002731932036112994,-0.00026414537569507957,-0.00025509754777885973,-0.0002460497198626399,-0.00023700189194642007,-0.00022795406403020024,-0.00021890622156206518,-0.00020985839364584535,-0.00020081056572962552,-0.0001917627378134057,-0.00018271490989718586,-0.00017366708198096603,-0.0001646192540647462,-0.00015557142614852637,-0.00014652359823230654,-0.0001374757703160867,-0.00012842794239986688,-0.00011938011448364705,-0.0001103322792914696,-0.00010128445137524977,-9.223662345902994e-05,-8.318879554281011e-05,-7.414096762659028e-05,-6.509313971037045e-05,-5.6045308156171814e-05,-4.699748023995198e-05,-3.794965232373215e-05,-2.890182258852292e-05,-1.9853992853313684e-05,-1.0806164937093854e-05,-1.7583361113793217e-06,7.289492714335211e-06,1.6337322449544445e-05,2.5385150365764275e-05,3.4432978281984106e-05,4.348080983618274e-05,5.2528637752402574e-05,6.15764656686224e-05,7.062429358484223e-05,7.967212150106207e-05,8.87199494172819e-05,9.776778460945934e-05,0.00010681561252567917,0.000115863440441899,0.00012491126835811883,0.00013395909627433866,0.0001430069241905585,0.00015205475210677832,0.00016110258002299815,0.00017015040793921798,0.00017919823585543782,0.00018824606377165765,0.00019729389168787748,0.00020634173415601254,0.00021538956207223237,0.0002244373899884522,0.00023348521790467203,0.00024253304582089186,0.0002515808737371117,0.0002606287016533315,0.00026967652956955135,0.0002787243574857712],"_type":"histogram"},"gradients/base.mlp.fc2.0.0.bias":{"bins":[-0.004419432953000069,-0.0042512440122663975,-0.004083055071532726,-0.003914865665137768,-0.0037466767244040966,-0.0035784877836704254,-0.0034102986101061106,-0.0032421096693724394,-0.0030739204958081245,-0.0029057315550744534,-0.002737542614340782,-0.0025693534407764673,-0.002401164500042796,-0.0022329753264784813,-0.00206478638574481,-0.001896597328595817,-0.001728408271446824,-0.001560219214297831,-0.001392030157148838,-0.001223841099999845,-0.001055652042850852,-0.0008874630439095199,-0.0007192740449681878,-0.0005510849878191948,-0.0003828959306702018,-0.000214706888073124,-4.6517845476046205e-05,0.00012167119712103158,0.00028986023971810937,0.0004580492968671024,0.0006262382958084345,0.0007944273529574275,0.0009626164101064205,0.0011308054672554135,0.0012989945244044065,0.0014671835815533996,0.0016353726387023926,0.0018035615794360638,0.0019717507530003786,0.00213993969373405,0.0023081288672983646,0.002476317808032036,0.002644506748765707,0.002812695922330022,0.002980884863063693,0.003149074036628008,0.003317262977361679,0.003485452150925994,0.003653641091659665,0.0038218300323933363,0.003990019205957651,0.004158208146691322,0.0043263970874249935,0.004494586493819952,0.004662775434553623,0.004830964375287294,0.004999153316020966,0.005167342256754637,0.005335531663149595,0.0055037206038832664,0.005671909544616938,0.005840098485350609,0.006008287891745567,0.0061764768324792385,0.00634466577321291],"_type":"histogram","values":[1,0,0,1,1,0,1,1,2,2,2,1,2,0,2,2,2,1,0,2,3,2,0,2,2,0,1,1,1,2,3,2,0,1,1,0,1,4,0,1,1,1,1,1,2,0,2,1,0,0,0,1,0,0,0,0,0,0,1,0,1,0,1,1]},"n_drop_mean":0.0015476190476190477,"gradients/graph_1base.mlp.fc1.2.bias":{"bins":[-8.83947650436312e-05,-8.549234189558774e-05,-8.25899260235019e-05,-7.968750287545845e-05,-7.678508700337261e-05,-7.388266385532916e-05,-7.09802407072857e-05,-6.807782483519986e-05,-6.517540168715641e-05,-6.227298581507057e-05,-5.9370562667027116e-05,-5.646814315696247e-05,-5.356572364689782e-05,-5.0663304136833176e-05,-4.776088098878972e-05,-4.4858461478725076e-05,-4.195604196866043e-05,-3.905362245859578e-05,-3.6151202948531136e-05,-3.324877980048768e-05,-3.0346360290423036e-05,-2.744394078035839e-05,-2.4541521270293742e-05,-2.1639099941239692e-05,-1.8736680431175046e-05,-1.58342609211104e-05,-1.2931839592056349e-05,-1.0029420081991702e-05,-7.126999662432354e-06,-4.2245792428730056e-06,-1.322159278061008e-06,1.5802609141246649e-06,4.482681106310338e-06,7.385101525869686e-06,1.0287521945429035e-05,1.3189941455493681e-05,1.609236278454773e-05,1.8994782294612378e-05,2.1897201804677024e-05,2.4799623133731075e-05,2.770204264379572e-05,3.060446397284977e-05,3.350688348291442e-05,3.6409302992979065e-05,3.931172250304371e-05,4.221414201310836e-05,4.511656516115181e-05,4.801898467121646e-05,5.0921404181281105e-05,5.382382369134575e-05,5.67262432014104e-05,5.962866634945385e-05,6.25310858595185e-05,6.543350173160434e-05,6.833592487964779e-05,7.123834802769125e-05,7.414076389977708e-05,7.704318704782054e-05,7.994560291990638e-05,8.284802606794983e-05,8.575044921599329e-05,8.865286508807912e-05,9.155528823612258e-05,9.445770410820842e-05,9.736012725625187e-05],"_type":"histogram","values":[2,1,1,2,2,1,1,1,1,2,1,0,0,1,3,1,0,0,0,0,1,4,1,1,2,1,3,1,1,0,0,1,1,2,2,1,0,0,2,1,1,0,2,0,2,1,1,3,0,1,1,0,2,1,1,0,1,0,0,0,0,0,0,2]},"gradients/graph_1base.feature_norm.weight":{"bins":[-0.00016536610201001167,-0.00016024408978410065,-0.00015512209211010486,-0.00015000007988419384,-0.00014487808221019804,-0.00013975606998428702,-0.000134634057758376,-0.0001295120600843802,-0.0001243900478584692,-0.00011926804290851578,-0.00011414603795856237,-0.00010902402573265135,-0.00010390202078269795,-9.878001583274454e-05,-9.365800360683352e-05,-8.853599865688011e-05,-8.34139937069267e-05,-7.82919887569733e-05,-7.316998380701989e-05,-6.804797158110887e-05,-6.292596663115546e-05,-5.7803961681202054e-05,-5.268195309326984e-05,-4.7559944505337626e-05,-4.243793955538422e-05,-3.731593460543081e-05,-3.21939260174986e-05,-2.7071919248555787e-05,-2.1949912479612976e-05,-1.6827905710670166e-05,-1.1705898941727355e-05,-6.5838921727845445e-06,-1.4618708519265056e-06,3.660135917016305e-06,8.782142685959116e-06,1.3904149454901926e-05,1.9026156223844737e-05,2.4148162992787547e-05,2.9270169761730358e-05,3.439217834966257e-05,3.951418329961598e-05,4.4636188249569386e-05,4.97581968375016e-05,5.4880205425433815e-05,6.000221037538722e-05,6.512421532534063e-05,7.024622755125165e-05,7.536823250120506e-05,8.049023745115846e-05,8.561224240111187e-05,9.073424735106528e-05,9.58562595769763e-05,0.0001009782645269297,0.00010610026947688311,0.00011122228170279413,0.00011634428665274754,0.00012146629160270095,0.00012658830382861197,0.00013171030150260776,0.00013683231372851878,0.00014195431140251458,0.0001470763236284256,0.00015219833585433662,0.0001573203335283324,0.00016244234575424343],"_type":"histogram","values":[1,0,0,0,0,0,0,0,0,0,0,0,0,0,0,1,0,0,0,0,0,0,0,0,0,1,1,1,0,2,0,0,1,1,0,0,0,0,0,0,0,0,1,0,0,0,0,0,0,0,0,0,0,0,0,0,0,0,0,1,0,0,0,1]},"gradients/base.mlp.fc2.0.2.bias":{"_type":"histogram","values":[2,0,0,3,0,0,3,1,0,1,0,1,0,4,1,1,1,2,0,0,2,4,2,1,2,1,1,3,0,1,2,1,3,2,0,0,1,4,2,1,1,2,0,0,2,1,0,0,1,0,1,0,0,2,0,0,0,0,0,0,0,0,0,1],"bins":[-0.0033613601699471474,-0.0032344732899218798,-0.003107586409896612,-0.0029806997627019882,-0.0028538128826767206,-0.002726926002651453,-0.0026000391226261854,-0.002473152242600918,-0.002346265595406294,-0.0022193787153810263,-0.0020924918353557587,-0.001965604955330491,-0.0018387180753052235,-0.0017118313116952777,-0.00158494443167001,-0.0014580576680600643,-0.0013311707880347967,-0.0012042839080095291,-0.0010773971443995833,-0.0009505102643743157,-0.000823623442556709,-0.0006967366207391024,-0.0005698497407138348,-0.0004429629188962281,-0.0003160760970786214,-0.00018918926070909947,-6.230242433957756e-05,6.458441202994436e-05,0.00019147124839946628,0.00031835807021707296,0.0004452449211385101,0.0005721317720599473,0.0006990185938775539,0.0008259054156951606,0.0009527922375127673,0.001079679117538035,0.0012065658811479807,0.0013334527611732483,0.001460339641198516,0.0015872264048084617,0.0017141132848337293,0.0018410001648589969,0.0019678869284689426,0.0020947738084942102,0.002221660688519478,0.0023485475685447454,0.0024754342157393694,0.002602321095764637,0.0027292079757899046,0.002856094855815172,0.00298298173584044,0.0031098683830350637,0.0032367552630603313,0.003363642143085599,0.0034905290231108665,0.003617415903136134,0.0037443027831614017,0.0038711894303560257,0.003998076543211937,0.004124963190406561,0.004251849837601185,0.004378736950457096,0.00450562359765172,0.004632510710507631,0.004759397357702255]},"_step":3780000,"gradients/graph_1base.mlp.fc2.0.2.bias":{"_type":"histogram","values":[1,1,0,1,0,1,0,0,0,2,1,1,1,0,1,1,0,1,3,0,3,0,4,0,1,1,0,2,1,3,0,0,2,1,1,0,3,2,0,1,1,2,2,1,2,3,3,1,0,0,0,3,0,0,1,0,0,0,1,1,1,1,0,1],"bins":[-0.0003202120424248278,-0.0003103179333265871,-0.00030042382422834635,-0.0002905297151301056,-0.0002806356060318649,-0.0002707415260374546,-0.00026084741693921387,-0.00025095330784097314,-0.0002410591987427324,-0.00023116508964449167,-0.00022127098054625094,-0.00021137688599992543,-0.0002014827769016847,-0.00019158866780344397,-0.00018169457325711846,-0.00017180046415887773,-0.000161906355060637,-0.00015201224596239626,-0.00014211813686415553,-0.00013222404231783003,-0.0001223299332195893,-0.00011243582412134856,-0.00010254172229906544,-9.264762047678232e-05,-8.275351137854159e-05,-7.285940228030086e-05,-6.296530045801774e-05,-5.307119499775581e-05,-4.3177089537493885e-05,-3.328298407723196e-05,-2.3388878616970032e-05,-1.3494773156708106e-05,-3.600696800276637e-06,6.293408659985289e-06,1.6187514120247215e-05,2.608161958050914e-05,3.597572504077107e-05,4.586983050103299e-05,5.576393596129492e-05,6.565803778357804e-05,7.555214688181877e-05,8.54462559800595e-05,9.534035780234262e-05,0.00010523445962462574,0.00011512856872286648,0.0001250226778211072,0.0001349167723674327,0.00014481088146567345,0.00015470499056391418,0.0001645990996621549,0.00017449320876039565,0.00018438730330672115,0.00019428141240496188,0.00020417552150320262,0.00021406961604952812,0.00022396372514776886,0.0002338578342460096,0.00024375194334425032,0.00025364605244249105,0.0002635401615407318,0.0002734342706389725,0.0002833283506333828,0.00029322245973162353,0.00030311656882986426,0.000313010677928105]},"delay_ratio_mean":0.11331030496144029,"gradients/graph_1base.mlp.fc1.2.weight":{"bins":[-0.0001927077682921663,-0.00018841942073777318,-0.00018413107318338007,-0.00017984272562898695,-0.00017555439262650907,-0.00017126604507211596,-0.00016697769751772285,-0.00016268934996332973,-0.00015840100240893662,-0.0001541126548545435,-0.00014982432185206562,-0.0001455359742976725,-0.0001412476267432794,-0.00013695927918888628,-0.00013267093163449317,-0.00012838258408010006,-0.00012409425107762218,-0.00011980589624727145,-0.00011551755596883595,-0.00011122920841444284,-0.00010694086086004972,-0.00010265252058161423,-9.836417302722111e-05,-9.4075825472828e-05,-8.97874851943925e-05,-8.549913763999939e-05,-8.121079008560628e-05,-7.692244253121316e-05,-7.263410225277767e-05,-6.834575469838455e-05,-6.405740714399144e-05,-5.9769063227577135e-05,-5.548071931116283e-05,-5.1192375394748524e-05,-4.690402784035541e-05,-4.2615683923941106e-05,-3.832733636954799e-05,-3.403899245313369e-05,-2.9750648536719382e-05,-2.5462302801315673e-05,-2.1173957065911964e-05,-1.6885611330508254e-05,-1.2597266504599247e-05,-8.30892167869024e-06,-4.020575943286531e-06,2.6776933736982755e-07,4.556114618026186e-06,8.844459443935193e-06,1.3132805179338902e-05,1.742115091474261e-05,2.170949665014632e-05,2.5997840566560626e-05,3.0286186301964335e-05,3.4574532037368044e-05,3.886287595378235e-05,4.315122350817546e-05,4.743956742458977e-05,5.1727911341004074e-05,5.6016258895397186e-05,6.030460281181149e-05,6.45929467282258e-05,6.888129428261891e-05,7.316964183701202e-05,7.745798211544752e-05,8.174632966984063e-05],"_type":"histogram","values":[1,0,0,0,0,0,0,0,0,0,0,0,0,0,0,0,0,0,0,1,0,0,0,0,1,0,0,0,0,0,0,1,0,0,2,3,3,2,1,2,2,0,4,2,2,2,5,4,6,2,0,5,0,2,4,1,4,0,0,0,0,1,0,1]},"actor_grad_norm":0.41564688086509705,"_wandb":{"runtime":15376},"drop_ratio_mean":0.0002402040979939745,"gradients/graph_1base.mlp.fc2.0.0.bias":{"values":[1,0,0,0,0,0,0,0,0,0,0,1,0,1,0,0,0,0,0,0,2,0,0,0,1,0,0,0,0,1,0,1,1,1,0,1,2,30,3,0,1,2,0,1,2,0,1,0,1,0,1,2,1,2,0,1,2,0,0,0,0,0,0,1],"bins":[-0.00012235903705004603,-0.0001191236442537047,-0.00011588825873332098,-0.00011265286593697965,-0.00010941748041659594,-0.0001061820876202546,-0.00010294669482391328,-9.971130930352956e-05,-9.647591650718823e-05,-9.324053098680452e-05,-9.000513819046319e-05,-8.676974539412186e-05,-8.353435987373814e-05,-8.029896707739681e-05,-7.70635815570131e-05,-7.382818876067176e-05,-7.059279596433043e-05,-6.735741044394672e-05,-6.412201764760539e-05,-6.088662848924287e-05,-5.7651239330880344e-05,-5.441585017251782e-05,-5.11804610141553e-05,-4.7945071855792776e-05,-4.470968269743025e-05,-4.147428990108892e-05,-3.82389007427264e-05,-3.500351158436388e-05,-3.1768122426001355e-05,-2.853273144864943e-05,-2.5297342290286906e-05,-2.206195131293498e-05,-1.8826562154572457e-05,-1.5591172996209934e-05,-1.2355782018858008e-05,-9.120392860495485e-06,-5.885002792638261e-06,-2.649612952154712e-06,5.857768883288372e-07,3.821166501438711e-06,7.056556569295935e-06,1.029194663715316e-05,1.3527336705010384e-05,1.6762725863372907e-05,1.999811502173543e-05,2.3233505999087356e-05,2.646889515744988e-05,2.9704286134801805e-05,3.293967529316433e-05,3.617506445152685e-05,3.941045360988937e-05,4.26458464062307e-05,4.5881235564593226e-05,4.911662472295575e-05,5.235201388131827e-05,5.5587403039680794e-05,5.8822792198043317e-05,6.205818499438465e-05,6.529357051476836e-05,6.852896331110969e-05,7.176435610745102e-05,7.499974162783474e-05,7.823513442417607e-05,8.147051994455978e-05,8.470591274090111e-05],"_type":"histogram"},"gradients/act.action_outs.0.linear.bias":{"values":[1,0,0,0,0,0,0,0,0,0,0,0,0,0,0,0,0,0,0,0,0,0,0,0,0,0,0,0,0,0,0,0,0,0,0,0,0,0,0,0,0,0,0,1,0,0,0,0,0,0,0,0,0,0,0,0,0,0,0,0,0,0,0,1],"bins":[-0.0038173471111804247,-0.0037106031086295843,-0.003603859106078744,-0.00349711487069726,-0.0033903708681464195,-0.003283626865595579,-0.0031768828630447388,-0.0030701388604938984,-0.002963394857943058,-0.002856650622561574,-0.0027499066200107336,-0.0026431626174598932,-0.002536418614909053,-0.0024296746123582125,-0.0023229303769767284,-0.002216186374425888,-0.0021094423718750477,-0.0020026983693242073,-0.001895954250358045,-0.0017892102478072047,-0.0016824661288410425,-0.0015757221262902021,-0.0014689781237393618,-0.0013622340047731996,-0.0012554900022223592,-0.0011487459996715188,-0.0010420018807053566,-0.0009352578781545162,-0.0008285138173960149,-0.0007217697566375136,-0.0006150257540866733,-0.000508281693328172,-0.000401537399739027,-0.00029479333898052573,-0.0001880493073258549,-8.130526111926883e-05,2.543878508731723e-05,0.0001321828312939033,0.00023892687750048935,0.0003456709091551602,0.0004524149699136615,0.0005591590306721628,0.0006659030914306641,0.0007726470939815044,0.0008793911547400057,0.000986135215498507,0.0010928792180493474,0.0011996233370155096,0.00130636733956635,0.0014131113421171904,0.0015198554610833526,0.001626599463634193,0.0017333435826003551,0.0018400875851511955,0.001946831587702036,0.0020535755902528763,0.0021603195928037167,0.0022670638281852007,0.002373807830736041,0.0024805518332868814,0.002587295835837722,0.002694039838388562,0.0028007840737700462,0.0029075280763208866,0.003014272078871727],"_type":"histogram"},"gradients/act.action_outs.1.linear.bias":{"_type":"histogram","values":[1,0,0,0,0,0,0,0,0,0,0,0,0,0,0,0,0,0,0,0,0,0,0,0,0,0,0,0,0,0,0,0,0,0,0,0,1,0,0,0,0,0,0,0,0,0,0,0,0,0,0,0,0,0,0,0,0,1,0,0,0,0,0,1],"bins":[-0.004326341673731804,-0.004216951783746481,-0.004107562359422445,-0.003998172469437122,-0.0038887830451130867,-0.0037793933879584074,-0.0036700034979730844,-0.003560613840818405,-0.003451224183663726,-0.0033418345265090466,-0.0032324448693543673,-0.003123055212199688,-0.0030136655550450087,-0.0029042758978903294,-0.00279488624073565,-0.0026854965835809708,-0.002576106693595648,-0.0024667170364409685,-0.002357327379286289,-0.00224793772213161,-0.0021385480649769306,-0.0020291584078222513,-0.001919768750667572,-0.0018103790935128927,-0.0017009894363582134,-0.0015915996627882123,-0.001482210005633533,-0.0013728203484788537,-0.0012634306913241744,-0.001154041034169495,-0.001044651260599494,-0.0009352616034448147,-0.0008258719462901354,-0.0007164822891354561,-0.0006070925737731159,-0.0004977029166184366,-0.0003883132303599268,-0.00027892354410141706,-0.00016953387239482254,-6.01441934122704e-05,4.9245485570281744e-05,0.0001586351718287915,0.00026802485808730125,0.00037741451524198055,0.0004868042015004903,0.0005961938877590001,0.0007055835449136794,0.0008149732602760196,0.0009243629174306989,0.0010337525745853782,0.0011431422317400575,0.0012525320053100586,0.001361921662464738,0.0014713113196194172,0.0015807009767740965,0.0016900906339287758,0.001799480291083455,0.0019088700646534562,0.0020182596053928137,0.0021276494953781366,0.002237039152532816,0.0023464288096874952,0.0024558184668421745,0.002565208123996854,0.002674597781151533]},"reward_mean":-0.15701555603941122,"sm3_ratio_mean":0.4193280952381085,"cm1_ratio":0.5300904761904983,"cm0_ratio":0.23024603174602506,"critic_grad_norm":0.01172682736068964,"gradients/base.feature_norm.weight":{"bins":[-0.03454107791185379,-0.033720873296260834,-0.03290066495537758,-0.03208046033978462,-0.03126025199890137,-0.03044004738330841,-0.029619840905070305,-0.0287996344268322,-0.027979427948594093,-0.027159221470355988,-0.02633901685476303,-0.025518810376524925,-0.02469860389828682,-0.023878397420048714,-0.023058190941810608,-0.022237984463572502,-0.021417777985334396,-0.02059757336974144,-0.019777366891503334,-0.01895716041326523,-0.018136953935027122,-0.017316747456789017,-0.01649654097855091,-0.015676336362957954,-0.014856129884719849,-0.014035923406481743,-0.013215716928243637,-0.012395510450005531,-0.01157530490309,-0.010755098424851894,-0.009934891946613789,-0.009114686399698257,-0.008294479921460152,-0.007474273908883333,-0.006654067430645227,-0.005833861418068409,-0.005013654939830303,-0.004193448927253485,-0.0033732429146766663,-0.002553036669269204,-0.001732830423861742,-0.0009126242366619408,-9.24180494621396e-05,0.0007277881377376616,0.0015479943249374628,0.002368200570344925,0.0031884065829217434,0.004008613061159849,0.004828819073736668,0.005649025086313486,0.006469231564551592,0.00728943757712841,0.008109644055366516,0.008929849602282047,0.009750056080520153,0.010570262558758259,0.01139046810567379,0.012210674583911896,0.013030881062150002,0.013851087540388107,0.014671293087303638,0.015491499565541744,0.016311705112457275,0.01713191159069538,0.017952118068933487],"_type":"histogram","values":[1,0,0,0,0,0,0,0,0,0,0,0,0,0,0,0,0,0,0,0,0,0,0,0,0,1,0,0,0,0,2,0,0,0,1,0,0,1,0,9,18,13,25,17,7,7,2,1,2,1,0,1,0,0,0,0,0,0,0,0,1,0,1,1]},"gradients/base.mlp.fc1.2.weight":{"_type":"histogram","values":[1,0,0,0,0,0,0,0,0,0,0,1,0,0,1,1,2,1,3,2,1,4,1,2,0,1,3,1,5,3,1,3,2,2,0,1,2,3,3,2,3,1,1,0,1,1,1,0,0,0,0,1,0,0,0,1,0,1,0,0,0,0,0,1],"bins":[-0.009251141920685768,-0.008947678841650486,-0.00864421483129263,-0.008340751752257347,-0.00803728774189949,-0.007733824662864208,-0.007430361118167639,-0.007126897573471069,-0.0068234340287745,-0.0065199704840779305,-0.006216506939381361,-0.0059130433946847916,-0.005609580315649509,-0.00530611677095294,-0.0050026532262563705,-0.004699189681559801,-0.004395726136863232,-0.004092262592166662,-0.0037887990474700928,-0.003485335735604167,-0.0031818721909075975,-0.002878408646211028,-0.0025749453343451023,-0.002271481789648533,-0.0019680182449519634,-0.001664554700255394,-0.0013610912719741464,-0.0010576278436928988,-0.0007541642989963293,-0.0004507008125074208,-0.00014723732601851225,0.00015622616047039628,0.0004596896469593048,0.0007631531334482133,0.0010666166199371219,0.0013700800482183695,0.001673543592914939,0.0019770071376115084,0.002280470449477434,0.0025839339941740036,0.002887397538870573,0.0031908610835671425,0.003494324628263712,0.0037977879401296377,0.0041012512519955635,0.004404714796692133,0.004708178341388702,0.005011641886085272,0.005315105430781841,0.005618568975478411,0.00592203252017498,0.00622549606487155,0.006528959609568119,0.006832422688603401,0.007135886233299971,0.00743934977799654,0.0077428133226931095,0.008046276867389679,0.008349739946424961,0.008653203956782818,0.0089566670358181,0.009260131046175957,0.009563594125211239,0.009867058135569096,0.010170521214604378]},"value_loss":0.00024107471003844693,"qos_reward_mean":0.003620931797877541,"gradients/base.mlp.fc2.0.0.weight":{"_type":"histogram","values":[1,0,0,0,1,0,3,0,5,6,2,5,10,6,24,23,29,33,46,56,87,97,129,166,219,238,262,355,331,335,304,296,260,196,143,113,70,52,33,28,33,19,18,12,11,4,8,8,1,4,1,1,3,1,1,1,3,1,1,0,0,0,0,1],"bins":[-0.011706240475177765,-0.011298548430204391,-0.010890857316553593,-0.01048316527158022,-0.01007547415792942,-0.009667782112956047,-0.009260090067982674,-0.008852398954331875,-0.008444706909358501,-0.008037014864385128,-0.007629323750734329,-0.007221631705760956,-0.00681394012644887,-0.006406248547136784,-0.00599855650216341,-0.005590864922851324,-0.005183173343539238,-0.004775481764227152,-0.004367790184915066,-0.003960098139941692,-0.0035524065606296062,-0.00314471498131752,-0.0027370231691747904,-0.0023293313570320606,-0.0019216397777199745,-0.0015139480819925666,-0.0011062563862651587,-0.0006985646905377507,-0.0002908729948103428,0.00011681870091706514,0.0005245103966444731,0.000932202092371881,0.0013398928567767143,0.0017475845525041223,0.00215527624823153,0.00256296806037426,0.002970659639686346,0.003378351218998432,0.003786043031141162,0.004193734843283892,0.004601426422595978,0.005009118001908064,0.00541680958122015,0.005824501626193523,0.0062321932055056095,0.006639884784817696,0.007047576829791069,0.007455268409103155,0.007862959988415241,0.008270652033388615,0.008678343147039413,0.009086035192012787,0.00949372723698616,0.009901418350636959,0.010309110395610332,0.010716801509261131,0.011124493554234505,0.011532185599207878,0.011939876712858677,0.01234756875783205,0.012755259871482849,0.013162951916456223,0.013570643961429596,0.013978335075080395,0.014386027120053768]},"gradients/act.action_outs.2.linear.weight":{"bins":[-0.01094122976064682,-0.010649179108440876,-0.010357128456234932,-0.010065078735351562,-0.009773028083145618,-0.009480977430939674,-0.009188927710056305,-0.008896877057850361,-0.008604826405644417,-0.008312775753438473,-0.008020725101232529,-0.007728675380349159,-0.007436624728143215,-0.007144574075937271,-0.006852523889392614,-0.006560473702847958,-0.0062684230506420135,-0.0059763723984360695,-0.005684322211891413,-0.005392272025346756,-0.005100221373140812,-0.004808170720934868,-0.004516120534390211,-0.004224070347845554,-0.00393201969563961,-0.00363996927626431,-0.0033479188568890095,-0.003055868437513709,-0.0027638180181384087,-0.0024717675987631083,-0.002179717179387808,-0.0018876667600125074,-0.0015956154093146324,-0.001303564989939332,-0.0010115145705640316,-0.0007194641511887312,-0.0004274137318134308,-0.00013536331243813038,0.00015668710693717003,0.00044873752631247044,0.0007407879456877708,0.0010328383650630713,0.0013248887844383717,0.001616939203813672,0.0019089896231889725,0.002201040042564273,0.0024930904619395733,0.0027851408813148737,0.003077191300690174,0.0033692417200654745,0.003661292139440775,0.003953342325985432,0.004245392978191376,0.00453744363039732,0.0048294938169419765,0.005121544003486633,0.005413594655692577,0.005705645307898521,0.005997695494443178,0.006289745680987835,0.006581796333193779,0.006873846985399723,0.00716589717194438,0.0074579473584890366,0.007749998010694981],"_type":"histogram","values":[1,0,0,0,0,0,0,0,0,0,0,0,0,0,0,1,1,1,0,3,0,1,1,3,3,1,3,3,0,13,5,8,8,10,9,11,9,9,8,6,7,5,6,9,11,4,7,7,2,5,1,3,0,1,1,1,1,1,0,0,1,0,0,1]},"avg_se_mean":5.186275166294389,"_timestamp":1.745007446968105e+09,"gradients/graph_1base.mlp.fc1.0.bias":{"_type":"histogram","values":[2,0,0,0,0,0,0,3,0,0,0,0,1,0,0,0,0,0,2,0,2,0,0,1,0,4,5,27,2,1,0,2,1,0,0,0,0,1,3,1,0,0,0,2,0,0,0,1,0,1,0,0,0,0,0,0,0,0,1,0,0,0,0,1],"bins":[-0.0002307461982127279,-0.00022241033730097115,-0.00021407446183729917,-0.00020573860092554241,-0.00019740274001378566,-0.00018906686455011368,-0.00018073100363835692,-0.00017239514272660017,-0.00016405928181484342,-0.00015572340635117143,-0.00014738754543941468,-0.00013905168452765793,-0.00013071580906398594,-0.0001223799481522292,-0.00011404407996451482,-0.00010570821905275807,-9.73723508650437e-05,-8.903648267732933e-05,-8.070062176557258e-05,-7.236475357785821e-05,-6.402889266610146e-05,-5.569302447838709e-05,-4.735715629067272e-05,-3.902129174093716e-05,-3.06854271912016e-05,-2.2349562641466036e-05,-1.4013696272741072e-05,-5.677830813510809e-06,2.6580346457194537e-06,1.0993900104949716e-05,1.932976556417998e-05,2.7665631932904944e-05,3.6001496482640505e-05,4.4337361032376066e-05,5.267322558211163e-05,6.1009093769825995e-05,6.934495468158275e-05,7.768082286929712e-05,8.601669105701149e-05,9.435255196876824e-05,0.00010268842015648261,0.00011102428834419698,0.00011936014925595373,0.00012769601016771048,0.00013603188563138247,0.00014436774654313922,0.00015270360745489597,0.00016103948291856796,0.0001693753438303247,0.00017771120474208146,0.00018604708020575345,0.0001943829411175102,0.00020271880202926695,0.00021105467749293894,0.0002193905384046957,0.00022772639931645244,0.00023606227478012443,0.0002443981356918812,0.00025273399660363793,0.0002610698575153947,0.00026940571842715144,0.00027774160844273865,0.0002860774693544954,0.00029441333026625216,0.0003027491911780089]},"cluster_size_mean":4.577936507936508,"gradients/act.action_outs.0.linear.weight":{"values":[1,0,0,0,1,0,0,0,1,1,2,1,3,0,1,0,0,1,5,1,3,8,6,4,3,3,12,12,9,8,7,7,11,8,1,2,8,8,5,3,9,4,1,3,7,9,2,2,2,1,0,0,2,1,0,0,0,1,0,0,1,0,0,1],"bins":[-0.00958749745041132,-0.009288398548960686,-0.008989300578832626,-0.008690201677381992,-0.008391102775931358,-0.008092003874480724,-0.007792905438691378,-0.007493807002902031,-0.007194708101451397,-0.006895609200000763,-0.006596510764211416,-0.0062974123284220695,-0.0059983134269714355,-0.0056992145255208015,-0.005400116089731455,-0.005101017653942108,-0.004801918752491474,-0.00450281985104084,-0.0042037214152514935,-0.003904622746631503,-0.0036055240780115128,-0.0033064254093915224,-0.003007326740771532,-0.0027082280721515417,-0.0024091294035315514,-0.002110030734911561,-0.0018109320662915707,-0.0015118333976715803,-0.00121273472905159,-0.0009136360604315996,-0.0006145373918116093,-0.0003154387231916189,-1.6339123249053955e-05,0.0002827595453709364,0.0005818582139909267,0.0008809568826109171,0.0011800555512309074,0.0014791542198508978,0.0017782528884708881,0.0020773515570908785,0.002376450225710869,0.002675548894330859,0.0029746475629508495,0.00327374623157084,0.0035728449001908302,0.0038719435688108206,0.004171042237430811,0.004470140673220158,0.004769239574670792,0.005068338476121426,0.005367436911910772,0.005666535347700119,0.005965634249150753,0.006264733150601387,0.006563831586390734,0.00686293002218008,0.007162028923630714,0.007461127825081348,0.007760226260870695,0.008059324696660042,0.008358423598110676,0.00865752249956131,0.00895662046968937,0.009255719371140003,0.009554818272590637],"_type":"histogram"},"gradients/graph_1v_out.bias":{"_type":"histogram","values":[1],"bins":[0.0013398664304986596,0.0013398664304986596]},"pc_kw_mean":0.6037056559090257,"gradients/graph_1base.mlp.fc1.0.weight":{"bins":[-0.0006052167736925185,-0.0005832385504618287,-0.0005612603272311389,-0.0005392821040004492,-0.0005173038807697594,-0.0004953256575390697,-0.00047334746341221035,-0.0004513692401815206,-0.0004293910169508308,-0.00040741279372014105,-0.0003854345704894513,-0.0003634563472587615,-0.0003414781531319022,-0.00031949992990121245,-0.0002975217066705227,-0.0002755434834398329,-0.00025356526020914316,-0.0002315870369784534,-0.00020960881374776363,-0.0001876306050689891,-0.00016565238183829933,-0.00014367415860760957,-0.00012169594265287742,-9.971772669814527e-05,-7.77395034674555e-05,-5.576128387474455e-05,-3.378306428203359e-05,-1.1804844689322636e-05,1.0173374903388321e-05,3.215159449609928e-05,5.4129814088810235e-05,7.610803004354239e-05,9.808631148189306e-05,0.00012006453471258283,0.0001420427579432726,0.00016402096662204713,0.0001859991898527369,0.00020797741308342665,0.0002299556217622012,0.00025193384499289095,0.0002739120682235807,0.0002958902914542705,0.00031786851468496025,0.00033984673791565,0.0003618249320425093,0.0003838031552731991,0.00040578137850388885,0.0004277596017345786,0.0004497378249652684,0.00047171604819595814,0.0004936942714266479,0.0005156724946573377,0.0005376507178880274,0.0005596289411187172,0.000581607164349407,0.0006035853875800967,0.0006255635526031256,0.0006475417758338153,0.0006695199990645051,0.0006914982222951949,0.0007134764455258846,0.0007354546687565744,0.0007574328919872642,0.0007794111152179539,0.0008013893384486437],"_type":"histogram","values":[2,0,0,0,0,0,1,0,0,2,0,0,0,0,1,0,1,1,1,5,7,11,1,20,19,35,44,477,47,16,12,23,12,15,2,1,2,1,2,0,1,0,1,0,1,1,1,0,0,0,0,0,0,1,0,0,0,0,0,0,0,0,0,1]},"gradients/act.action_outs.1.linear.weight":{"bins":[-0.00973325315862894,-0.009457970969378948,-0.009182687848806381,-0.008907405659556389,-0.008632123470306396,-0.00835684034973383,-0.008081558160483837,-0.007806275971233845,-0.007530993316322565,-0.007255710661411285,-0.006980428472161293,-0.006705145817250013,-0.006429863162338734,-0.006154580973088741,-0.005879298318177462,-0.005604016128927469,-0.00532873347401619,-0.00505345081910491,-0.0047781686298549175,-0.004502885974943638,-0.0042276037856936455,-0.003952321130782366,-0.003677038475871086,-0.00340175605379045,-0.003126473631709814,-0.002851191209629178,-0.002575908787548542,-0.0023006261326372623,-0.0020253437105566263,-0.0017500612884759903,-0.0014747787499800324,-0.0011994962114840746,-0.0009242147207260132,-0.0006489322404377162,-0.0003736497601494193,-9.836727986112237e-05,0.00017691520042717457,0.0004521976807154715,0.0007274801610037684,0.0010027626994997263,0.0012780451215803623,0.0015533275436609983,0.0018286100821569562,0.002103892620652914,0.00237917504273355,0.002654457464814186,0.0029297401197254658,0.003205022541806102,0.003480304963886738,0.003755587385967374,0.00403086980804801,0.0043061524629592896,0.004581434652209282,0.004856717307120562,0.005131999962031841,0.005407282151281834,0.005682564806193113,0.005957847461104393,0.006233129650354385,0.006508412305265665,0.006783694960176945,0.007058977149426937,0.007334259804338217,0.007609541993588209,0.007884824648499489],"_type":"histogram","values":[1,1,1,0,0,0,0,0,1,1,1,0,1,1,0,2,3,1,3,1,1,3,2,3,9,10,10,6,8,13,7,8,6,12,16,5,10,8,7,8,7,7,5,4,7,9,8,5,6,5,6,5,4,0,3,1,0,1,0,1,1,0,0,1]},"ue_drop_ratio_mean":0.0003282698015814651,"gradients/act.action_outs.3.linear.bias":{"values":[1,0,0,0,0,0,0,0,0,0,0,0,0,0,0,0,0,0,0,0,0,0,0,0,0,0,0,0,0,0,1,0,0,0,0,0,0,0,0,0,0,0,0,0,0,0,0,0,0,0,0,0,0,0,0,0,0,0,0,0,0,0,0,1],"bins":[-0.0015830716583877802,-0.001532871974632144,-0.0014826722908765078,-0.0014324726071208715,-0.0013822730397805572,-0.001332073356024921,-0.0012818736722692847,-0.0012316739885136485,-0.0011814743047580123,-0.001131274621002376,-0.0010810750536620617,-0.0010308753699064255,-0.0009806756861507893,-0.000930476002395153,-0.0008802763186395168,-0.0008300766930915415,-0.0007798770093359053,-0.0007296773255802691,-0.0006794777000322938,-0.0006292780162766576,-0.0005790783325210214,-0.0005288787069730461,-0.00047867902321740985,-0.00042847933946177363,-0.0003782796848099679,-0.0003280800301581621,-0.0002778803464025259,-0.00022768069175072014,-0.00017748102254699916,-0.00012728135334327817,-7.70816914155148e-05,-2.6882025849772617e-05,2.3317639715969563e-05,7.351730891969055e-05,0.00012371697812341154,0.0001739166327752173,0.00022411630197893828,0.00027431597118265927,0.000324515625834465,0.00037471530959010124,0.000424914964241907,0.00047511461889371276,0.000525314302649349,0.0005755139864049852,0.0006257136119529605,0.0006759132957085967,0.0007261129794642329,0.0007763126050122082,0.0008265122887678444,0.0008767119725234807,0.000926911598071456,0.0009771112818270922,0.0010273109655827284,0.0010775106493383646,0.0011277103330940008,0.0011779099004343152,0.0012281095841899514,0.0012783092679455876,0.0013285089517012239,0.00137870863545686,0.0014289083192124963,0.0014791078865528107,0.0015293075703084469,0.001579507254064083,0.0016297069378197193],"_type":"histogram"},"_runtime":15376.929438619,"gradients/base.mlp.fc1.0.weight":{"bins":[-0.04586299508810043,-0.04438252002000809,-0.04290204495191574,-0.04142157360911369,-0.03994109854102135,-0.038460623472929,-0.03698015213012695,-0.03549967706203461,-0.03401920199394226,-0.032538726925849915,-0.031058253720402718,-0.02957778051495552,-0.028097305446863174,-0.026616830378770828,-0.02513635717332363,-0.023655883967876434,-0.022175408899784088,-0.020694933831691742,-0.019214460626244545,-0.017733987420797348,-0.016253512352705002,-0.01477303821593523,-0.013292564079165459,-0.011812089942395687,-0.010331615805625916,-0.008851141668856144,-0.007370667532086372,-0.005890193395316601,-0.004409719258546829,-0.0029292451217770576,-0.001448770985007286,3.1703151762485504e-05,0.0015121810138225555,0.002992655150592327,0.004473129287362099,0.00595360342413187,0.007434077560901642,0.008914551697671413,0.010395025834441185,0.011875499971210957,0.013355974107980728,0.0148364482447505,0.01631692238152027,0.017797395586967468,0.019277870655059814,0.02075834572315216,0.022238818928599358,0.023719292134046555,0.0251997672021389,0.026680242270231247,0.028160715475678444,0.02964118868112564,0.031121663749217987,0.03260213881731033,0.03408261388540268,0.03556308522820473,0.03704356029629707,0.03852403536438942,0.04000450670719147,0.041484981775283813,0.04296545684337616,0.044445931911468506,0.04592640697956085,0.0474068783223629,0.048887353390455246],"_type":"histogram","values":[1,2,0,0,0,0,1,1,2,0,2,3,1,2,2,0,3,5,7,5,9,21,15,18,20,38,52,71,118,212,3278,2688,212,103,67,46,41,32,15,13,11,7,10,7,3,6,6,3,1,2,1,0,0,0,1,1,0,0,0,2,0,0,0,1]},"ratio":0.999995231628418,"gradients/graph_1base.mlp.fc2.0.2.weight":{"values":[1,0,0,0,0,0,0,0,0,0,1,0,3,1,1,1,0,2,0,1,1,3,2,0,2,3,4,6,1,5,0,2,2,4,2,5,1,1,1,2,2,0,1,0,2,0,0,0,0,0,0,0,0,0,0,0,0,0,0,0,0,0,0,1],"bins":[-0.00020491925533860922,-0.00019754089589696378,-0.00019016253645531833,-0.00018278416246175766,-0.00017540580302011222,-0.00016802744357846677,-0.00016064908413682133,-0.00015327072469517589,-0.00014589235070161521,-0.00013851399125996977,-0.00013113563181832433,-0.00012375727237667888,-0.00011637891293503344,-0.00010900054621743038,-0.00010162218677578494,-9.424382005818188e-05,-8.686546061653644e-05,-7.9487101174891e-05,-7.210873445728794e-05,-6.47303750156425e-05,-5.7352011936018243e-05,-4.997364885639399e-05,-4.259528941474855e-05,-3.52169263351243e-05,-2.783856325550005e-05,-2.0460200175875798e-05,-1.3081838915240951e-05,-5.703476745111402e-06,1.6748854250181466e-06,9.053247595147695e-06,1.6431609765277244e-05,2.380997102591209e-05,3.118833410553634e-05,3.856669718516059e-05,4.594506026478484e-05,5.3323419706430286e-05,6.070178278605454e-05,6.808014586567879e-05,7.545850530732423e-05,8.283687202492729e-05,9.021523146657273e-05,9.759359090821818e-05,0.00010497195762582123,0.00011235031706746668,0.00011972867650911212,0.00012710703595075756,0.00013448540994431823,0.00014186376938596368,0.00014924212882760912,0.00015662048826925457,0.0001639988477109,0.00017137722170446068,0.00017875558114610612,0.00018613394058775157,0.000193512300029397,0.00020089065947104245,0.0002082690189126879,0.00021564739290624857,0.000223025752347894,0.00023040411178953946,0.0002377824712311849,0.00024516083067283034,0.000252539204666391,0.00025991754955612123,0.0002672959235496819],"_type":"histogram"},"gradients/base.mlp.fc2.0.2.weight":{"_type":"histogram","values":[1,0,0,0,2,1,0,0,1,0,0,0,0,2,1,1,2,0,1,2,5,2,2,0,0,1,1,3,1,1,2,3,1,2,1,2,1,1,1,3,1,0,2,2,1,2,1,2,2,1,0,1,0,0,0,0,0,0,0,0,0,1,0,1],"bins":[-0.0037852271925657988,-0.0036659163888543844,-0.0035466053523123264,-0.003427294548600912,-0.0033079837448894978,-0.0031886727083474398,-0.0030693619046360254,-0.002950051100924611,-0.002830740064382553,-0.0027114292606711388,-0.0025921184569597244,-0.00247280765324831,-0.002353496616706252,-0.0022341858129948378,-0.0021148750092834234,-0.0019955639727413654,-0.001876253169029951,-0.001756942248903215,-0.0016376314451918006,-0.0015183205250650644,-0.00139900972135365,-0.001279698801226914,-0.0011603878811001778,-0.0010410770773887634,-0.0009217661572620273,-0.000802455295342952,-0.0006831444334238768,-0.0005638335132971406,-0.00044452265137806535,-0.0003252117894589901,-0.0002059008984360844,-8.659002196509391e-05,3.272085450589657e-05,0.00015203173097688705,0.0002713426074478775,0.00039065349847078323,0.0005099643603898585,0.0006292752223089337,0.0007485861424356699,0.0008678970043547451,0.0009872078662738204,0.0011065187864005566,0.001225829590111971,0.001345140510238707,0.0014644514303654432,0.0015837622340768576,0.0017030731542035937,0.001822383957915008,0.0019416948780417442,0.0020610056817531586,0.0021803167182952166,0.002299627522006631,0.0024189383257180452,0.0025382493622601032,0.0026575601659715176,0.002776870969682932,0.0028961817733943462,0.0030154928099364042,0.0031348036136478186,0.003254114417359233,0.003373425453901291,0.0034927362576127052,0.0036120470613241196,0.0037313580978661776,0.003850668901577592]},"gradients/base.feature_norm.bias":{"_type":"histogram","values":[1,1,0,0,1,1,1,3,1,1,0,1,0,3,4,2,2,5,2,0,2,3,4,5,5,2,7,4,6,1,4,5,1,3,1,3,2,5,2,1,2,3,1,3,2,1,1,0,0,0,3,0,0,0,0,0,0,0,0,0,0,0,0,1],"bins":[-0.011692261323332787,-0.011276683770120144,-0.010861107148230076,-0.010445529595017433,-0.01002995204180479,-0.009614375419914722,-0.00919879786670208,-0.008783220313489437,-0.008367642760276794,-0.007952066138386726,-0.007536488585174084,-0.007120911497622728,-0.006705334410071373,-0.00628975685685873,-0.005874179769307375,-0.005458602216094732,-0.005043025128543377,-0.0046274480409920216,-0.004211870487779379,-0.0037962934002280235,-0.0033807160798460245,-0.0029651387594640255,-0.00254956167191267,-0.002133984351530671,-0.001718407031148672,-0.001302829710766673,-0.0008872525067999959,-0.0004716752446256578,-5.6097982451319695e-05,0.0003594792797230184,0.0007750565418973565,0.0011906337458640337,0.001606210134923458,0.002021787455305457,0.002437364775687456,0.0028529418632388115,0.0032685191836208105,0.0036840965040028095,0.004099673591554165,0.0045152511447668076,0.004930828232318163,0.005346405319869518,0.005761982873082161,0.006177559960633516,0.006593137048184872,0.007008714601397514,0.00742429168894887,0.007839868776500225,0.008255446329712868,0.00867102388292551,0.009086600504815578,0.009502178058028221,0.009917755611240864,0.010333332233130932,0.010748909786343575,0.011164487339556217,0.01158006489276886,0.011995641514658928,0.01241121906787157,0.012826796621084213,0.013242373242974281,0.013657950796186924,0.014073528349399567,0.014489104971289635,0.014904682524502277]},"gradients/base.mlp.fc1.0.bias":{"bins":[-0.009393526241183281,-0.00904017686843872,-0.008686828427016735,-0.008333479054272175,-0.00798013061285019,-0.007626781705766916,-0.007273432798683643,-0.00692008389160037,-0.0065667349845170975,-0.006213385611772537,-0.005860036704689264,-0.005506687797605991,-0.005153338890522718,-0.0047999899834394455,-0.0044466410763561726,-0.0040932921692729,-0.0037399432621896267,-0.0033865943551063538,-0.003033245448023081,-0.002679896540939808,-0.002326547633856535,-0.0019731984939426184,-0.0016198495868593454,-0.0012665006797760725,-0.0009131517726927996,-0.0005598028656095266,-0.0002064539003185928,0.0001468950358685106,0.000500243972055614,0.0008535928791388869,0.0012069419026374817,0.0015602908097207546,0.0019136397168040276,0.0022669886238873005,0.0026203375309705734,0.0029736864380538464,0.0033270353451371193,0.003680384485051036,0.004033733159303665,0.004387082066386938,0.004740430973470211,0.005093780346214771,0.005447129253298044,0.005800478160381317,0.00615382706746459,0.006507175974547863,0.006860524881631136,0.007213873788714409,0.007567222695797682,0.007920571602880955,0.008273920975625515,0.0086272694170475,0.00898061878979206,0.009333967231214046,0.009687316603958607,0.010040665045380592,0.010394014418125153,0.010747362859547138,0.011100712232291698,0.011454060673713684,0.011807410046458244,0.01216075848788023,0.01251410786062479,0.012867456302046776,0.013220805674791336],"_type":"histogram","values":[1,0,1,0,0,0,1,0,0,0,1,3,1,0,0,1,3,1,4,1,2,0,3,1,3,5,5,3,2,2,0,2,3,3,2,1,0,1,0,0,3,1,0,0,0,0,2,0,0,0,0,0,1,0,0,0,0,0,0,0,0,0,0,1]},"gradients/base.mlp.fc1.2.bias":{"bins":[-0.010197756811976433,-0.009890996851027012,-0.009584236890077591,-0.00927747692912817,-0.008970716968178749,-0.008663957007229328,-0.008357197046279907,-0.008050437085330486,-0.007743677124381065,-0.0074369171634316444,-0.0071301572024822235,-0.006823397241532803,-0.006516637280583382,-0.006209877319633961,-0.00590311735868454,-0.005596357397735119,-0.005289597436785698,-0.004982837475836277,-0.004676077514886856,-0.004369317553937435,-0.004062557592988014,-0.0037557976320385933,-0.0034490376710891724,-0.0031422777101397514,-0.0028355177491903305,-0.0025287577882409096,-0.0022219978272914886,-0.0019152378663420677,-0.0016084779053926468,-0.0013017179444432259,-0.000994957983493805,-0.000688198022544384,-0.0003814380615949631,-7.467810064554214e-05,0.00023208186030387878,0.0005388418212532997,0.0008456017822027206,0.0011523617431521416,0.0014591217041015625,0.0017658816650509834,0.0020726416260004044,0.0023794015869498253,0.002686161547899246,0.002992921508848667,0.003299681469798088,0.003606441430747509,0.00391320139169693,0.004219961352646351,0.004526721313595772,0.004833481274545193,0.005140241235494614,0.005447001196444035,0.0057537611573934555,0.0060605211183428764,0.006367281079292297,0.006674041040241718,0.006980801001191139,0.00728756096214056,0.007594320923089981,0.007901080884039402,0.008207840844988823,0.008514600805938244,0.008821360766887665,0.009128120727837086,0.009434880688786507],"_type":"histogram","values":[1,0,0,0,0,1,0,0,0,0,0,0,0,0,1,1,1,1,2,0,1,4,0,0,1,0,0,1,3,2,3,1,2,2,3,1,3,1,1,1,3,0,3,2,3,1,2,1,3,1,0,1,2,2,1,0,0,0,0,0,0,0,0,1]},"gradients/graph_1base.mlp.fc2.0.0.weight":{"values":[1,0,0,0,0,1,0,1,2,0,1,1,0,1,0,2,2,2,4,2,1,0,3,4,6,2,2,7,5,3,4,16,40,78,235,141,288,2387,307,115,99,99,70,38,22,27,15,4,13,7,6,9,9,5,0,1,3,2,1,1,0,0,0,1],"bins":[-0.0003681782109197229,-0.00035840875352732837,-0.00034863929613493383,-0.0003388698387425393,-0.00032910038135014474,-0.0003193309239577502,-0.00030956146656535566,-0.0002997920091729611,-0.00029002258088439703,-0.0002802531234920025,-0.00027048366609960794,-0.0002607142087072134,-0.00025094475131481886,-0.00024117529392242432,-0.00023140583653002977,-0.00022163637913763523,-0.0002118669217452407,-0.00020209746435284615,-0.0001923280069604516,-0.00018255854956805706,-0.00017278909217566252,-0.0001630196493351832,-0.00015325019194278866,-0.00014348073455039412,-0.00013371127715799958,-0.00012394181976560503,-0.00011417236237321049,-0.00010440291225677356,-9.463345486437902e-05,-8.486399747198448e-05,-7.509454735554755e-05,-6.5325089963153e-05,-5.555566167458892e-05,-4.5786204282194376e-05,-3.601675052777864e-05,-2.62472949543735e-05,-1.6477839380968362e-05,-6.708383807563223e-06,3.061071765841916e-06,1.2830527339247055e-05,2.2599982912652194e-05,3.236944030504674e-05,4.213889405946247e-05,5.190834781387821e-05,6.167780520627275e-05,7.14472625986673e-05,8.121671271510422e-05,9.098617010749876e-05,0.00010075562749989331,0.00011052508489228785,0.00012029454228468239,0.00013006399967707694,0.00013983345706947148,0.0001496028999099508,0.00015937235730234534,0.00016914181469473988,0.00017891127208713442,0.00018868072947952896,0.0001984501868719235,0.00020821964426431805,0.00021798908710479736,0.0002277585444971919,0.00023752800188958645,0.000247297459281981,0.00025706691667437553],"_type":"histogram"},"dist_entropy":0.45835268292576076,"policy_loss":-0.003580377894832054,"gradients/graph_1v_out.weight":{"bins":[-0.0006292290636338294,-0.0004844190552830696,-0.0003396090178284794,-0.00019479899492580444,-4.998897202312946e-05,9.482105087954551e-05,0.00023963107378222048,0.0003844411112368107,0.0005292511195875704,0.0006740611279383302,0.0008188711944967508,0.0009636812028475106,0.0011084912111982703,0.001253301277756691,0.0013981112278997898,0.0015429212944582105,0.0016877313610166311,0.00183254131115973,0.001977351261302829,0.0021221614442765713,0.00226697139441967,0.002411781344562769,0.0025565915275365114,0.0027014014776796103,0.002846211427822709,0.0029910216107964516,0.0031358315609395504,0.0032806415110826492,0.003425451461225748,0.0035702616441994905,0.0037150715943425894,0.003859881544485688,0.004004691261798143,0.004149501211941242,0.004294311162084341,0.00443912111222744,0.004583931528031826,0.004728741478174925,0.004873551428318024,0.0050183613784611225,0.005163171328604221,0.00530798127874732,0.005452791694551706,0.005597601644694805,0.005742411594837904,0.005887221544981003,0.006032031495124102,0.0061768414452672005,0.006321651861071587,0.0064664618112146854,0.006611271761357784,0.006756081711500883,0.006900891661643982,0.007045701611787081,0.00719051156193018,0.007335321977734566,0.0074801319278776646,0.007624941878020763,0.007769751828163862,0.007914561778306961,0.008059372194111347,0.008204181678593159,0.008348992094397545,0.008493801578879356,0.008638611994683743],"_type":"histogram","values":[32,7,3,3,5,2,2,1,0,3,0,2,0,0,0,0,0,1,0,0,1,0,0,0,0,1,0,0,0,0,0,0,0,0,0,0,0,0,0,0,0,0,0,0,0,0,0,0,0,0,0,0,0,0,0,0,0,0,0,0,0,0,0,1]}}