{"gradients/graph_1base.feature_norm.bias":{"bins":[-0.0005089991027489305,-0.00048728479305282235,-0.00046557048335671425,-0.0004438562027644366,-0.0004221418930683285,-0.0004004275833722204,-0.00037871330277994275,-0.00035699899308383465,-0.00033528468338772655,-0.00031357037369161844,-0.00029185606399551034,-0.0002701417834032327,-0.0002484274737071246,-0.0002267131640110165,-0.00020499886886682361,-0.00018328457372263074,-0.00016157026402652264,-0.00013985595433041453,-0.00011814165918622166,-9.642735676607117e-05,-7.471305434592068e-05,-5.299875192577019e-05,-3.1284449505619705e-05,-9.570147085469216e-06,1.2144155334681273e-05,3.385845775483176e-05,5.557276017498225e-05,7.728706259513274e-05,9.900136501528323e-05,0.00012071566743543372,0.0001424299698555842,0.00016414426499977708,0.00018585857469588518,0.00020757288439199328,0.00022928717953618616,0.00025100147468037903,0.00027271578437648714,0.00029443009407259524,0.0003161443746648729,0.000337858684360981,0.0003595729940570891,0.0003812873037531972,0.0004030016134493053,0.00042471589404158294,0.00044643020373769104,0.00046814451343379915,0.0004898587940260768,0.0005115731037221849,0.000533287413418293,0.0005550017231144011,0.0005767160328105092,0.0005984303425066173,0.0006201446522027254,0.0006418589036911726,0.0006635732133872807,0.0006852875230833888,0.0007070018327794969,0.000728716142475605,0.0007504304521717131,0.0007721447618678212,0.0007938590133562684,0.0008155733230523765,0.0008372876327484846,0.0008590019424445927,0.0008807162521407008],"_type":"histogram","values":[1,1,0,0,0,0,0,0,0,0,0,1,0,0,0,0,0,1,0,2,0,2,1,0,2,0,0,0,0,0,0,0,0,0,0,0,0,0,0,0,0,0,0,0,0,0,0,0,0,0,0,0,0,0,0,0,0,0,0,0,0,0,0,1]},"gradients/graph_1base.mlp.fc2.0.0.weight":{"values":[1,1,2,0,1,1,0,1,1,2,7,5,9,7,4,9,23,37,14,28,77,104,155,113,142,2371,325,257,173,103,26,31,10,5,2,3,9,5,6,2,5,1,4,3,3,1,0,1,0,0,1,0,0,0,0,1,1,0,1,0,1,0,0,1],"bins":[-0.00037805840838700533,-0.0003631814324762672,-0.0003483044565655291,-0.00033342750975862145,-0.00031855053384788334,-0.00030367355793714523,-0.0002887965820264071,-0.00027391963521949947,-0.00025904265930876136,-0.00024416568339802325,-0.00022928870748728514,-0.00021441174612846226,-0.00019953477021772414,-0.00018465780885890126,-0.00016978083294816315,-0.00015490387158934027,-0.00014002689567860216,-0.00012514991976786405,-0.00011027295840904117,-9.539598977426067e-05,-8.051902113948017e-05,-6.564204522874206e-05,-5.076507659396157e-05,-3.588810795918107e-05,-2.1011139324400574e-05,-6.134169780125376e-06,8.742799764149822e-06,2.3619770217919722e-05,3.849673885270022e-05,5.3373707487480715e-05,6.825067976024002e-05,8.312764839502051e-05,9.800461702980101e-05,0.00011288158566458151,0.000127758554299362,0.00014263553021010011,0.000157512491568923,0.0001723894674796611,0.000187266428838484,0.0002021434047492221,0.00021702036610804498,0.0002318973420187831,0.0002467743179295212,0.0002616512938402593,0.00027652824064716697,0.0002914052165579051,0.0003062821924686432,0.0003211591683793813,0.0003360361442901194,0.00035091309109702706,0.0003657900670077652,0.0003806670429185033,0.0003955440188292414,0.00041042096563614905,0.00042529794154688716,0.00044017491745762527,0.0004550518933683634,0.0004699288692791015,0.00048480581608600914,0.0004996827919967473,0.0005145597388036549,0.0005294367438182235,0.0005443136906251311,0.0005591906956396997,0.0005740676424466074],"_type":"histogram"},"gradients/act.action_outs.2.linear.weight":{"_type":"histogram","values":[1,0,0,0,0,0,0,0,1,0,1,1,3,2,1,2,3,6,3,3,5,9,2,11,4,9,8,3,7,6,6,7,8,14,5,5,11,8,5,8,7,5,0,1,0,1,1,2,0,0,2,0,0,0,2,1,0,0,1,0,0,0,0,1],"bins":[-0.0060726371593773365,-0.005871766246855259,-0.005670894868671894,-0.0054700239561498165,-0.005269152577966452,-0.005068281665444374,-0.004867410287261009,-0.004666539374738932,-0.004465668462216854,-0.004264797084033489,-0.004063926171511412,-0.003863054793328047,-0.0036621838808059692,-0.003461312735453248,-0.003260441590100527,-0.0030595704447478056,-0.0028586992993950844,-0.002657828154042363,-0.002456957008689642,-0.0022560858633369207,-0.0020552147179841995,-0.0018543436890468001,-0.0016534726601094007,-0.0014526015147566795,-0.0012517303694039583,-0.001050859224051237,-0.0008499881369061768,-0.0006491170497611165,-0.0004482459044083953,-0.00024737478815950453,-4.6503671910613775e-05,0.00015436744433827698,0.00035523809492588043,0.0005561092402786016,0.000756980327423662,0.0009578514145687222,0.0011587225599214435,0.0013595937052741647,0.001560464734211564,0.0017613358795642853,0.0019622070249170065,0.0021630781702697277,0.002363949315622449,0.00256482046097517,0.0027656913734972477,0.002966562518849969,0.00316743366420269,0.0033683048095554113,0.0035691759549081326,0.0037700471002608538,0.003970918245613575,0.0041717891581356525,0.004372660536319017,0.004573531448841095,0.00477440282702446,0.004975273739546537,0.005176144652068615,0.00537701603025198,0.005577886942774057,0.005778758320957422,0.0059796292334795,0.006180500611662865,0.006381371524184942,0.006582242902368307,0.006783113814890385]},"gradients/graph_1base.mlp.fc2.0.2.bias":{"bins":[-0.0004261920403223485,-0.0004115791816730052,-0.00039696632302366197,-0.0003823534643743187,-0.00036774060572497547,-0.0003531277470756322,-0.00033851488842628896,-0.0003239020297769457,-0.0003092892002314329,-0.00029467634158208966,-0.0002800634829327464,-0.00026545062428340316,-0.0002508377656340599,-0.00023622490698471665,-0.0002216120483353734,-0.00020699918968603015,-0.0001923863310366869,-0.00017777347238734365,-0.0001631606137380004,-0.00014854775508865714,-0.0001339348964393139,-0.00011932204506592825,-0.00010470919369254261,-9.009633504319936e-05,-7.548347639385611e-05,-6.0870617744512856e-05,-4.625776273314841e-05,-3.1644907721783966e-05,-1.7032049072440714e-05,-2.419192242086865e-06,1.2193664588266984e-05,2.6806521418620832e-05,4.1419349145144224e-05,5.6032207794487476e-05,7.064506644383073e-05,8.525791781721637e-05,9.987077646655962e-05,0.00011448363511590287,0.0001290964864892885,0.00014370934513863176,0.000158322203787975,0.00017293506243731827,0.00018754792108666152,0.00020216077973600477,0.0002167736238334328,0.00023138648248277605,0.0002459993411321193,0.00026061219978146255,0.0002752250584308058,0.00028983791708014905,0.0003044507757294923,0.00031906363437883556,0.0003336764930281788,0.00034828935167752206,0.0003629022103268653,0.00037751506897620857,0.00039212789852172136,0.0004067407571710646,0.00042135361582040787,0.0004359664744697511,0.00045057933311909437,0.0004651921917684376,0.0004798050504177809,0.0004944179090671241,0.0005090307677164674],"_type":"histogram","values":[2,0,0,0,0,2,0,0,1,1,1,0,1,1,0,1,0,2,5,0,0,3,2,3,2,1,3,2,0,2,1,2,0,2,1,1,1,2,5,1,1,1,0,1,1,1,1,0,3,0,0,1,0,1,1,0,0,0,0,0,0,0,0,1]},"gradients/act.action_outs.3.linear.bias":{"bins":[-0.0015474252868443727,-0.0014910546597093344,-0.001434684032574296,-0.0013783134054392576,-0.0013219427783042192,-0.0012655721511691809,-0.0012092015240341425,-0.0011528308968991041,-0.0010964602697640657,-0.0010400896426290274,-0.000983719015493989,-0.0009273483301512897,-0.0008709777030162513,-0.000814607075881213,-0.0007582364487461746,-0.0007018658216111362,-0.0006454951944760978,-0.0005891245673410594,-0.0005327539402060211,-0.0004763833130709827,-0.0004200126859359443,-0.0003636420296970755,-0.0003072714025620371,-0.00025090077542699873,-0.00019453014829196036,-0.00013815952115692198,-8.178888674592599e-05,-2.541825597290881e-05,3.095237480010837e-05,8.732300193514675e-05,0.00014369364362210035,0.00020006427075713873,0.0002564348978921771,0.0003128055250272155,0.00036917615216225386,0.00042554677929729223,0.0004819174064323306,0.000538288033567369,0.0005946586607024074,0.0006510292878374457,0.0007073999149724841,0.0007637706003151834,0.0008201412274502218,0.0008765118545852602,0.0009328824817202985,0.000989253050647676,0.0010456236777827144,0.0011019943049177527,0.001158365048468113,0.0012147356756031513,0.0012711063027381897,0.001327476929873228,0.0013838475570082664,0.0014402181841433048,0.0014965888112783432,0.0015529594384133816,0.00160933006554842,0.0016657006926834583,0.0017220713198184967,0.001778441946953535,0.0018348125740885735,0.0018911832012236118,0.0019475538283586502,0.0020039244554936886,0.002060295082628727],"_type":"histogram","values":[1,0,0,0,0,0,0,0,0,0,0,0,0,0,0,0,0,0,1,0,0,0,0,0,0,0,0,0,0,0,0,0,0,0,0,0,0,0,0,0,0,0,0,0,0,0,0,0,0,0,0,0,0,0,0,0,0,0,0,0,0,0,0,1]},"gradients/graph_1base.mlp.fc1.2.bias":{"_type":"histogram","values":[1,0,0,1,0,0,0,0,1,1,1,1,2,0,1,1,0,1,1,2,2,2,1,2,2,0,1,0,1,2,0,2,3,3,2,2,2,1,2,1,3,0,0,4,1,2,0,1,2,1,1,1,0,0,1,1,0,0,0,0,0,0,0,1],"bins":[-0.0001701067667454481,-0.00016438396414741874,-0.0001586611761013046,-0.00015293837350327522,-0.00014721558545716107,-0.0001414927828591317,-0.00013576998026110232,-0.00013004719221498817,-0.0001243243896169588,-0.00011860159429488704,-0.00011287879897281528,-0.0001071559963747859,-0.00010143320105271414,-9.571040573064238e-05,-8.9987603132613e-05,-8.426480781054124e-05,-7.854201248846948e-05,-7.281921716639772e-05,-6.709642184432596e-05,-6.137361924629658e-05,-5.5650823924224824e-05,-4.992802860215306e-05,-4.4205229642102495e-05,-3.848243068205193e-05,-3.2759635359980166e-05,-2.7036838218919e-05,-2.1314041077857837e-05,-1.5591243936796673e-05,-9.868446795735508e-06,-4.145649654674344e-06,1.5771474863868207e-06,7.299944627447985e-06,1.302274176850915e-05,1.8745538909570314e-05,2.446833605063148e-05,3.0191133191692643e-05,3.591393033275381e-05,4.163672565482557e-05,4.7359524614876136e-05,5.3082323574926704e-05,5.8805118896998465e-05,6.452791421907023e-05,7.025070954114199e-05,7.597351213917136e-05,8.169630746124312e-05,8.741910278331488e-05,9.314190538134426e-05,9.886470070341602e-05,0.00010458749602548778,0.00011031029134755954,0.0001160330866696313,0.00012175588926766068,0.00012747867731377482,0.0001332014799118042,0.00013892428250983357,0.00014464707055594772,0.0001503698731539771,0.00015609267575200647,0.00016181546379812062,0.00016753826639615,0.00017326106899417937,0.00017898385704029351,0.0001847066596383229,0.00019042944768443704,0.0001961522502824664]},"ue_drop_ratio_mean":0.0003333674940184579,"cluster_size_mean":12.62138888888889,"policy_loss":-0.0030390136421374336,"gradients/base.feature_norm.weight":{"values":[1,0,0,0,0,0,0,0,0,0,0,0,0,0,0,1,0,0,0,0,0,0,0,2,2,1,0,0,5,4,14,15,14,15,12,10,4,7,0,0,0,1,0,1,0,0,0,0,1,0,0,1,0,0,0,0,0,0,0,0,0,0,0,1],"bins":[-0.020225174725055695,-0.01960151270031929,-0.018977852538228035,-0.01835419051349163,-0.017730528488755226,-0.01710686832666397,-0.016483206301927567,-0.015859544277191162,-0.015235884115099907,-0.014612222090363503,-0.013988560996949673,-0.013364899903535843,-0.012741237878799438,-0.012117576785385609,-0.011493915691971779,-0.010870253667235374,-0.010246592573821545,-0.009622931480407715,-0.00899926945567131,-0.00837560836225748,-0.007751947268843651,-0.007128285709768534,-0.006504624150693417,-0.005880963057279587,-0.00525730149820447,-0.004633639939129353,-0.004009978845715523,-0.0033863172866404057,-0.002762655960395932,-0.0021389946341514587,-0.0015153331914916635,-0.0008916718070395291,-0.0002680104225873947,0.00035565096186473966,0.000979312346316874,0.0016029737889766693,0.0022266351152211428,0.0028502964414656162,0.0034739580005407333,0.004097619093954563,0.00472128065302968,0.005344942212104797,0.005968603305518627,0.006592264864593744,0.007215926423668861,0.007839587517082691,0.008463248610496521,0.009086910635232925,0.009710571728646755,0.010334232822060585,0.01095789484679699,0.01158155594021082,0.012205217033624649,0.012828879058361053,0.013452540151774883,0.014076201245188713,0.014699863269925117,0.015323524363338947,0.015947185456752777,0.01657084748148918,0.017194507643580437,0.01781816966831684,0.018441831693053246,0.0190654918551445,0.019689153879880905],"_type":"histogram"},"ratio":1.000055193901062,"reward_mean":-0.1832985790227307,"gradients/base.mlp.fc1.2.bias":{"_type":"histogram","values":[1,0,0,0,0,0,0,1,0,0,1,2,0,2,4,0,2,4,2,1,2,0,2,2,2,1,0,0,0,3,3,0,2,2,2,1,1,0,2,3,2,1,0,2,2,1,0,0,0,1,0,1,1,0,0,2,0,0,0,0,2,0,0,1],"bins":[-0.007163858041167259,-0.006963520776480436,-0.006763183977454901,-0.006562846712768078,-0.006362509913742542,-0.006162172649055719,-0.005961835850030184,-0.005761498585343361,-0.005561161786317825,-0.005360824521631002,-0.005160487722605467,-0.004960150457918644,-0.004759813658893108,-0.0045594763942062855,-0.00435913959518075,-0.004158802330493927,-0.003958465531468391,-0.0037581282667815685,-0.0035577912349253893,-0.00335745420306921,-0.003157117171213031,-0.0029567801393568516,-0.0027564431075006723,-0.002556106075644493,-0.00235576881095767,-0.002155431779101491,-0.0019550947472453117,-0.0017547578318044543,-0.0015544206835329533,-0.001354083651676774,-0.0011537466198205948,-0.0009534095879644156,-0.0007530725561082363,-0.0005527355242520571,-0.0003523984632920474,-0.00015206141688395292,4.827562952414155e-05,0.0002486126613803208,0.0004489497223403305,0.0006492867833003402,0.0008496238151565194,0.0010499608470126987,0.0012502978788688779,0.0014506349107250571,0.0016509720589965582,0.0018513090908527374,0.0020516461227089167,0.002251983154565096,0.002452320186421275,0.0026526572182774544,0.0028529942501336336,0.003053331281989813,0.003253668313845992,0.0034540053457021713,0.0036543423775583506,0.00385467940941453,0.004055016674101353,0.004255353473126888,0.004455690737813711,0.004656027536839247,0.00485636480152607,0.005056701600551605,0.005257038865238428,0.005457375664263964,0.005657712928950787]},"gradients/act.action_outs.2.linear.bias":{"_type":"histogram","values":[1,0,0,0,0,0,0,0,1,0,0,0,0,0,0,0,0,0,0,0,0,0,0,0,0,0,0,0,0,0,0,0,0,0,0,0,0,0,0,0,0,0,0,0,0,0,0,0,0,0,0,0,0,0,0,0,0,0,0,0,0,0,0,1],"bins":[-0.0007414001738652587,-0.0007106650155037642,-0.0006799298571422696,-0.0006491946987807751,-0.0006184595404192805,-0.0005877243238501251,-0.0005569891654886305,-0.000526254007127136,-0.0004955188487656415,-0.0004647836904041469,-0.00043404853204265237,-0.00040331334457732737,-0.00037257818621583283,-0.0003418430278543383,-0.0003111078403890133,-0.00028037268202751875,-0.0002496375236660242,-0.00021890236530452967,-0.0001881671923911199,-0.00015743201947771013,-0.0001266968611162156,-9.596169547876343e-05,-6.522652984131128e-05,-3.449136420385912e-05,-3.7561985664069653e-06,2.697896707104519e-05,5.7714132708497345e-05,8.84492983459495e-05,0.00011918446398340166,0.0001499196223448962,0.00018065479525830597,0.00021138996817171574,0.00024212501011788845,0.000272860168479383,0.00030359532684087753,0.00033433051430620253,0.00036506567266769707,0.0003958008310291916,0.0004265360184945166,0.00045727117685601115,0.0004880063352175057,0.0005187414935790002,0.0005494766519404948,0.0005802118103019893,0.0006109470268711448,0.0006416821852326393,0.0006724173435941339,0.0007031525019556284,0.0007338876603171229,0.0007646228186786175,0.000795357977040112,0.0008260931354016066,0.0008568282937631011,0.0008875635103322566,0.0009182986686937511,0.0009490338270552456,0.000979769043624401,0.0010105042019858956,0.0010412393603473902,0.0010719745187088847,0.0011027096770703793,0.0011334448354318738,0.0011641799937933683,0.0011949151521548629,0.0012256503105163574]},"gradients/base.mlp.fc2.0.2.bias":{"_type":"histogram","values":[1,0,0,0,2,0,0,0,1,1,1,3,0,2,0,5,0,0,1,2,3,3,3,3,1,0,1,1,2,3,2,1,3,1,0,1,1,1,1,1,1,0,1,2,1,2,1,1,1,1,0,1,0,0,0,0,0,0,0,0,0,0,0,1],"bins":[-0.0018150503747165203,-0.001749195740558207,-0.0016833412228152156,-0.0016174865886569023,-0.001551631954498589,-0.0014857774367555976,-0.0014199228025972843,-0.001354068168438971,-0.0012882135342806578,-0.0012223590165376663,-0.001156504382379353,-0.0010906497482210398,-0.0010247952304780483,-0.000958940596319735,-0.0008930860203690827,-0.0008272313862107694,-0.000761376810260117,-0.0006955222343094647,-0.0006296676001511514,-0.0005638130242004991,-0.0004979583900421858,-0.0004321038140915334,-0.00036624923814088106,-0.00030039463308639824,-0.00023454002803191543,-0.0001686854229774326,-0.00010283083247486502,-3.6976234696339816e-05,2.8878363082185388e-05,9.473296086071059e-05,0.0001605875586392358,0.00022644214914180338,0.0002922967541962862,0.000358151359250769,0.00042400596430525184,0.0004898605402559042,0.0005557151744142175,0.0006215697503648698,0.0006874243263155222,0.0007532789604738355,0.0008191335364244878,0.0008849881123751402,0.0009508427465334535,0.0010166973806917667,0.0010825518984347582,0.0011484065325930715,0.0012142611667513847,0.0012801156844943762,0.0013459703186526895,0.0014118249528110027,0.0014776794705539942,0.0015435341047123075,0.0016093887388706207,0.0016752432566136122,0.0017410978907719254,0.0018069525249302387,0.0018728070426732302,0.0019386616768315434,0.0020045163109898567,0.002070370828732848,0.0021362255793064833,0.0022020800970494747,0.002267934614792466,0.0023337893653661013,0.0023996438831090927]},"n_drop_mean":0.000992063492063492,"avg_se_mean":5.083574714043695,"actor_grad_norm":0.33460137248039246,"gradients/graph_1base.mlp.fc1.0.bias":{"_type":"histogram","values":[1,0,0,0,0,1,0,0,1,0,0,0,0,0,0,1,1,2,0,0,1,1,0,0,0,3,3,2,7,22,2,6,1,0,0,1,0,0,1,0,0,1,1,0,0,2,0,1,1,0,0,0,0,0,0,0,0,0,0,0,0,0,0,1],"bins":[-0.0005136560066603124,-0.0004960544174537063,-0.00047845279914326966,-0.00046085118083283305,-0.0004432495916262269,-0.0004256479733157903,-0.0004080463550053537,-0.00039044476579874754,-0.00037284314748831093,-0.0003552415291778743,-0.0003376399399712682,-0.00032003832166083157,-0.00030243670335039496,-0.0002848351141437888,-0.0002672334958333522,-0.00024963190662674606,-0.00023203028831630945,-0.00021442868455778807,-0.0001968270807992667,-0.0001792254624888301,-0.0001616238587303087,-0.00014402225497178733,-0.00012642063666135073,-0.00010881903290282935,-9.121742914430797e-05,-7.361582538578659e-05,-5.60142143513076e-05,-3.8412606954807416e-05,-2.081099955830723e-05,-3.2093921618070453e-06,1.439221523469314e-05,3.1993822631193325e-05,4.959543002769351e-05,6.719703378621489e-05,8.479864482069388e-05,0.00010240025585517287,0.00012000185961369425,0.00013760346337221563,0.00015520508168265224,0.0001728066854411736,0.000190408289199695,0.00020800989295821637,0.00022561149671673775,0.00024321311502717435,0.00026081473333761096,0.0002784163225442171,0.0002960179408546537,0.00031361953006125987,0.00033122114837169647,0.0003488227666821331,0.00036642435588873923,0.00038402597419917583,0.000401627563405782,0.0004192291817162186,0.0004368308000266552,0.00045443238923326135,0.00047203400754369795,0.0004896356258541346,0.0005072372150607407,0.0005248388042673469,0.0005424404516816139,0.0005600420408882201,0.0005776436300948262,0.0005952452775090933,0.0006128468667156994]},"gradients/graph_1v_out.weight":{"bins":[-0.010330615565180779,-0.010156530886888504,-0.009982445277273655,-0.00980836059898138,-0.009634274989366531,-0.009460190311074257,-0.009286104701459408,-0.009112020023167133,-0.008937934413552284,-0.00876384973526001,-0.00858976412564516,-0.008415679447352886,-0.008241593837738037,-0.008067509159445763,-0.007893423549830914,-0.007719338405877352,-0.00754525326192379,-0.0073711685836315155,-0.007197083439677954,-0.007022998295724392,-0.00684891315177083,-0.006674828007817268,-0.006500742863863707,-0.006326657719910145,-0.006152572575956583,-0.005978487432003021,-0.0058044022880494595,-0.005630317144095898,-0.005456232000142336,-0.005282146856188774,-0.005108061712235212,-0.0049339765682816505,-0.004759891424328089,-0.004585806280374527,-0.004411721136420965,-0.004237635992467403,-0.004063550848513842,-0.00388946570456028,-0.003715380560606718,-0.0035412954166531563,-0.0033672102726995945,-0.0031931251287460327,-0.003019039984792471,-0.002844954840838909,-0.0026708696968853474,-0.0024967845529317856,-0.002322699408978224,-0.002148614265024662,-0.0019745291210711002,-0.0018004440935328603,-0.0016263589495792985,-0.0014522738056257367,-0.001278188661672175,-0.0011041035177186131,-0.0009300183737650514,-0.0007559332880191505,-0.0005818481440655887,-0.00040776300011202693,-0.0002336778852622956,-5.959275586064905e-05,0.0001144923735409975,0.0002885775174945593,0.0004626626323442906,0.0006367477471940219,0.0008108328911475837],"_type":"histogram","values":[1,0,0,0,0,0,0,0,0,0,0,0,0,0,0,0,0,0,0,0,0,0,0,0,0,0,0,0,0,0,0,0,0,0,0,0,0,1,0,0,0,0,0,1,0,2,1,0,0,1,0,1,2,0,0,1,2,0,1,4,2,5,4,35]},"_timestamp":1.7450905654713671e+09,"gradients/base.mlp.fc1.0.weight":{"bins":[-0.05132763460278511,-0.049816034734249115,-0.04830443486571312,-0.046792834997177124,-0.04528123512864113,-0.04376963526010513,-0.04225803539156914,-0.04074643552303314,-0.03923483192920685,-0.03772323206067085,-0.03621163219213486,-0.03470003232359886,-0.033188432455062866,-0.03167683258652687,-0.030165232717990875,-0.02865363284945488,-0.027142032980918884,-0.02563043311238289,-0.024118833243846893,-0.022607233375310898,-0.021095633506774902,-0.019584031775593758,-0.018072431907057762,-0.016560832038521767,-0.015049232169985771,-0.013537632301449776,-0.01202603243291378,-0.01051443163305521,-0.009002831764519215,-0.007491231895983219,-0.005979631561785936,-0.0044680312275886536,-0.0029564350843429565,-0.0014448349829763174,6.676511839032173e-05,0.0015783652197569609,0.0030899653211236,0.0046015651896595955,0.006113165523856878,0.007624765858054161,0.009136365726590157,0.010647965595126152,0.012159565463662148,0.013671166263520718,0.015182766132056713,0.016694366931915283,0.01820596680045128,0.019717566668987274,0.02122916653752327,0.022740766406059265,0.02425236627459526,0.025763966143131256,0.02727556601166725,0.028787167742848396,0.030298767611384392,0.03181036561727524,0.03332196921110153,0.03483356907963753,0.03634516894817352,0.03785676881670952,0.039368368685245514,0.04087996855378151,0.042391568422317505,0.0439031682908535,0.045414768159389496],"_type":"histogram","values":[1,0,0,0,0,0,0,0,0,0,0,0,0,0,1,1,0,0,0,2,4,2,4,7,12,11,11,12,26,38,78,112,276,3503,2512,246,89,56,43,25,20,11,12,12,8,8,5,5,5,2,1,1,1,0,2,0,1,1,0,0,0,0,0,1]},"_wandb":{"runtime":18207},"gradients/graph_1base.mlp.fc2.0.2.weight":{"_type":"histogram","values":[2,3,1,0,2,3,1,2,1,0,1,1,1,3,1,1,4,2,3,1,3,5,1,2,2,2,2,0,1,1,1,1,0,2,1,0,1,1,1,1,0,0,1,0,1,0,0,0,0,0,0,0,0,0,0,0,0,0,0,0,0,0,0,1],"bins":[-0.0001675669918768108,-0.00015941474703140557,-0.00015126251673791558,-0.00014311027189251035,-0.00013495804159902036,-0.00012680579675361514,-0.00011865355190820992,-0.00011050131433876231,-0.0001023490767693147,-9.41968391998671e-05,-8.604460163041949e-05,-7.789235678501427e-05,-6.974011921556666e-05,-6.158788164611906e-05,-5.3435640438692644e-05,-4.528339923126623e-05,-3.7131161661818624e-05,-2.8978922273381613e-05,-2.0826682884944603e-05,-1.2674443496507592e-05,-4.522204108070582e-06,3.630035280366428e-06,1.1782274668803439e-05,1.993451405724045e-05,2.808675344567746e-05,3.6238991015125066e-05,4.439123222255148e-05,5.2543473429977894e-05,6.06957109994255e-05,6.884794856887311e-05,7.700019341427833e-05,8.515243098372594e-05,9.330466855317354e-05,0.00010145690612262115,0.00010960914369206876,0.00011776138853747398,0.00012591361883096397,0.0001340658636763692,0.0001422181085217744,0.0001503703388152644,0.00015852258366066962,0.00016667482850607485,0.00017482705879956484,0.00018297930364497006,0.00019113154849037528,0.00019928377878386527,0.0002074360236292705,0.0002155882539227605,0.0002237404987681657,0.00023189274361357093,0.00024004497390706092,0.0002481972042005509,0.00025634944904595613,0.00026450169389136136,0.0002726539387367666,0.0002808061835821718,0.000288958428427577,0.0002971106441691518,0.000305262889014557,0.0003134151338599622,0.00032156737870536745,0.00032971962355077267,0.00033787183929234743,0.00034602408413775265,0.0003541763289831579]},"gradients/base.mlp.fc1.0.bias":{"_type":"histogram","values":[1,0,0,0,0,0,0,0,0,0,0,0,1,0,0,1,2,0,1,2,3,2,2,2,0,0,1,3,3,1,2,5,3,0,3,1,3,1,1,1,2,2,0,1,4,0,0,1,0,1,0,1,0,2,0,0,1,0,0,1,1,1,0,1],"bins":[-0.008690436370670795,-0.008423236198723316,-0.008156036026775837,-0.007888835854828358,-0.0076216356828808784,-0.0073544359765946865,-0.007087235804647207,-0.006820035632699728,-0.006552835460752249,-0.0062856352888047695,-0.00601843511685729,-0.005751234944909811,-0.005484035238623619,-0.00521683506667614,-0.004949634894728661,-0.004682434722781181,-0.004415234550833702,-0.004148034378886223,-0.0038808342069387436,-0.003613634267821908,-0.0033464340958744287,-0.0030792339239269495,-0.002812033984810114,-0.0025448338128626347,-0.0022776336409151554,-0.002010433468967676,-0.0017432334134355187,-0.0014760333579033613,-0.001208833185955882,-0.0009416330722160637,-0.0006744329584762454,-0.00040723284473642707,-0.00014003179967403412,0.00012716831406578422,0.00039436842780560255,0.0006615685415454209,0.0009287686552852392,0.0011959688272327185,0.0014631688827648759,0.0017303689382970333,0.0019975691102445126,0.002264769282191992,0.002531969454139471,0.0027991693932563066,0.003066369565203786,0.003333569737151265,0.0036007696762681007,0.00386796984821558,0.004135170020163059,0.0044023701921105385,0.004669570364058018,0.004936770536005497,0.005203970707952976,0.005471170414239168,0.005738370586186647,0.006005570758134127,0.006272770930081606,0.006539971102029085,0.006807171273976564,0.007074371445924044,0.007341571152210236,0.007608771324157715,0.007875971496105194,0.008143171668052673,0.008410371840000153]},"gradients/base.mlp.fc2.0.0.weight":{"_type":"histogram","values":[2,0,1,1,0,0,0,0,0,2,1,1,1,0,2,5,2,3,10,6,15,16,22,28,51,51,65,84,131,143,210,267,349,384,393,361,322,292,230,169,143,84,60,40,48,23,17,9,14,7,8,7,3,4,1,2,0,1,0,0,1,0,1,3],"bins":[-0.011339096352458,-0.0110100656747818,-0.010681034997105598,-0.010352003388106823,-0.010022972710430622,-0.009693942032754421,-0.009364910423755646,-0.009035879746079445,-0.008706849068403244,-0.008377818390727043,-0.008048787713050842,-0.007719756104052067,-0.007390725426375866,-0.007061694748699665,-0.006732663605362177,-0.006403632462024689,-0.006074601784348488,-0.005745571106672287,-0.005416539963334799,-0.005087508819997311,-0.00475847814232111,-0.004429447464644909,-0.004100416321307421,-0.003771385410800576,-0.0034423545002937317,-0.003113323589786887,-0.0027842926792800426,-0.002455261768773198,-0.0021262308582663536,-0.001797199947759509,-0.0014681690372526646,-0.00113913812674582,-0.0008101072162389755,-0.000481076305732131,-0.00015204539522528648,0.00017698551528155804,0.0005060164257884026,0.0008350473362952471,0.0011640782468020916,0.0014931091573089361,0.0018221400678157806,0.002151170978322625,0.0024802018888294697,0.002809232799336314,0.0031382637098431587,0.0034672946203500032,0.0037963255308568478,0.004125356674194336,0.004454387351870537,0.004783418029546738,0.005112449172884226,0.005441480316221714,0.005770510993897915,0.006099541671574116,0.006428572814911604,0.006757603958249092,0.007086634635925293,0.007415665313601494,0.007744696456938982,0.00807372760027647,0.008402758277952671,0.008731788955628872,0.009060820564627647,0.009389851242303848,0.00971888191998005]},"value_loss":0.00039451471129723357,"cm1_ratio":0.5444047619047954,"gradients/base.mlp.fc2.0.2.weight":{"bins":[-0.003520149504765868,-0.003399656154215336,-0.0032791628036648035,-0.003158669453114271,-0.003038176102563739,-0.0029176827520132065,-0.002797189401462674,-0.002676696050912142,-0.002556202467530966,-0.0024357091169804335,-0.002315215766429901,-0.0021947224158793688,-0.0020742290653288364,-0.001953735714778304,-0.0018332423642277718,-0.0017127490136772394,-0.001592255663126707,-0.0014717623125761747,-0.0013512689620256424,-0.00123077561147511,-0.0011102822609245777,-0.0009897887939587235,-0.0008692954434081912,-0.0007488020928576589,-0.0006283087423071265,-0.0005078153917565942,-0.0003873220121022314,-0.0002668286324478686,-0.00014633528189733624,-2.5841916794888675e-05,9.46514483075589e-05,0.00021514481341000646,0.0003356379456818104,0.0004561312962323427,0.0005766246467828751,0.0006971180555410683,0.0008176114060916007,0.000938104756642133,0.0010585981654003263,0.0011790915159508586,0.001299584866501391,0.0014200782170519233,0.0015405715676024556,0.001661064918152988,0.0017815583851188421,0.0019020517356693745,0.002022545086219907,0.002143038436770439,0.0022635317873209715,0.002384025137871504,0.002504518488422036,0.0026250118389725685,0.002745505189523101,0.002865998540073633,0.0029864918906241655,0.003106985241174698,0.003227478824555874,0.003347972175106406,0.0034684655256569386,0.003588958876207471,0.0037094522267580032,0.0038299455773085356,0.003950438927859068,0.004070932045578957,0.004191425628960133],"_type":"histogram","values":[1,0,0,0,0,0,0,0,1,0,0,0,0,2,2,2,1,1,0,4,1,3,2,5,3,2,5,1,4,2,2,1,4,2,0,1,0,2,0,1,3,1,0,0,0,1,1,1,1,0,0,0,0,0,0,0,0,0,0,0,0,0,0,1]},"gradients/graph_1base.mlp.fc1.0.weight":{"bins":[-0.0016449283575639129,-0.0015930095687508583,-0.0015410907799378037,-0.001489172107540071,-0.0014372533187270164,-0.0013853345299139619,-0.0013334157411009073,-0.0012814969522878528,-0.0012295781634747982,-0.0011776594910770655,-0.001125740702264011,-0.0010738219134509563,-0.0010219031246379018,-0.0009699843940325081,-0.0009180656052194536,-0.0008661468746140599,-0.0008142280858010054,-0.0007623092969879508,-0.0007103905663825572,-0.0006584717775695026,-0.0006065530469641089,-0.0005546342581510544,-0.0005027154693379998,-0.0004507967096287757,-0.0003988779499195516,-0.0003469591902103275,-0.0002950404305011034,-0.00024312164168804884,-0.00019120288197882473,-0.00013928412226960063,-8.73653480084613e-05,-3.544658102327958e-05,1.6472069546580315e-05,6.839083653176203e-05,0.00012030960351694375,0.00017222837777808309,0.0002241471374873072,0.0002760658971965313,0.00032798468600958586,0.00037990344571880996,0.00043182220542803407,0.00048374096513725817,0.0005356597248464823,0.0005875785136595368,0.0006394973024725914,0.000691416033077985,0.0007433348218910396,0.0007952535524964333,0.0008471723413094878,0.0008990911301225424,0.000951009860727936,0.0010029285913333297,0.0010548473801463842,0.0011067661689594388,0.0011586849577724934,0.001210603746585548,0.0012625225353986025,0.0013144412077963352,0.0013663599966093898,0.0014182787854224443,0.001470197574235499,0.0015221163630485535,0.0015740350354462862,0.0016259538242593408,0.0016778726130723953],"_type":"histogram","values":[1,0,0,0,0,0,1,0,0,1,0,0,0,0,0,0,1,0,0,0,2,1,1,0,1,7,2,7,31,31,24,496,63,37,22,16,6,8,1,0,1,0,0,1,0,1,0,2,0,1,1,0,0,0,0,0,0,0,0,0,0,0,0,1]},"gradients/base.mlp.fc2.0.0.bias":{"bins":[-0.00391523027792573,-0.003767586313188076,-0.0036199423484504223,-0.0034722983837127686,-0.003324654418975115,-0.003177010454237461,-0.0030293664894998074,-0.0028817225247621536,-0.0027340785600245,-0.002586434595286846,-0.0024387906305491924,-0.0022911466658115387,-0.002143502701073885,-0.0019958587363362312,-0.0018482147715985775,-0.0017005708068609238,-0.00155292684212327,-0.0014052828773856163,-0.0012576389126479626,-0.0011099949479103088,-0.0009623509831726551,-0.0008147070184350014,-0.0006670630536973476,-0.0005194190889596939,-0.0003717751242220402,-0.00022413115948438644,-7.648719474673271e-05,7.115676999092102e-05,0.00021880073472857475,0.0003664446994662285,0.0005140886642038822,0.000661732628941536,0.000809377059340477,0.0009570210240781307,0.0011046649888157845,0.0012523089535534382,0.001399952918291092,0.0015475968830287457,0.0016952408477663994,0.0018428848125040531,0.001990528777241707,0.0021381727419793606,0.0022858167067170143,0.002433460671454668,0.0025811046361923218,0.0027287486009299755,0.0028763925656676292,0.003024036530405283,0.0031716804951429367,0.0033193244598805904,0.003466968424618244,0.003614612389355898,0.0037622563540935516,0.003909900318831205,0.004057544283568859,0.004205188248306513,0.0043528322130441666,0.00450047617778182,0.004648120142519474,0.004795764107257128,0.0049434080719947815,0.005091052036732435,0.005238696001470089,0.005386339966207743,0.005533983930945396],"_type":"histogram","values":[2,0,0,0,0,0,1,0,2,0,0,1,4,0,3,2,2,3,1,0,2,3,5,4,1,2,0,0,3,3,0,2,2,3,2,0,1,1,1,0,1,2,1,0,0,1,0,0,0,0,0,0,0,0,0,0,0,1,0,0,1,0,0,1]},"delay_ratio_mean":0.10013605999175373,"dist_entropy":0.4342258466407657,"gradients/graph_1base.feature_norm.weight":{"_type":"histogram","values":[1,0,0,0,0,0,0,0,0,0,0,0,0,0,0,0,0,0,0,0,1,0,0,0,0,0,0,0,0,0,0,0,0,0,0,0,0,1,0,0,0,1,2,1,0,1,0,0,0,1,0,0,0,0,0,1,0,0,0,0,0,0,1,1],"bins":[-0.0004848564276471734,-0.00047325584455393255,-0.0004616552614606917,-0.00045005467836745083,-0.00043845409527421,-0.00042685348307713866,-0.0004152528999838978,-0.00040365231689065695,-0.0003920517337974161,-0.00038045115070417523,-0.0003688505676109344,-0.0003572499845176935,-0.0003456493723206222,-0.00033404878922738135,-0.0003224482061341405,-0.00031084762304089963,-0.0002992470399476588,-0.0002876464568544179,-0.00027604587376117706,-0.0002644452906679362,-0.00025284470757469535,-0.00024124410992953926,-0.00022964351228438318,-0.00021804292919114232,-0.00020644234609790146,-0.0001948417630046606,-0.00018324117991141975,-0.00017164058226626366,-0.0001600399991730228,-0.00014843941607978195,-0.00013683881843462586,-0.000125238235341385,-0.00011363762314431369,-0.00010203704005107284,-9.043644968187436e-05,-7.88358593126759e-05,-6.723527621943504e-05,-5.563468948821537e-05,-4.403410275699571e-05,-3.2433516025776044e-05,-2.083292929455638e-05,-9.232342563336715e-06,2.368244167882949e-06,1.3968830899102613e-05,2.5569417630322278e-05,3.717000436154194e-05,4.8770591092761606e-05,6.037117782398127e-05,7.197176455520093e-05,8.357234764844179e-05,9.517293801764026e-05,0.00010677352838683873,0.00011837411148007959,0.00012997469457332045,0.00014157529221847653,0.0001531758753117174,0.00016477645840495825,0.0001763770414981991,0.00018797762459143996,0.00019957822223659605,0.0002111788053298369,0.00022277938842307776,0.00023437998606823385,0.0002459805691614747,0.00025758115225471556]},"sm3_ratio_mean":0.4163163492063564,"gradients/graph_1v_out.bias":{"values":[1],"bins":[-0.0017341088969260454,-0.0017341088969260454],"_type":"histogram"},"gradients/graph_1base.mlp.fc1.2.weight":{"_type":"histogram","values":[1,0,0,0,0,0,0,0,0,0,0,0,0,0,0,2,1,1,2,4,4,3,4,5,4,2,4,2,7,3,2,4,1,0,3,1,0,1,0,0,0,0,0,0,0,0,0,0,0,1,0,0,0,0,0,1,0,0,0,0,0,0,0,1],"bins":[-0.00022561124933417886,-0.0002170777297578752,-0.00020854421018157154,-0.00020001069060526788,-0.00019147718558087945,-0.0001829436660045758,-0.00017441014642827213,-0.00016587662685196847,-0.0001573431072756648,-0.00014880958769936115,-0.00014027606812305748,-0.00013174254854675382,-0.00012320902897045016,-0.00011467551667010412,-0.00010614200436975807,-9.760848479345441e-05,-8.907496521715075e-05,-8.054144564084709e-05,-7.200792606454343e-05,-6.347441376419738e-05,-5.494089418789372e-05,-4.640737461159006e-05,-3.7873858673265204e-05,-2.9340340915950947e-05,-2.080682315863669e-05,-1.2273305401322432e-05,-3.7397876440081745e-06,4.793730113306083e-06,1.332724787062034e-05,2.1860765627934597e-05,3.0394283385248855e-05,3.892779932357371e-05,4.74613334517926e-05,5.599485302809626e-05,6.452837260439992e-05,7.306188490474597e-05,8.159540448104963e-05,9.012892405735329e-05,9.866243635769933e-05,0.000107195955934003,0.00011572947551030666,0.00012426299508661032,0.00013279651466291398,0.00014133003423921764,0.00014986353926360607,0.00015839705883990973,0.0001669305784162134,0.00017546409799251705,0.00018399761756882071,0.00019253113714512438,0.00020106465672142804,0.0002095981762977317,0.00021813169587403536,0.0002266652008984238,0.00023519872047472745,0.0002437322400510311,0.00025226577417925,0.00026079927920363843,0.00026933278422802687,0.00027786631835624576,0.0002863998233806342,0.0002949333575088531,0.0003034668625332415,0.0003120003966614604,0.00032053390168584883]},"gradients/act.action_outs.1.linear.bias":{"values":[1,0,0,0,0,0,0,0,0,0,0,0,0,0,0,0,0,0,0,0,0,0,0,0,0,0,0,0,0,0,0,0,0,0,0,0,0,0,0,0,0,0,0,0,0,0,0,0,0,0,0,0,0,0,0,0,1,0,1,0,0,0,0,1],"bins":[-0.001735267462208867,-0.0016966034891083837,-0.0016579395160079002,-0.001619275426492095,-0.0015806114533916116,-0.0015419474802911282,-0.0015032835071906447,-0.0014646195340901613,-0.001425955444574356,-0.0013872914714738727,-0.0013486274983733892,-0.0013099635252729058,-0.0012712995521724224,-0.001232635579071939,-0.0011939714895561337,-0.0011553075164556503,-0.001116643543355167,-0.0010779795702546835,-0.0010393155971542,-0.0010006515076383948,-0.0009619875345379114,-0.000923323561437428,-0.0008846595883369446,-0.0008459955570288002,-0.0008073315839283168,-0.0007686676108278334,-0.0007300035795196891,-0.0006913396064192057,-0.0006526756333187222,-0.0006140116020105779,-0.0005753476289100945,-0.0005366835976019502,-0.0004980197409167886,-0.0004593557387124747,-0.00042069173650816083,-0.0003820277634076774,-0.00034336376120336354,-0.00030469975899904966,-0.00026603578589856625,-0.00022737178369425237,-0.0001887077814899385,-0.00015004377928562462,-0.00011137979163322598,-7.271579670486972e-05,-3.405180177651346e-05,4.612193151842803e-06,4.327618808019906e-05,8.194018300855532e-05,0.00012060417793691158,0.00015926818014122546,0.0001979321677936241,0.00023659615544602275,0.0002752601576503366,0.0003139241598546505,0.0003525881329551339,0.0003912521351594478,0.00042991613736376166,0.00046858013956807554,0.0005072441417723894,0.0005459081148728728,0.0005845720879733562,0.0006232361192815006,0.000661900092381984,0.0007005641236901283,0.0007392280967906117],"_type":"histogram"},"_runtime":18207.050075766,"gradients/act.action_outs.1.linear.weight":{"_type":"histogram","values":[1,1,1,0,1,0,0,2,1,1,2,1,3,2,1,3,2,3,8,5,6,4,3,8,8,4,7,14,5,8,9,9,10,13,8,14,10,9,10,9,3,6,3,2,5,3,5,3,3,1,4,0,1,3,1,1,2,1,0,0,1,1,0,1],"bins":[-0.006354122888296843,-0.006155206356197596,-0.005956289824098349,-0.005757373291999102,-0.005558456294238567,-0.00535953976213932,-0.005160623230040073,-0.004961706697940826,-0.0047627901658415794,-0.0045638736337423325,-0.0043649571016430855,-0.0041660405695438385,-0.0039671240374445915,-0.003768207272514701,-0.0035692905075848103,-0.0033703739754855633,-0.0031714574433863163,-0.0029725409112870693,-0.0027736243791878223,-0.0025747076142579317,-0.0023757910821586847,-0.0021768745500594378,-0.001977957785129547,-0.0017790412530303001,-0.0015801247209310532,-0.0013812081888318062,-0.0011822915403172374,-0.0009833748918026686,-0.0007844583597034216,-0.0005855417693965137,-0.0003866251790896058,-0.00018770858878269792,1.1207535862922668e-05,0.00021012412616983056,0.00040904071647673845,0.0006079573067836463,0.0008068738970905542,0.0010057904291898012,0.00120470707770437,0.0014036237262189388,0.0016025402583181858,0.0018014567904174328,0.0020003733225166798,0.0021992900874465704,0.0023982066195458174,0.0025971231516450644,0.002796039916574955,0.002994956448674202,0.003193872980773449,0.003392789512872696,0.003591706044971943,0.0037906228099018335,0.003989539109170437,0.004188456106930971,0.004387372639030218,0.004586289171129465,0.004785205703228712,0.004984122235327959,0.005183038767427206,0.005381955299526453,0.005580872297286987,0.005779788829386234,0.005978705361485481,0.006177621893584728,0.006376538425683975]},"cm0_ratio":0.22745238095236514,"gradients/act.action_outs.0.linear.bias":{"values":[1,0,0,0,0,0,0,0,0,0,0,0,0,0,0,0,0,0,1,0,0,0,0,0,0,0,0,0,0,0,0,0,0,0,0,0,0,0,0,0,0,0,0,0,0,0,0,0,0,0,0,0,0,0,0,0,0,0,0,0,0,0,0,1],"bins":[-0.0007392738480120897,-0.0007122664828784764,-0.000685259117744863,-0.0006582517526112497,-0.0006312443874776363,-0.000604237022344023,-0.0005772297154180706,-0.0005502223502844572,-0.0005232149851508439,-0.0004962076200172305,-0.00046920025488361716,-0.0004421928897500038,-0.00041518552461639047,-0.0003881781594827771,-0.00036117082345299423,-0.0003341634583193809,-0.00030715609318576753,-0.0002801487280521542,-0.00025314136291854084,-0.00022613401233684272,-0.0001991266617551446,-0.00017211929662153125,-0.0001451119314879179,-0.00011810457363026217,-9.109721577260643e-05,-6.40898579149507e-05,-3.708249641931616e-05,-1.007513674267102e-05,1.6932222933974117e-05,4.393958079162985e-05,7.09469459252432e-05,9.795430378289893e-05,0.00012496166164055467,0.00015196902677416801,0.00017897637735586613,0.00020598374248947948,0.0002329910930711776,0.00025999845820479095,0.0002870058233384043,0.00031401318847201765,0.00034102052450180054,0.0003680278896354139,0.00039503525476902723,0.0004220426199026406,0.00044904998503625393,0.0004760573501698673,0.0005030647153034806,0.000530072080437094,0.0005570794455707073,0.0005840867524966598,0.0006110941176302731,0.0006381014827638865,0.0006651088478974998,0.0006921162130311131,0.0007191235781647265,0.0007461309432983398,0.0007731383084319532,0.0008001456735655665,0.0008271530386991799,0.0008541603456251323,0.0008811677107587457,0.000908175075892359,0.0009351824410259724,0.0009621898061595857,0.000989197171293199],"_type":"histogram"},"drop_ratio_mean":0.00020067920640172348,"gradients/graph_1base.mlp.fc2.0.0.bias":{"bins":[-0.0001388398522976786,-0.00013366920757107437,-0.00012849856284447014,-0.00012332791811786592,-0.00011815728066721931,-0.00011298663594061509,-0.00010781599848996848,-0.00010264535376336426,-9.747470903676003e-05,-9.230406431015581e-05,-8.713341958355159e-05,-8.196278213290498e-05,-7.679213740630075e-05,-7.162149267969653e-05,-6.645085522904992e-05,-6.12802105024457e-05,-5.6109565775841475e-05,-5.093892104923725e-05,-4.5768279960611835e-05,-4.059763887198642e-05,-3.5426994145382196e-05,-3.0256351237767376e-05,-2.5085708330152556e-05,-1.9915065422537737e-05,-1.4744422514922917e-05,-9.573779607308097e-06,-4.4031366996932775e-06,7.675062079215422e-07,5.938149115536362e-06,1.1108792023151182e-05,1.6279434930766e-05,2.145007783838082e-05,2.6620706194080412e-05,3.1791350920684636e-05,3.696199200931005e-05,4.213263309793547e-05,4.730327782453969e-05,5.2473922551143914e-05,5.764456363976933e-05,6.281520472839475e-05,6.798584945499897e-05,7.31564941816032e-05,7.832713890820742e-05,8.349777635885403e-05,8.866842108545825e-05,9.383906581206247e-05,9.900970326270908e-05,0.0001041803479893133,0.00010935099271591753,0.00011452163744252175,0.00011969228216912597,0.0001248629268957302,0.0001300335570704192,0.00013520420179702342,0.00014037484652362764,0.00014554549125023186,0.00015071613597683609,0.0001558867807034403,0.00016105742543004453,0.00016622807015664876,0.00017139871488325298,0.00017656934505794197,0.0001817399897845462,0.00018691063451115042,0.00019208127923775464],"_type":"histogram","values":[1,0,0,0,0,0,0,0,1,1,1,1,0,1,1,3,1,1,1,1,1,0,2,3,0,0,26,8,2,0,0,0,0,1,0,0,0,0,0,0,2,0,1,0,1,0,0,1,0,0,1,0,0,0,0,0,0,0,0,0,0,0,0,1]},"_step":3780000,"pc_kw_mean":0.6570022907477333,"gradients/act.action_outs.0.linear.weight":{"bins":[-0.010163730941712856,-0.009845650754868984,-0.009527571499347687,-0.009209491312503815,-0.008891411125659943,-0.00857333093881607,-0.008255250751972198,-0.007937171496450901,-0.007619091309607029,-0.007301011122763157,-0.006982931401580572,-0.006664851680397987,-0.006346771493554115,-0.006028691306710243,-0.0057106115855276585,-0.005392531864345074,-0.005074451677501202,-0.0047563714906573296,-0.004438291769474745,-0.00412021204829216,-0.003802131861448288,-0.0034840519074350595,-0.003165971953421831,-0.0028478919994086027,-0.0025298120453953743,-0.002211732091382146,-0.0018936521373689175,-0.001575572183355689,-0.0012574922293424606,-0.0009394122753292322,-0.0006213323213160038,-0.0003032523673027754,1.4826655387878418e-05,0.00033290660940110683,0.0006509865634143353,0.0009690665174275637,0.001287146471440792,0.0016052264254540205,0.001923306379467249,0.0022413863334804773,0.0025594662874937057,0.002877546241506934,0.0031956261955201626,0.003513706149533391,0.0038317861035466194,0.0041498662903904915,0.004467946011573076,0.004786025732755661,0.005104105919599533,0.005422186106443405,0.00574026582762599,0.006058345548808575,0.006376425735652447,0.006694505922496319,0.007012585643678904,0.007330665364861488,0.00764874555170536,0.007966825738549232,0.008284905925393105,0.008602985180914402,0.008921065367758274,0.009239145554602146,0.009557224810123444,0.009875304996967316,0.010193385183811188],"_type":"histogram","values":[2,0,0,0,0,0,0,0,0,0,0,0,0,1,2,3,3,4,0,1,3,5,5,3,4,7,9,7,10,8,5,6,10,15,11,11,13,9,8,4,1,4,0,3,1,2,2,1,1,2,1,0,0,0,0,1,0,0,2,1,0,0,0,1]},"gradients/base.mlp.fc1.2.weight":{"_type":"histogram","values":[2,0,0,0,0,0,0,0,0,0,0,0,0,1,1,0,1,0,0,0,0,1,0,2,1,1,2,1,1,3,1,0,1,3,2,1,0,1,5,1,3,2,3,0,3,3,2,1,1,0,4,1,1,2,0,2,1,0,2,0,0,0,0,1],"bins":[-0.007779955863952637,-0.007576744072139263,-0.007373531814664602,-0.007170320022851229,-0.006967107765376568,-0.006763895973563194,-0.006560684181749821,-0.00635747192427516,-0.006154260132461786,-0.005951048340648413,-0.005747836083173752,-0.005544624291360378,-0.005341412499547005,-0.005138200242072344,-0.00493498845025897,-0.004731776192784309,-0.004528564400970936,-0.004325352609157562,-0.004122140351682901,-0.003918928559869528,-0.0037157165352255106,-0.0035125045105814934,-0.00330929271876812,-0.0031060806941241026,-0.0029028686694800854,-0.002699656644836068,-0.002496444620192051,-0.0022932328283786774,-0.00209002080373466,-0.001886808779090643,-0.0016835968708619475,-0.0014803849626332521,-0.0012771734036505222,-0.001073961379006505,-0.0008707494707778096,-0.0006675375043414533,-0.000464325537905097,-0.0002611135714687407,-5.7901605032384396e-05,0.0001453103614039719,0.0003485223278403282,0.0005517342942766845,0.0007549462607130408,0.0009581582271493971,0.0011613701935857534,0.0013645822182297707,0.001567794126458466,0.0017710060346871614,0.0019742180593311787,0.002177430083975196,0.002380642108619213,0.0025838539004325867,0.002787065925076604,0.002990277949720621,0.0031934897415339947,0.003396701766178012,0.003599913790822029,0.0038031258154660463,0.0040063378401100636,0.004209549631923437,0.004412761889398098,0.0046159736812114716,0.004819185473024845,0.005022397730499506,0.0052256095223128796]},"gradients/base.feature_norm.bias":{"bins":[-0.013249644078314304,-0.012868978083133698,-0.012488311156630516,-0.01210764516144991,-0.011726979166269302,-0.011346313171088696,-0.010965647175908089,-0.010584980249404907,-0.0102043142542243,-0.009823648259043694,-0.009442981332540512,-0.009062315337359905,-0.008681649342179298,-0.008300983346998692,-0.007920317351818085,-0.007539650425314903,-0.007158984430134296,-0.00677831843495369,-0.006397651974111795,-0.006016985513269901,-0.005636319518089294,-0.005255653522908688,-0.0048749870620667934,-0.004494320601224899,-0.0041136546060442924,-0.003732988378033042,-0.0033523221500217915,-0.002971655922010541,-0.0025909896939992905,-0.00221032346598804,-0.0018296572379767895,-0.001448991009965539,-0.0010683238506317139,-0.0006876576226204634,-0.0003069913946092129,7.367483340203762e-05,0.0004543410614132881,0.0008350072894245386,0.001215673517435789,0.0015963397454470396,0.00197700597345829,0.0023576722014695406,0.002738338429480791,0.0031190046574920416,0.003499670885503292,0.0038803371135145426,0.004261003341525793,0.004641669802367687,0.005022335797548294,0.005403001792728901,0.005783668253570795,0.006164334714412689,0.006545000709593296,0.006925666704773903,0.007306333165615797,0.007686999626457691,0.008067665621638298,0.008448331616818905,0.008828997611999512,0.009209664538502693,0.0095903305336833,0.009970996528863907,0.010351663455367088,0.010732329450547695,0.011112995445728302],"_type":"histogram","values":[1,0,0,0,1,0,0,1,0,0,0,1,1,0,2,2,1,0,2,3,1,2,1,4,0,5,3,2,6,4,6,5,4,5,2,3,1,2,6,0,1,5,3,1,8,0,2,0,0,3,2,4,2,0,1,0,0,1,0,0,0,1,0,1]},"critic_grad_norm":0.016659924760460854,"gradients/act.action_outs.3.linear.weight":{"_type":"histogram","values":[1,0,0,0,0,0,0,0,0,0,0,0,2,3,2,1,3,3,1,5,4,6,5,5,5,5,7,10,13,8,9,11,8,12,9,7,6,8,5,3,4,4,3,2,1,3,0,2,1,0,1,0,0,0,2,0,0,0,1,0,0,0,0,1],"bins":[-0.008096331730484962,-0.007833017036318779,-0.00756970327347517,-0.007306388579308987,-0.0070430743508040905,-0.006779760122299194,-0.006516445428133011,-0.006253131199628115,-0.0059898169711232185,-0.005726502742618322,-0.005463188514113426,-0.005199873819947243,-0.004936559591442347,-0.00467324536293745,-0.004409930668771267,-0.004146616440266371,-0.0038833022117614746,-0.0036199879832565784,-0.0033566735219210386,-0.003093359060585499,-0.0028300448320806026,-0.0025667306035757065,-0.0023034161422401667,-0.002040101680904627,-0.0017767874523997307,-0.0015134731074795127,-0.0012501587625592947,-0.0009868444176390767,-0.0007235300727188587,-0.00046021572779864073,-0.00019690138287842274,6.641296204179525e-05,0.00032972637563943863,0.0005930407205596566,0.0008563550654798746,0.0011196694104000926,0.0013829837553203106,0.0016462981002405286,0.0019096124451607466,0.0021729269064962864,0.0024362411350011826,0.0026995553635060787,0.0029628698248416185,0.0032261842861771584,0.0034894985146820545,0.0037528127431869507,0.004016127437353134,0.00427944166585803,0.0045427558943629265,0.004806070122867823,0.005069384351372719,0.005332699045538902,0.0055960132740437984,0.005859327502548695,0.006122642196714878,0.006385956425219774,0.00664927065372467,0.006912584882229567,0.007175899110734463,0.007439213804900646,0.007702528033405542,0.007965842261910439,0.008229156956076622,0.00849247071892023,0.008755785413086414]},"qos_reward_mean":0.0036300641587783994}