{"gradients/graph_1v_out.bias":{"_type":"histogram","values":[1],"bins":[-0.009177359752357006,-0.009177359752357006]},"_step":3780000,"gradients/base.feature_norm.weight":{"_type":"histogram","values":[1,0,0,0,0,0,0,0,0,1,0,0,0,0,0,0,0,1,0,0,1,1,0,0,2,1,4,3,2,8,11,9,10,11,11,10,5,4,2,4,2,1,0,2,1,2,0,0,0,0,0,1,0,0,0,0,0,0,0,0,0,0,0,1],"bins":[-0.02369525097310543,-0.022972768172621727,-0.022250285372138023,-0.02152780257165432,-0.020805321633815765,-0.020082838833332062,-0.019360356032848358,-0.018637873232364655,-0.01791539043188095,-0.017192907631397247,-0.016470424830913544,-0.01574794203042984,-0.015025460161268711,-0.014302977360785007,-0.013580495491623878,-0.012858012691140175,-0.012135529890656471,-0.011413047090172768,-0.010690564289689064,-0.009968082420527935,-0.009245599620044231,-0.008523116819560528,-0.0078006344847381115,-0.007078152149915695,-0.006355669349431992,-0.005633186548948288,-0.004910704214125872,-0.004188221879303455,-0.0034657390788197517,-0.0027432565111666918,-0.002020773943513632,-0.0012982913758605719,-0.0005758106708526611,0.00014667189680039883,0.0008691544644534588,0.0015916370321065187,0.0023141195997595787,0.0030366021674126387,0.0037590847350656986,0.004481567069888115,0.0052040498703718185,0.005926532670855522,0.0066490150056779385,0.007371497340500355,0.008093980140984058,0.008816462941467762,0.009538944810628891,0.010261427611112595,0.010983910411596298,0.011706393212080002,0.012428876012563705,0.013151357881724834,0.013873840682208538,0.014596323482692242,0.01531880535185337,0.016041288152337074,0.016763770952820778,0.01748625375330448,0.018208736553788185,0.01893121935427189,0.019653700292110443,0.020376183092594147,0.02109866589307785,0.021821148693561554,0.022543631494045258]},"gradients/base.mlp.fc2.0.2.bias":{"values":[1,1,0,3,0,0,1,1,0,1,0,0,2,3,1,1,1,2,1,2,0,1,1,2,3,2,1,5,1,1,2,1,0,3,0,1,1,3,1,0,1,0,0,1,1,0,2,1,2,0,0,1,1,1,1,1,0,0,0,0,0,0,0,1],"bins":[-0.003579756012186408,-0.003449557349085808,-0.003319358453154564,-0.0031891597900539637,-0.0030589611269533634,-0.0029287622310221195,-0.0027985635679215193,-0.0026683646719902754,-0.002538166008889675,-0.002407967345789075,-0.002277768449857831,-0.0021475697867572308,-0.002017370890825987,-0.0018871722277253866,-0.0017569735646247864,-0.0016267747851088643,-0.0014965760055929422,-0.0013663772260770202,-0.001236178446561098,-0.0011059797834604979,-0.0009757810039445758,-0.0008455822244286537,-0.0007153835031203926,-0.0005851847818121314,-0.00045498600229620934,-0.0003247872518841177,-0.0001945885014720261,-6.43897510599345e-05,6.580899935215712e-05,0.00019600774976424873,0.00032620650017634034,0.00045640525058843195,0.0005866037681698799,0.000716802547685802,0.0008470012689940631,0.0009771999903023243,0.0011073987698182464,0.0012375975493341684,0.0013677962124347687,0.0014979949919506907,0.0016281937714666128,0.0017583925509825349,0.001888591330498457,0.002018789993599057,0.0021489886566996574,0.0022791875526309013,0.0024093862157315016,0.0025395851116627455,0.0026697837747633457,0.002799982437863946,0.00293018133379519,0.00306037999689579,0.003190578892827034,0.0033207775559276342,0.0034509762190282345,0.0035811751149594784,0.0037113737780600786,0.003841572441160679,0.003971771337091923,0.004101970233023167,0.004232168663293123,0.004362367559224367,0.004492566455155611,0.004622764885425568,0.0047529637813568115],"_type":"histogram"},"gradients/act.action_outs.3.linear.bias":{"_type":"histogram","values":[1,0,0,0,0,0,0,0,0,0,0,0,0,0,0,0,0,0,0,1,0,0,0,0,0,0,0,0,0,0,0,0,0,0,0,0,0,0,0,0,0,0,0,0,0,0,0,0,0,0,0,0,0,0,0,0,0,0,0,0,0,0,0,1],"bins":[-0.001671415288001299,-0.0016112546436488628,-0.001551093882881105,-0.0014909332385286689,-0.001430772477760911,-0.001370611833408475,-0.0013104511890560389,-0.001250290428288281,-0.001190129783935845,-0.001129969023168087,-0.001069808378815651,-0.0010096477344632149,-0.000949486973695457,-0.00088932627113536,-0.0008291656267829239,-0.000769004924222827,-0.00070884422166273,-0.000648683519102633,-0.000588522816542536,-0.0005283621721901,-0.000468201469630003,-0.000408040767069906,-0.000347880064509809,-0.0002877193910535425,-0.00022755868849344552,-0.00016739800048526376,-0.0001072373052011244,-4.707661355496384e-05,1.3084078091196716e-05,7.324476609937847e-05,0.00013340546865947545,0.0001935661566676572,0.00025372684467583895,0.0003138875472359359,0.00037404822069220245,0.00043420892325229943,0.000494369596708566,0.0005545302992686629,0.0006146910018287599,0.0006748517043888569,0.000735012348741293,0.0007951730513013899,0.0008553337538614869,0.0009154944564215839,0.0009756551589816809,0.001035815803334117,0.0010959765641018748,0.001156137208454311,0.0012162979692220688,0.0012764586135745049,0.001336619257926941,0.0013967800186946988,0.0014569406630471349,0.0015171014238148928,0.0015772620681673288,0.001637422712519765,0.0016975834732875228,0.0017577441176399589,0.0018179048784077168,0.0018780655227601528,0.0019382261671125889,0.001998386811465025,0.0020585476886481047,0.0021187083330005407,0.002178868977352977]},"gradients/base.mlp.fc2.0.2.weight":{"values":[1,0,0,0,0,0,0,0,0,0,0,0,0,1,0,0,1,0,0,0,1,0,1,1,1,3,4,2,0,2,3,4,4,2,2,1,2,3,3,1,2,3,2,4,2,0,1,0,0,1,3,0,0,0,0,1,0,1,0,0,0,0,0,1],"bins":[-0.005223186686635017,-0.005078521557152271,-0.004933856427669525,-0.004789191298186779,-0.004644526168704033,-0.004499861039221287,-0.004355195909738541,-0.0042105307802557945,-0.004065865650773048,-0.003921200055629015,-0.0037765351589769125,-0.0036318700294941664,-0.0034872046671807766,-0.0033425395376980305,-0.0031978744082152843,-0.0030532092787325382,-0.002908544149249792,-0.002763879019767046,-0.0026192138902843,-0.0024745487608015537,-0.0023298836313188076,-0.002185218269005418,-0.0020405531395226717,-0.0018958880100399256,-0.0017512228805571795,-0.0016065577510744333,-0.0014618926215916872,-0.0013172273756936193,-0.0011725622462108731,-0.001027897116728127,-0.00088323192903772,-0.0007385667413473129,-0.0005939020775258541,-0.00044923691893927753,-0.00030457176035270095,-0.00015990660176612437,-1.5241443179547787e-05,0.0001294237154070288,0.0002740888739936054,0.00041875403258018196,0.0005634191911667585,0.0007080843206495047,0.0008527495083399117,0.0009974146960303187,0.0011420798255130649,0.001286744954995811,0.001431410200893879,0.001576075330376625,0.0017207404598593712,0.0018654055893421173,0.0020100707188248634,0.0021547358483076096,0.0022994009777903557,0.0024440663401037455,0.0025887314695864916,0.0027333965990692377,0.002878061728551984,0.00302272685803473,0.003167391987517476,0.003312057117000222,0.003456722479313612,0.003601387608796358,0.0037460527382791042,0.0038907178677618504,0.0040353829972445965],"_type":"histogram"},"gradients/base.feature_norm.bias":{"bins":[-0.026138626039028168,-0.02543156035244465,-0.02472449280321598,-0.02401742711663246,-0.023310359567403793,-0.022603293880820274,-0.021896226331591606,-0.021189160645008087,-0.02048209309577942,-0.0197750274091959,-0.01906796172261238,-0.018360894173383713,-0.017653828486800194,-0.016946760937571526,-0.016239695250988007,-0.015532628633081913,-0.01482556201517582,-0.014118495397269726,-0.013411428779363632,-0.012704362161457539,-0.011997295543551445,-0.011290229856967926,-0.010583163239061832,-0.009876096621155739,-0.009169030003249645,-0.008461963385343552,-0.007754896767437458,-0.007047830615192652,-0.006340763997286558,-0.0056336973793804646,-0.004926631227135658,-0.004219564609229565,-0.003512497991323471,-0.0028054313734173775,-0.0020983649883419275,-0.0013912984868511558,-0.000684231985360384,2.2834516130387783e-05,0.0007299010176211596,0.0014369675191119313,0.002144034020602703,0.0028511006385087967,0.0035581670235842466,0.004265233408659697,0.00497230002656579,0.005679366644471884,0.00638643279671669,0.007093499414622784,0.007800566032528877,0.00850763265043497,0.009214699268341064,0.009921765886247158,0.010628832504153252,0.01133589819073677,0.012042964808642864,0.012750031426548958,0.013457098044455051,0.014164164662361145,0.014871231280267239,0.015578297898173332,0.01628536358475685,0.01699243113398552,0.01769949682056904,0.018406564369797707,0.019113630056381226],"_type":"histogram","values":[1,0,0,0,0,0,0,0,0,0,0,1,0,2,1,0,1,2,2,0,0,1,2,1,6,1,3,3,3,5,0,2,6,3,3,5,3,5,8,3,4,2,2,4,3,3,2,2,1,3,4,1,1,0,2,0,0,1,0,1,1,1,0,1]},"gradients/graph_1base.mlp.fc2.0.0.weight":{"_type":"histogram","values":[1,2,0,1,1,0,0,2,1,0,0,0,0,1,2,1,1,3,1,2,6,4,6,12,13,16,33,47,105,123,289,255,426,1805,261,280,125,77,24,38,49,21,8,12,6,5,9,1,0,5,2,2,3,1,1,1,2,1,0,0,1,0,0,2],"bins":[-0.008170782588422298,-0.007924092002213001,-0.007677400950342417,-0.00743071036413312,-0.007184019312262535,-0.006937328726053238,-0.006690637674182653,-0.006443947087973356,-0.006197256036102772,-0.005950565449893475,-0.005703874863684177,-0.005457183811813593,-0.005210493225604296,-0.004963802173733711,-0.004717111587524414,-0.00447042053565383,-0.004223729949444532,-0.003977039363235235,-0.0037303483113646507,-0.00348365749232471,-0.003236966673284769,-0.002990276087075472,-0.002743585268035531,-0.00249689444899559,-0.0022502036299556494,-0.0020035128109157085,-0.0017568219918757677,-0.0015101312892511487,-0.0012634404702112079,-0.001016749651171267,-0.0007700588903389871,-0.0005233681295067072,-0.00027667731046676636,-2.998652053065598e-05,0.0002167042694054544,0.0004633950593415648,0.0007100858492776752,0.000956776668317616,0.001203467370942235,0.0014501581899821758,0.0016968490090221167,0.0019435398280620575,0.0021902306471019983,0.002436921466141939,0.0026836120523512363,0.002930302871391177,0.003176993690431118,0.003423684509471059,0.0036703753285109997,0.003917065914720297,0.004163756966590881,0.0044104475528001785,0.004657138604670763,0.00490382919088006,0.005150520242750645,0.005397210828959942,0.005643901415169239,0.0058905924670398235,0.006137283053249121,0.006383974105119705,0.006630664691329002,0.006877355743199587,0.007124046329408884,0.0073707373812794685,0.007617427967488766]},"delay_ratio_mean":0.15096137143463542,"reward_mean":-0.213676370448129,"drop_ratio_mean":0.0006950023996022445,"ratio":0.9999691247940063,"gradients/act.action_outs.1.linear.weight":{"_type":"histogram","values":[1,1,1,1,1,1,3,2,1,1,5,2,2,3,9,7,7,3,6,7,7,2,6,9,12,12,10,7,11,7,10,10,14,9,9,6,6,7,8,6,2,5,6,2,2,2,0,1,0,0,0,0,2,1,0,0,0,0,0,0,0,0,0,1],"bins":[-0.006765205413103104,-0.006517360452562571,-0.0062695154920220375,-0.006021670065820217,-0.005773825105279684,-0.005525980144739151,-0.005278134718537331,-0.0050302897579967976,-0.0047824447974562645,-0.004534599836915731,-0.004286754876375198,-0.004038909450173378,-0.003791064489632845,-0.003543219529092312,-0.003295374335721135,-0.0030475291423499584,-0.0027996841818094254,-0.0025518392212688923,-0.0023039940278977156,-0.002056148834526539,-0.0018083038739860058,-0.0015604587970301509,-0.001312613720074296,-0.001064768643118441,-0.0008169235661625862,-0.0005690784892067313,-0.0003212334122508764,-7.338833529502153e-05,0.00017445674166083336,0.00042230181861668825,0.0006701468955725431,0.000917991972528398,0.0011658361181616783,0.0014136811951175332,0.001661526272073388,0.001909371349029243,0.002157216425985098,0.002405061386525631,0.0026529065798968077,0.0029007517732679844,0.0031485967338085175,0.0033964416943490505,0.0036442868877202272,0.003892132081091404,0.004139977041631937,0.00438782200217247,0.0046356674283742905,0.0048835123889148235,0.005131357349455357,0.00537920230999589,0.005627047270536423,0.005874892696738243,0.006122737657278776,0.006370582617819309,0.00661842804402113,0.006866273004561663,0.007114117965102196,0.007361962925642729,0.007609807886183262,0.007857653312385082,0.008105497807264328,0.008353343233466148,0.008601188659667969,0.008849033154547215,0.009096878580749035]},"gradients/act.action_outs.1.linear.bias":{"_type":"histogram","values":[1,0,0,0,0,0,0,0,0,0,0,0,0,0,0,0,0,0,0,0,0,0,0,0,0,0,0,0,0,1,0,0,0,1,0,0,0,0,0,0,0,0,0,0,0,0,0,0,0,0,0,0,0,0,0,0,0,0,0,0,0,0,0,1],"bins":[-0.002223337534815073,-0.002153433160856366,-0.0020835287868976593,-0.002013624180108309,-0.001943719806149602,-0.001873815432190895,-0.0018039109418168664,-0.0017340064514428377,-0.0016641020774841309,-0.001594197703525424,-0.0015242932131513953,-0.0014543887227773666,-0.0013844843488186598,-0.001314579974859953,-0.0012446754844859242,-0.0011747709941118956,-0.0011048666201531887,-0.0010349622461944818,-0.0009650577558204532,-0.0008951533236540854,-0.0008252488914877176,-0.0007553444593213499,-0.0006854400271549821,-0.0006155355949886143,-0.0005456311628222466,-0.0004757267306558788,-0.000405822298489511,-0.00033591786632314324,-0.0002660134341567755,-0.0001961090019904077,-0.00012620456982403994,-5.630013765767217e-05,1.3604294508695602e-05,8.350872667506337e-05,0.00015341315884143114,0.0002233175910077989,0.0002932220231741667,0.00036312645534053445,0.0004330308875069022,0.00050293531967327,0.0005728397518396378,0.0006427441840060055,0.0007126486161723733,0.0007825530483387411,0.0008524574805051088,0.0009223619126714766,0.0009922663448378444,0.001062170835211873,0.00113207520917058,0.0012019795831292868,0.0012718840735033154,0.0013417885638773441,0.001411692937836051,0.0014815973117947578,0.0015515018021687865,0.0016214062925428152,0.001691310666501522,0.001761215040460229,0.0018311195308342576,0.0019010240212082863,0.001970928395166993,0.0020408327691257,0.0021107373759150505,0.0021806417498737574,0.0022505461238324642]},"_timestamp":1.744847254807125e+09,"pc_kw_mean":0.5062871765106374,"_wandb":{"runtime":10688},"gradients/act.action_outs.3.linear.weight":{"bins":[-0.00865427777171135,-0.008413002826273441,-0.008171726949512959,-0.00793045200407505,-0.0076891761273145676,-0.007447901181876659,-0.007206625770777464,-0.006965350359678268,-0.006724074948579073,-0.0064827995374798775,-0.006241524126380682,-0.0060002487152814865,-0.005758973769843578,-0.005517698358744383,-0.005276422947645187,-0.005035147536545992,-0.004793872125446796,-0.004552596714347601,-0.0043113213032484055,-0.00407004589214921,-0.003828770713880658,-0.0035874953027814627,-0.003346220124512911,-0.0031049447134137154,-0.00286366930231452,-0.0026223938912153244,-0.002381118480116129,-0.002139843301847577,-0.0018985678907483816,-0.0016572924796491861,-0.0014160171849653125,-0.0011747418902814388,-0.0009334669448435307,-0.0006921915919519961,-0.0004509162390604615,-0.00020964088616892695,3.163446672260761e-05,0.0002729098196141422,0.0005141851725056767,0.0007554605253972113,0.0009967358782887459,0.0012380112893879414,0.001479286584071815,0.0017205618787556887,0.001961837289854884,0.0022031127009540796,0.0024443878792226315,0.002685663290321827,0.0029269387014210224,0.003168214112520218,0.0034094895236194134,0.003650764701887965,0.0038920401129871607,0.0041333152912557125,0.004374590702354908,0.0046158661134541035,0.004857141524553299,0.005098416935652494,0.00533969234675169,0.005580967757850885,0.005822243168950081,0.006063518114387989,0.0063047935254871845,0.00654606893658638,0.0067873443476855755],"_type":"histogram","values":[1,0,0,0,0,0,0,0,0,1,1,0,0,1,0,3,1,1,1,1,1,5,2,4,2,6,6,6,6,10,1,6,6,6,8,9,10,7,7,8,8,5,9,2,3,7,4,3,3,2,2,7,0,4,1,1,0,1,1,0,0,1,0,1]},"policy_loss":-0.003100972132898505,"sm3_ratio_mean":0.5907917460317668,"value_loss":0.0348502347653266,"gradients/graph_1base.mlp.fc1.2.weight":{"_type":"histogram","values":[1,0,0,1,0,0,1,2,1,1,0,2,1,1,2,5,4,4,6,3,7,5,0,1,3,2,1,1,2,1,0,1,1,0,0,0,0,0,0,0,0,0,0,0,0,0,0,0,0,0,1,0,0,0,0,0,0,0,1,0,0,1,0,1],"bins":[-0.0026032309979200363,-0.0024777438957244158,-0.0023522565606981516,-0.002226769458502531,-0.002101282123476267,-0.0019757950212806463,-0.0018503079190850258,-0.0017248207004740834,-0.001599333481863141,-0.0014738462632521987,-0.0013483590446412563,-0.0012228719424456358,-0.0010973847238346934,-0.0009718975052237511,-0.0008464103448204696,-0.0007209231844171882,-0.0005954359658062458,-0.0004699487762991339,-0.000344461586792022,-0.00021897439728491008,-9.348720777779818e-05,3.199998172931373e-05,0.00015748717123642564,0.00028297436074353755,0.00040846155025064945,0.0005339487688615918,0.0006594359292648733,0.0007849230896681547,0.0009104103082790971,0.0010358975268900394,0.00116138462908566,0.0012868718476966023,0.0014123590663075447,0.001537846284918487,0.0016633335035294294,0.00178882060572505,0.0019143078243359923,0.0020397950429469347,0.0021652821451425552,0.0022907694801688194,0.00241625658236444,0.0025417436845600605,0.0026672310195863247,0.0027927181217819452,0.0029182052239775658,0.00304369255900383,0.0031691796611994505,0.0032946669962257147,0.0034201540984213352,0.0035456412006169558,0.00367112853564322,0.0037966156378388405,0.003922102972865105,0.0040475898422300816,0.004173077177256346,0.00429856451228261,0.004424051381647587,0.004549538716673851,0.004675026051700115,0.004800513386726379,0.004926000256091356,0.0050514875911176205,0.005176974926143885,0.0053024617955088615,0.005427949130535126]},"gradients/graph_1base.feature_norm.bias":{"_type":"histogram","values":[1,0,0,0,0,0,0,0,0,0,0,0,0,0,0,0,0,0,0,0,0,0,0,0,2,1,0,0,1,0,0,4,0,1,0,0,0,0,0,0,0,0,1,0,0,0,0,0,0,0,0,0,0,0,0,0,0,0,0,0,0,0,0,1],"bins":[-0.029345400631427765,-0.028409283608198166,-0.027473166584968567,-0.026537049561738968,-0.02560093253850937,-0.02466481737792492,-0.02372870035469532,-0.02279258333146572,-0.021856466308236122,-0.020920349285006523,-0.019984232261776924,-0.019048115238547325,-0.018112000077962875,-0.017175883054733276,-0.016239766031503677,-0.015303649008274078,-0.01436753198504448,-0.01343141496181488,-0.012495297938585281,-0.011559181846678257,-0.010623064823448658,-0.009686947800219059,-0.008750831708312035,-0.007814714685082436,-0.006878597661852837,-0.005942480638623238,-0.005006364081054926,-0.004070247523486614,-0.0031341305002570152,-0.00219801370985806,-0.0012618969194591045,-0.0003257801290601492,0.0006103347986936569,0.0015464515890926123,0.0024825683794915676,0.003418685169890523,0.004354801960289478,0.005290918983519077,0.006227035541087389,0.007163152098655701,0.0080992691218853,0.009035386145114899,0.009971503168344498,0.010907619260251522,0.011843736283481121,0.01277985330671072,0.013715969398617744,0.014652086421847343,0.015588203445076942,0.01652432046830654,0.01746043749153614,0.01839655451476574,0.01933266967535019,0.020268786698579788,0.021204903721809387,0.022141020745038986,0.023077137768268585,0.024013254791498184,0.024949371814727783,0.025885488837957382,0.02682160586118698,0.02775772102177143,0.02869383804500103,0.02962995506823063,0.030566072091460228]},"gradients/graph_1base.mlp.fc2.0.0.bias":{"_type":"histogram","values":[2,0,0,0,0,0,0,0,0,0,0,0,1,0,0,0,1,1,0,1,1,2,2,0,0,0,1,1,3,5,0,1,21,2,1,0,0,3,0,0,2,0,1,2,2,0,2,0,0,0,2,0,0,0,0,1,2,0,0,0,0,0,0,1],"bins":[-0.002682541497051716,-0.002599988831207156,-0.002517435932531953,-0.002434883266687393,-0.00235233036801219,-0.00226977770216763,-0.002187224803492427,-0.002104672137647867,-0.002022119238972664,-0.0019395665731281042,-0.0018570137908682227,-0.0017744610086083412,-0.0016919083427637815,-0.0016093555605039,-0.0015268027782440186,-0.001444249995984137,-0.0013616972137242556,-0.001279144431464374,-0.0011965916492044926,-0.001114038866944611,-0.0010314860846847296,-0.000948933360632509,-0.0008663806365802884,-0.0007838278543204069,-0.0007012750720605254,-0.0006187222898006439,-0.0005361695075407624,-0.00045361678348854184,-0.00037106400122866035,-0.00028851121896877885,-0.0002059584658127278,-0.00012340569810476154,-4.085316322743893e-05,4.169960448052734e-05,0.0001242523721884936,0.00020680513989645988,0.00028935790760442615,0.00037191068986430764,0.0004544634430203587,0.0005370161961764097,0.0006195689784362912,0.0007021217606961727,0.0007846745429560542,0.0008672272670082748,0.0009497800492681563,0.0010323327733203769,0.0011148855555802584,0.0011974383378401399,0.0012799911201000214,0.0013625439023599029,0.0014450966846197844,0.0015276494668796659,0.0016102022491395473,0.001692754914984107,0.0017753076972439885,0.00185786047950387,0.0019404132617637515,0.002022966044023633,0.0021055187098681927,0.002188071608543396,0.0022706242743879557,0.002353177173063159,0.0024357298389077187,0.002518282737582922,0.0026008354034274817]},"cm0_ratio":0.21674444444443747,"actor_grad_norm":0.524980902671814,"qos_reward_mean":0.002631147853812644,"avg_se_mean":3.537453794542317,"gradients/graph_1base.mlp.fc1.0.weight":{"_type":"histogram","values":[1,0,0,0,0,0,0,0,0,0,0,0,1,2,0,0,2,0,1,0,1,5,3,1,2,5,10,39,108,479,49,19,19,7,1,6,2,1,1,0,1,0,1,0,0,0,0,0,0,0,0,0,0,0,0,0,0,0,0,0,0,0,0,1],"bins":[-0.04575170576572418,-0.044180501252412796,-0.04260930046439171,-0.04103809595108032,-0.039466891437768936,-0.03789569064974785,-0.03632448613643646,-0.034753281623125076,-0.03318208083510399,-0.0316108763217926,-0.030039673671126366,-0.02846847102046013,-0.026897266507148743,-0.025326063856482506,-0.02375486120581627,-0.022183656692504883,-0.020612454041838646,-0.01904125139117241,-0.017470046877861023,-0.015898844227194786,-0.01432764157652855,-0.012756437994539738,-0.011185234412550926,-0.00961403176188469,-0.008042828179895878,-0.006471625063568354,-0.0049004219472408295,-0.003329218365252018,-0.0017580152489244938,-0.00018681201618164778,0.0013843912165611982,0.002955594565719366,0.00452679768204689,0.0060980007983744144,0.007669203914701939,0.00924040749669075,0.010811610147356987,0.012382813729345798,0.01395401731133461,0.015525219962000847,0.017096422612667084,0.01866762712597847,0.020238829776644707,0.021810032427310944,0.02338123694062233,0.024952439591288567,0.026523642241954803,0.02809484675526619,0.029666049405932426,0.031237252056598663,0.03280845656991005,0.03437965735793114,0.03595086187124252,0.03752206638455391,0.039093267172575,0.04066447168588638,0.04223567619919777,0.04380687698721886,0.04537808150053024,0.04694928601384163,0.04852048680186272,0.0500916913151741,0.05166289582848549,0.05323409661650658,0.05480530112981796]},"dist_entropy":0.38198833633214235,"gradients/graph_1v_out.weight":{"values":[1,0,0,0,0,0,0,0,0,0,0,0,0,0,0,0,0,0,0,0,0,0,0,0,0,1,1,0,0,0,1,1,0,0,0,0,0,0,2,2,0,2,1,1,2,1,0,1,0,3,2,1,2,0,1,2,2,1,2,3,1,3,5,19],"bins":[-0.03291614353656769,-0.03230125829577446,-0.03168636932969093,-0.031071484088897705,-0.030456596985459328,-0.02984170988202095,-0.029226822778582573,-0.028611935675144196,-0.027997050434350967,-0.02738216333091259,-0.026767276227474213,-0.026152389124035835,-0.025537502020597458,-0.02492261491715908,-0.024307729676365852,-0.023692842572927475,-0.023077955469489098,-0.02246306836605072,-0.021848181262612343,-0.021233296021819115,-0.020618408918380737,-0.02000352181494236,-0.019388634711503983,-0.018773747608065605,-0.018158860504627228,-0.017543975263834,-0.016929088160395622,-0.016314201056957245,-0.015699313953518867,-0.015084427781403065,-0.014469540677964687,-0.013854654505848885,-0.013239769265055656,-0.012624882161617279,-0.012009995058178902,-0.011395108886063099,-0.010780221782624722,-0.010165334679186344,-0.009550448507070541,-0.008935561403632164,-0.008320674300193787,-0.007705788128077984,-0.0070909010246396065,-0.006476014386862516,-0.005861127749085426,-0.005246241111308336,-0.004631354473531246,-0.004016467370092869,-0.0034015807323157787,-0.0027866940945386887,-0.002171807223930955,-0.001556920469738543,-0.0009420337155461311,-0.00032714696135371923,0.00028773979283869267,0.0009026265470311046,0.0015175133012235165,0.0021323999390006065,0.0027472868096083403,0.003362173680216074,0.003977060317993164,0.004591946955770254,0.005206833593547344,0.005821720696985722,0.006436607334762812],"_type":"histogram"},"gradients/base.mlp.fc2.0.0.weight":{"_type":"histogram","values":[1,0,0,0,2,0,1,4,3,1,4,3,9,9,12,12,13,25,21,36,50,58,81,105,113,159,188,218,302,314,314,330,330,237,249,191,163,129,94,81,62,45,29,26,6,11,12,11,8,2,6,3,1,2,2,1,2,0,1,0,2,0,0,2],"bins":[-0.014359371736645699,-0.013894692994654179,-0.013430014252662659,-0.012965335510671139,-0.012500656768679619,-0.012035978026688099,-0.011571299284696579,-0.011106620542705059,-0.010641941800713539,-0.01017726305872202,-0.0097125843167305,-0.00924790557473898,-0.00878322683274746,-0.00831854809075594,-0.00785386934876442,-0.0073891906067729,-0.00692451186478138,-0.00645983312278986,-0.00599515438079834,-0.00553047563880682,-0.0050657968968153,-0.00460111815482378,-0.00413643941283226,-0.00367176067084074,-0.0032070819288492203,-0.0027424031868577003,-0.0022777244448661804,-0.0018130457028746605,-0.0013483669608831406,-0.0008836882188916206,-0.0004190094769001007,4.566926509141922e-05,0.0005103470757603645,0.0009750258177518845,0.0014397045597434044,0.0019043833017349243,0.0023690620437264442,0.002833740785717964,0.003298419527709484,0.003763098269701004,0.004227777011692524,0.004692455753684044,0.005157134495675564,0.005621813237667084,0.006086491979658604,0.006551170721650124,0.0070158494636416435,0.0074805282056331635,0.007945206947624683,0.008409885689616203,0.008874564431607723,0.009339243173599243,0.009803921915590763,0.010268600657582283,0.010733279399573803,0.011197958141565323,0.011662636883556843,0.012127315625548363,0.012591994367539883,0.013056673109531403,0.013521351851522923,0.013986030593514442,0.014450709335505962,0.014915388077497482,0.015380066819489002]},"n_drop_mean":0.0044444444444444444,"gradients/base.mlp.fc1.2.bias":{"values":[1,0,0,0,0,0,0,1,0,1,0,0,1,2,1,0,2,2,1,1,1,2,2,1,3,0,1,1,2,5,2,1,0,2,2,1,3,2,3,0,0,4,2,2,2,1,0,3,1,0,0,0,1,0,0,0,0,0,0,0,0,0,0,1],"bins":[-0.0148535817861557,-0.014373441226780415,-0.013893300667405128,-0.013413159176707268,-0.012933018617331982,-0.012452878057956696,-0.01197273749858141,-0.011492596007883549,-0.011012455448508263,-0.010532314889132977,-0.01005217432975769,-0.009572033770382404,-0.009091892279684544,-0.008611751720309258,-0.008131611160933971,-0.007651470135897398,-0.007171329576522112,-0.006691189017146826,-0.006211047992110252,-0.005730907432734966,-0.005250766407698393,-0.004770625848323107,-0.004290484823286533,-0.0038103442639112473,-0.0033302034717053175,-0.0028500626794993877,-0.002369921887293458,-0.00188978121150285,-0.0014096404192969203,-0.0009294996270909905,-0.0004493588930927217,3.07818700093776e-05,0.0005109226331114769,0.0009910634253174067,0.0014712042175233364,0.0019513448933139443,0.002431485801935196,0.002911626361310482,0.0033917671535164118,0.0038719079457223415,0.004352048970758915,0.004832189530134201,0.005312330089509487,0.0057924711145460606,0.006272611673921347,0.00675275269895792,0.007232893258333206,0.00771303428336978,0.008193174377083778,0.008673315867781639,0.009153456427156925,0.009633596986532211,0.010113737545907497,0.010593879036605358,0.011074019595980644,0.01155416015535593,0.012034300714731216,0.012514441274106503,0.012994582764804363,0.01347472332417965,0.013954863883554935,0.014435004442930222,0.014915145933628082,0.015395286493003368,0.015875427052378654],"_type":"histogram"},"gradients/act.action_outs.0.linear.bias":{"bins":[-0.004298051353543997,-0.004194438457489014,-0.0040908255614340305,-0.003987212665379047,-0.0038835997693240643,-0.0037799866404384375,-0.0036763737443834543,-0.003572760848328471,-0.003469147952273488,-0.003365535056218505,-0.0032619221601635218,-0.0031583092641085386,-0.003054696135222912,-0.0029510832391679287,-0.0028474703431129456,-0.0027438574470579624,-0.0026402445510029793,-0.002536631654947996,-0.002433018758893013,-0.00232940586283803,-0.0022257929667830467,-0.00212217983789742,-0.002018566941842437,-0.0019149540457874537,-0.0018113411497324705,-0.0017077282536774874,-0.0016041153576225042,-0.0015005023451521993,-0.0013968894490972161,-0.001293276553042233,-0.001189663540571928,-0.0010860506445169449,-0.0009824377484619617,-0.0008788248524069786,-0.0007752118981443346,-0.0006715989438816905,-0.0005679860478267074,-0.00046437312266789377,-0.00036076019750908017,-0.0002571472723502666,-0.00015353434719145298,-4.9921422032639384e-05,5.369150312617421e-05,0.0001573044282849878,0.0002609173534438014,0.000364530278602615,0.0004681432037614286,0.0005717561580240726,0.0006753690540790558,0.0007789819501340389,0.000882594904396683,0.000986207858659327,0.0010898207547143102,0.0011934336507692933,0.0012970466632395983,0.0014006595592945814,0.0015042724553495646,0.0016078853514045477,0.0017114982474595308,0.0018151112599298358,0.001918724155984819,0.002022337168455124,0.002125950064510107,0.00222956296056509,0.0023331758566200733],"_type":"histogram","values":[1,0,0,0,0,0,0,0,0,0,0,0,0,0,0,0,0,0,0,0,0,0,0,0,0,0,0,0,0,0,0,0,0,0,0,0,0,0,0,0,0,0,0,0,0,0,0,0,0,0,0,0,0,0,0,0,0,0,0,0,1,0,0,1]},"gradients/act.action_outs.2.linear.bias":{"_type":"histogram","values":[1,0,0,0,0,0,0,0,0,0,0,0,0,0,0,0,0,0,0,0,0,0,0,0,0,0,0,0,0,0,0,0,0,0,0,0,0,0,0,0,0,0,0,1,0,0,0,0,0,0,0,0,0,0,0,0,0,0,0,0,0,0,0,1],"bins":[-0.0020588808692991734,-0.0020016536582261324,-0.0019444265635684133,-0.0018871993524953723,-0.0018299722578376532,-0.0017727450467646122,-0.0017155178356915712,-0.001658290741033852,-0.0016010635299608111,-0.0015438363188877702,-0.001486609224230051,-0.00142938201315701,-0.0013721548020839691,-0.00131492770742625,-0.001257700496353209,-0.0012004734016954899,-0.001143246190622449,-0.001086018979549408,-0.0010287918848916888,-0.0009715646738186479,-0.0009143375209532678,-0.0008571103680878878,-0.0007998831570148468,-0.0007426560041494668,-0.0006854288512840867,-0.0006282016984187067,-0.0005709745455533266,-0.0005137473344802856,-0.0004565201816149056,-0.00039929302874952555,-0.00034206584678031504,-0.00028483866481110454,-0.00022761139553040266,-0.00017038422811310738,-0.0001131570606958121,-5.592989327851683e-05,1.297274138778448e-06,5.8524441556073725e-05,0.000115751608973369,0.00017297877639066428,0.00023020594380795956,0.0002874330966733396,0.0003446602786425501,0.0004018874606117606,0.00045911461347714067,0.0005163417663425207,0.0005735689774155617,0.0006307961302809417,0.0006880232831463218,0.0007452504360117018,0.0008024775888770819,0.0008597047999501228,0.0009169319528155029,0.0009741591056808829,0.001031386316753924,0.001088613411411643,0.001145840622484684,0.001203067833557725,0.001260294928215444,0.001317522139288485,0.0013747492339462042,0.0014319764450192451,0.0014892036560922861,0.0015464307507500052,0.0016036579618230462]},"gradients/base.mlp.fc2.0.0.bias":{"values":[2,0,0,0,0,0,0,1,0,0,1,1,0,1,1,0,1,0,0,1,0,5,0,2,3,1,2,3,2,3,3,1,0,2,2,3,2,2,4,2,3,1,1,1,0,0,0,2,0,0,1,0,0,0,0,0,0,0,0,0,0,0,1,3],"bins":[-0.007530541624873877,-0.0072969067841768265,-0.007063271943479776,-0.006829637102782726,-0.006596002262085676,-0.006362367421388626,-0.006128732580691576,-0.005895097739994526,-0.005661462899297476,-0.005427828058600426,-0.005194193217903376,-0.0049605583772063255,-0.0047269235365092754,-0.004493288695812225,-0.004259653855115175,-0.004026019014418125,-0.003792384173721075,-0.003558749333024025,-0.003325114492326975,-0.0030914796516299248,-0.0028578448109328747,-0.0026242099702358246,-0.0023905751295387745,-0.0021569402888417244,-0.0019233054481446743,-0.0016896706074476242,-0.0014560357667505741,-0.001222400926053524,-0.000988766085356474,-0.0007551312446594238,-0.0005214964039623737,-0.00028786156326532364,-5.4226722568273544e-05,0.00017940811812877655,0.00041304295882582664,0.0006466777995228767,0.0008803126402199268,0.001113947480916977,0.001347582321614027,0.0015812171623110771,0.0018148520030081272,0.0020484868437051773,0.0022821216844022274,0.0025157565250992775,0.0027493913657963276,0.0029830262064933777,0.0032166610471904278,0.003450295887887478,0.003683930728584528,0.003917565569281578,0.004151200409978628,0.004384835250675678,0.004618470091372728,0.0048521049320697784,0.0050857397727668285,0.005319374613463879,0.005553009454160929,0.005786644294857979,0.006020279135555029,0.006253913976252079,0.006487548816949129,0.006721183657646179,0.006954818498343229,0.007188453339040279,0.0074220881797373295],"_type":"histogram"},"_runtime":10688.279528361,"gradients/graph_1base.mlp.fc2.0.2.weight":{"_type":"histogram","values":[1,0,0,0,0,0,0,0,0,0,0,0,0,0,0,0,0,0,0,0,1,1,0,1,1,2,0,0,1,1,2,0,0,1,2,2,4,6,3,2,2,2,1,1,1,0,1,0,3,4,3,5,1,1,2,0,0,0,0,1,1,1,1,2],"bins":[-0.0028296499513089657,-0.002762277377769351,-0.0026949045713990927,-0.002627531997859478,-0.0025601594243198633,-0.002492786617949605,-0.0024254140444099903,-0.0023580414708703756,-0.0022906686645001173,-0.0022232960909605026,-0.002155923517420888,-0.0020885507110506296,-0.002021178137511015,-0.0019538055639714003,-0.001886432757601142,-0.0018190601840615273,-0.0017516874941065907,-0.0016843148041516542,-0.0016169422306120396,-0.001549569540657103,-0.0014821968507021666,-0.0014148242771625519,-0.0013474515872076154,-0.0012800788972526789,-0.0012127063237130642,-0.0011453336337581277,-0.0010779609438031912,-0.0010105882538482547,-0.00094321568030864,-0.0008758429903537035,-0.0008084703586064279,-0.0007410976686514914,-0.000673724920488894,-0.0006063522887416184,-0.0005389795987866819,-0.0004716069670394063,-0.00040423430618830025,-0.0003368616453371942,-0.0002694890135899186,-0.00020211635273881257,-0.00013474369188770652,-6.737103831255808e-05,1.6152625903487206e-09,6.737426883773878e-05,0.00013474692241288722,0.00020211958326399326,0.00026949221501126885,0.0003368648758623749,0.00040423753671348095,0.000471610197564587,0.000538982858415693,0.0006063554901629686,0.0006737281801179051,0.0007411008118651807,0.0008084734436124563,0.0008758461335673928,0.0009432187653146684,0.001010591397061944,0.0010779640870168805,0.001145336776971817,0.0012127093505114317,0.0012800820404663682,0.0013474547304213047,0.0014148273039609194,0.0014821999939158559]},"cluster_size_mean":8.78670634920635,"gradients/act.action_outs.2.linear.weight":{"_type":"histogram","values":[1,0,0,0,0,0,0,0,0,0,2,0,1,0,0,0,3,2,5,3,4,6,5,9,9,15,10,7,13,12,10,10,6,7,12,6,4,7,3,5,2,3,3,1,2,1,0,1,0,0,0,1,0,0,0,0,0,0,0,0,0,0,0,1],"bins":[-0.0099794901907444,-0.009640953503549099,-0.009302417747676373,-0.008963881060481071,-0.008625345304608345,-0.008286808617413044,-0.007948271930217743,-0.0076097361743450165,-0.007271199487149715,-0.006932663265615702,-0.006594127044081688,-0.006255590822547674,-0.00591705460101366,-0.005578518379479647,-0.005239981692284346,-0.004901445470750332,-0.004562909249216318,-0.004224373027682304,-0.003885836573317647,-0.0035473003517836332,-0.003208763897418976,-0.002870227675884962,-0.0025316914543509483,-0.002193154999986291,-0.0018546187784522772,-0.0015160824405029416,-0.001177546102553606,-0.0008390098810195923,-0.0005004735430702567,-0.0001619372342247516,0.00017659907462075353,0.0005151353543624282,0.0008536716923117638,0.0011922080302610993,0.001530744368210435,0.0018692805897444487,0.002207817044109106,0.00254635326564312,0.0028848894871771336,0.003223425941541791,0.0035619621630758047,0.0039004983846098185,0.004239034838974476,0.00457757106050849,0.004916107282042503,0.005254643503576517,0.005593180190771818,0.005931716412305832,0.006270252633839846,0.006608788855373859,0.006947325076907873,0.007285861764103174,0.007624397985637188,0.007962933741509914,0.008301470428705215,0.008640007115900517,0.008978542871773243,0.009317079558968544,0.00965561531484127,0.009994152002036572,0.010332688689231873,0.010671224445104599,0.0110097611322999,0.011348296888172626,0.011686833575367928]},"gradients/base.mlp.fc1.0.bias":{"bins":[-0.014546852558851242,-0.013909871689975262,-0.013272890821099281,-0.012635909952223301,-0.01199892908334732,-0.01136194821447134,-0.01072496734559536,-0.01008798647671938,-0.009451005607843399,-0.008814024738967419,-0.008177043870091438,-0.007540063001215458,-0.0069030821323394775,-0.006266101263463497,-0.005629120394587517,-0.004992139525711536,-0.004355158656835556,-0.0037181777879595757,-0.0030811969190835953,-0.002444216050207615,-0.0018072351813316345,-0.0011702543124556541,-0.0005332734435796738,0.00010370742529630661,0.000740688294172287,0.0013776691630482674,0.0020146500319242477,0.002651630900800228,0.0032886117696762085,0.003925592638552189,0.004562573507428169,0.00519955437630415,0.00583653524518013,0.00647351611405611,0.007110496982932091,0.007747477851808071,0.008384458720684052,0.009021439589560032,0.009658420458436012,0.010295401327311993,0.010932382196187973,0.011569363065063953,0.012206343933939934,0.012843324802815914,0.013480305671691895,0.014117286540567875,0.014754267409443855,0.015391248278319836,0.016028229147195816,0.016665209084749222,0.017302190884947777,0.017939172685146332,0.018576152622699738,0.019213132560253143,0.0198501143604517,0.020487096160650253,0.02112407609820366,0.021761056035757065,0.02239803783595562,0.023035019636154175,0.02367199957370758,0.024308979511260986,0.02494596131145954,0.025582943111658096,0.026219923049211502],"_type":"histogram","values":[1,1,0,0,1,0,0,1,0,1,1,1,2,0,1,1,1,5,2,3,5,2,4,1,5,5,2,3,5,0,1,0,1,2,1,0,2,1,0,0,0,0,0,0,0,0,1,0,0,0,0,0,0,0,0,0,0,0,0,0,0,0,0,1]},"critic_grad_norm":0.12817268073558807,"cm1_ratio":0.4466142857142968,"gradients/graph_1base.mlp.fc1.2.bias":{"bins":[-0.0041584172286093235,-0.004010042641311884,-0.0038616678211838007,-0.0037132930010557175,-0.003564918413758278,-0.0034165438264608383,-0.003268169006332755,-0.003119794186204672,-0.0029714195989072323,-0.0028230450116097927,-0.0026746701914817095,-0.0025262953713536263,-0.0023779207840561867,-0.002229546196758747,-0.002081171376630664,-0.0019327966729179025,-0.001784421969205141,-0.0016360472654923797,-0.0014876725617796183,-0.0013392978580668569,-0.0011909231543540955,-0.001042548450641334,-0.0008941737469285727,-0.0007457990432158113,-0.0005974243395030499,-0.00044904963579028845,-0.00030067493207752705,-0.00015230022836476564,-3.925524652004242e-06,0.00014444917906075716,0.00029282388277351856,0.00044119858648627996,0.0005895728245377541,0.0007379475282505155,0.0008863222319632769,0.0010346969356760383,0.0011830716393887997,0.001331446343101561,0.0014798210468143225,0.0016281957505270839,0.0017765704542398453,0.0019249451579526067,0.002073319861665368,0.0022216946817934513,0.002370069269090891,0.0025184438563883305,0.0026668186765164137,0.002815193496644497,0.0029635680839419365,0.003111942671239376,0.0032603174913674593,0.0034086923114955425,0.003557066898792982,0.0037054414860904217,0.003853816306218505,0.004002191126346588,0.004150565713644028,0.004298940300941467,0.004447314888238907,0.004595689941197634,0.004744064528495073,0.004892439115792513,0.00504081416875124,0.005189188756048679,0.005337563343346119],"_type":"histogram","values":[1,0,0,0,0,0,0,0,0,0,1,0,2,1,2,1,0,1,1,2,1,1,4,4,1,1,0,1,4,3,3,6,1,5,3,3,0,2,1,1,1,1,0,1,1,1,1,0,0,0,0,0,0,0,0,0,0,0,0,0,0,0,0,1]},"gradients/graph_1base.mlp.fc1.0.bias":{"_type":"histogram","values":[1,0,0,0,0,0,0,0,0,0,0,1,0,2,0,0,2,0,1,0,0,0,2,1,2,2,0,0,15,21,4,1,1,0,1,2,0,1,1,1,0,0,1,0,0,0,0,0,0,0,0,0,0,0,0,0,0,0,0,0,0,0,0,1],"bins":[-0.022107066586613655,-0.021344920620322227,-0.0205827746540308,-0.019820628687739372,-0.019058484584093094,-0.018296338617801666,-0.01753419265151024,-0.01677204668521881,-0.016009900718927383,-0.015247754752635956,-0.014485608786344528,-0.013723463751375675,-0.012961317785084248,-0.01219917181879282,-0.011437026783823967,-0.01067488081753254,-0.009912734851241112,-0.009150588884949684,-0.008388442918658257,-0.0076262978836894035,-0.006864151917397976,-0.006102005951106548,-0.005339860450476408,-0.004577714949846268,-0.00381556898355484,-0.003053423250094056,-0.002291277516633272,-0.0015291317831724882,-0.0007669860497117043,-4.840316250920296e-06,0.0007573054172098637,0.0015194511506706476,0.0022815950214862823,0.0030437407549470663,0.0038058864884078503,0.004568031989037991,0.005330177955329418,0.006092323921620846,0.006854469422250986,0.007616614922881126,0.008378760889172554,0.009140906855463982,0.00990305282175541,0.010665197856724262,0.01142734382301569,0.012189489789307117,0.01295163482427597,0.013713780790567398,0.014475926756858826,0.015238072723150253,0.01600021868944168,0.01676236465573311,0.017524510622024536,0.018286654725670815,0.019048800691962242,0.01981094665825367,0.020573092624545097,0.021335238590836525,0.022097384557127953,0.02285953052341938,0.02362167462706566,0.024383820593357086,0.025145966559648514,0.02590811252593994,0.02667025849223137]},"gradients/base.mlp.fc1.2.weight":{"values":[1,0,0,0,0,0,0,0,0,0,0,0,0,0,0,0,0,0,0,0,0,1,0,0,0,0,0,2,1,2,1,1,1,1,1,2,3,5,2,3,1,2,0,4,0,5,1,3,3,3,1,3,3,1,0,0,1,1,1,1,0,1,1,1],"bins":[-0.0209194328635931,-0.020431943237781525,-0.019944453611969948,-0.01945696398615837,-0.018969476222991943,-0.018481986597180367,-0.01799449697136879,-0.017507007345557213,-0.017019517719745636,-0.01653202809393406,-0.01604454033076763,-0.01555704977363348,-0.015069561079144478,-0.014582071453332901,-0.014094581827521324,-0.013607093133032322,-0.013119603507220745,-0.012632113881409168,-0.012144625186920166,-0.01165713556110859,-0.011169645935297012,-0.01068215724080801,-0.010194667614996433,-0.009707177989184856,-0.009219689294695854,-0.008732199668884277,-0.0082447100430727,-0.007757220882922411,-0.007269731722772121,-0.006782242096960545,-0.006294752936810255,-0.005807263310998678,-0.005319773219525814,-0.0048322840593755245,-0.004344794433563948,-0.003857305273413658,-0.003369815880432725,-0.0028823264874517918,-0.0023948373273015022,-0.001907347934320569,-0.0014198585413396358,-0.0009323692065663636,-0.0004448798717930913,4.260946298018098e-05,0.0005300987977534533,0.0010175881907343864,0.0015050774672999978,0.001992566743865609,0.0024800561368465424,0.0029675455298274755,0.0034550349228084087,0.003942524082958698,0.004430013708770275,0.004917502868920565,0.005404992029070854,0.005892481654882431,0.0063799708150327206,0.00686745997518301,0.007354949600994587,0.007842439226806164,0.008329927921295166,0.008817417547106743,0.00930490717291832,0.009792395867407322,0.010279885493218899],"_type":"histogram"},"gradients/graph_1base.mlp.fc2.0.2.bias":{"bins":[-0.0027456830721348524,-0.0026659430004656315,-0.002586202695965767,-0.002506462624296546,-0.002426722552627325,-0.0023469822481274605,-0.0022672421764582396,-0.0021875021047890186,-0.002107761800289154,-0.002028021728619933,-0.0019482816569507122,-0.0018685414688661695,-0.0017888012807816267,-0.0017090612091124058,-0.001629321021027863,-0.001549580949358642,-0.0014698407612740993,-0.0013901005731895566,-0.0013103605015203357,-0.001230620313435793,-0.001150880241766572,-0.0010711400536820292,-0.0009913998655974865,-0.0009116597357206047,-0.0008319196058437228,-0.000752179475966841,-0.0006724393460899591,-0.0005926991580054164,-0.0005129590281285346,-0.0004332188982516527,-0.0003534787392709404,-0.00027373858029022813,-0.00019399868324398994,-0.00011425853881519288,-3.451839438639581e-05,4.5221750042401254e-05,0.00012496189447119832,0.0002047020388999954,0.00028444218332879245,0.00036418234230950475,0.0004439224721863866,0.0005236626020632684,0.0006034027319401503,0.000683142920024693,0.0007628830499015749,0.0008426231797784567,0.0009223633678629994,0.0010021034395322204,0.0010818436276167631,0.0011615838157013059,0.0012413238873705268,0.0013210640754550695,0.0014008041471242905,0.0014805443352088332,0.001560284523293376,0.001640024594962597,0.0017197647830471396,0.0017995049711316824,0.0018792450428009033,0.0019589851144701242,0.002038725418969989,0.0021184654906392097,0.0021982055623084307,0.0022779458668082952,0.002357685938477516],"_type":"histogram","values":[1,0,0,0,0,0,0,1,1,2,0,0,1,0,0,1,1,0,1,5,2,2,1,1,3,2,1,1,1,1,2,2,0,1,0,1,0,0,2,0,0,2,1,2,2,3,0,1,2,1,0,0,0,1,4,2,1,1,0,2,0,1,0,1]},"gradients/graph_1base.feature_norm.weight":{"bins":[-0.014286225661635399,-0.013849797658622265,-0.01341336965560913,-0.012976941652595997,-0.012540513649582863,-0.012104085646569729,-0.011667657643556595,-0.01123122964054346,-0.010794801637530327,-0.010358373634517193,-0.009921945631504059,-0.009485517628490925,-0.00904908962547779,-0.008612661622464657,-0.008176233619451523,-0.007739806082099676,-0.007303378079086542,-0.006866950076073408,-0.006430522073060274,-0.00599409407004714,-0.005557666067034006,-0.005121238064020872,-0.004684810061007738,-0.004248382057994604,-0.0038119542878121138,-0.0033755262847989798,-0.0029390982817858458,-0.0025026702787727118,-0.0020662425085902214,-0.0016298143891617656,-0.0011933865025639534,-0.0007569584995508194,-0.0003205304965376854,0.00011589747737161815,0.0005523254512809217,0.0009887533960863948,0.0014251813990995288,0.0018616094021126628,0.002298037288710475,0.002734465291723609,0.003170893294736743,0.003607321297749877,0.004043749067932367,0.004480177070945501,0.004916605073958635,0.005353033076971769,0.005789461079984903,0.006225889082998037,0.006662317086011171,0.007098745089024305,0.007535173092037439,0.007971600629389286,0.00840802863240242,0.008844456635415554,0.009280884638428688,0.009717312641441822,0.010153740644454956,0.01059016864746809,0.011026596650481224,0.011463024653494358,0.011899452656507492,0.012335880659520626,0.01277230866253376,0.013208736665546894,0.013645164668560028],"_type":"histogram","values":[1,0,0,0,0,0,0,0,0,0,0,0,0,0,0,0,0,0,0,0,0,1,0,0,0,0,0,0,0,0,0,1,1,1,1,2,0,0,1,1,0,1,0,0,0,0,0,0,0,0,0,0,0,0,0,0,0,0,0,0,0,0,0,1]},"ue_drop_ratio_mean":0.0012406913571914781,"gradients/base.mlp.fc1.0.weight":{"values":[1,2,0,4,2,1,0,1,2,3,4,6,7,9,12,12,14,22,30,47,107,225,2676,3394,282,118,56,29,18,17,16,15,3,9,4,6,2,2,0,0,2,1,2,0,0,1,1,0,0,0,0,0,0,0,0,0,0,1,0,0,0,1,0,1],"bins":[-0.05800674483180046,-0.0554884597659111,-0.05297017842531204,-0.050451893359422684,-0.047933612018823624,-0.045415326952934265,-0.042897045612335205,-0.04037876054644585,-0.03786047548055649,-0.03534219413995743,-0.03282390907406807,-0.03030562773346901,-0.02778734266757965,-0.02526905946433544,-0.022750776261091232,-0.020232493057847023,-0.017714209854602814,-0.015195926651358604,-0.012677643448114395,-0.010159359313547611,-0.007641076110303402,-0.005122792907059193,-0.002604509238153696,-8.622580207884312e-05,0.00243205763399601,0.004950340837240219,0.007468624506145716,0.009986908175051212,0.012505191378295422,0.015023474581539631,0.017541758716106415,0.020060041919350624,0.022578328847885132,0.02509661205112934,0.02761489525437355,0.03013317845761776,0.03265146166086197,0.03516974672675133,0.03768802806735039,0.040206313133239746,0.042724594473838806,0.045242879539728165,0.04776116460561752,0.05027944594621658,0.05279773101210594,0.055316012352705,0.05783429741859436,0.06035257875919342,0.06287086009979248,0.06538914889097214,0.0679074302315712,0.07042571157217026,0.07294400036334991,0.07546228170394897,0.07798056304454803,0.0804988443851471,0.08301713317632675,0.08553541451692581,0.08805369585752487,0.09057198464870453,0.09309026598930359,0.09560854732990265,0.09812682867050171,0.10064511746168137,0.10316339880228043],"_type":"histogram"},"gradients/act.action_outs.0.linear.weight":{"_type":"histogram","values":[1,0,0,0,0,0,0,0,2,0,3,1,0,1,1,2,0,2,2,1,3,4,4,8,5,5,6,6,4,6,12,5,7,7,9,11,2,8,11,2,2,6,7,6,4,5,4,3,5,0,0,2,2,2,0,1,1,0,0,0,0,0,0,1],"bins":[-0.009192826226353645,-0.008917834609746933,-0.008642843924462795,-0.008367852307856083,-0.008092861622571945,-0.007817870005965233,-0.0075428783893585205,-0.0072678872384130955,-0.0069928960874676704,-0.006717904936522245,-0.00644291378557682,-0.006167922168970108,-0.005892931018024683,-0.005617939867079258,-0.005342948250472546,-0.005067957099527121,-0.0047929659485816956,-0.0045179747976362705,-0.0042429836466908455,-0.003967992030084133,-0.003693000879138708,-0.003418009728193283,-0.0031430183444172144,-0.0028680269606411457,-0.0025930358096957207,-0.0023180446587502956,-0.002043053274974227,-0.00176806200761348,-0.0014930707402527332,-0.0012180794728919864,-0.0009430882055312395,-0.0006680969381704926,-0.0003931066021323204,-0.00011811533477157354,0.00015687593258917332,0.0004318671999499202,0.000706858467310667,0.000981849734671414,0.0012568410020321608,0.0015318322693929076,0.0018068235367536545,0.0020818146876990795,0.002356806071475148,0.002631797455251217,0.002906788606196642,0.003181779757142067,0.0034567711409181356,0.0037317625246942043,0.004006753675639629,0.004281744826585054,0.004556735977530479,0.004831727594137192,0.005106718745082617,0.005381709896028042,0.005656701512634754,0.005931692663580179,0.006206683814525604,0.006481674965471029,0.006756666116416454,0.007031657733023167,0.007306648883968592,0.007581640034914017,0.007856631651520729,0.008131622336804867,0.008406613953411579]}}